svm_type c_svc
kernel_type rbf
gamma 0.040000000000000001
nr_class 2
total_sv 176
rho 0.17015410959730504
label 200 100
probA -0.52626488562433682
probB -0.026021078584365986
nr_sv 88 88
SV
0.52400094768909555 1:0.80046636 2:1.8347612 3:0.63027714 4:-2.5985966 5:-1.3861716 6:-0.62499412 
1 1:-1.0597203 2:-0.74906134 3:-1.0496852 4:0.070880055 5:-0.015389736 6:-0.2246476 
1 1:-1.0597203 2:-0.6543818 3:-1.1281104 4:-0.073023782 5:0.035589754 6:-0.33667116 
1 1:-1.0597203 2:-0.067329095 3:-0.39599197 4:-0.2823041 5:-0.16606245 6:-0.33789547 
1 1:0.80046636 2:0.2825306 3:0.34331729 4:1.730309 5:1.5898978 6:0.16100731 
1 1:-1.0597203 2:-0.18533262 3:-0.51655106 4:0.13346009 5:-0.18787034 6:-0.050949853 
1 1:-0.12962697 2:-0.84033124 3:-1.1725476 4:0.070199837 5:0.076373346 6:-0.097473302 
1 1:-0.12962697 2:-0.49210225 3:-0.58227992 4:-0.2457235 5:-0.71324231 6:-0.27606825 
1 1:0.80046636 2:-0.083734945 3:-0.46722632 4:0.19263903 5:0.26443102 6:-0.05508187 
1 1:1.7305597 2:2.1033823 3:1.4920556 4:-0.19259094 5:-0.2793502 6:-0.43645172 
1 1:-1.0597203 2:0.20593702 3:-0.12229024 4:0.7315982 5:-0.26009129 6:0.075918367 
1 1:1.7305597 2:-0.43438528 3:-0.54452796 4:-0.16205672 5:-1.1006864 6:0.16345591 
1 1:0.80046636 2:0.52347917 3:-0.64564929 4:0.17858119 5:-0.62714361 6:-0.12058199 
1 1:-1.0597203 2:-1.0793526 3:-0.29037636 4:0.28907878 5:-0.18758712 6:0.74622332 
1 1:-1.0597203 2:-0.70350052 3:-0.21060287 4:0.10730949 5:-0.81066978 6:0.034598199 
1 1:-1.0597203 2:1.183864 3:2.5216954 4:0.71822058 5:-0.68378749 6:0.26997012 
1 1:-1.0597203 2:-1.0575605 3:-1.2104119 4:0.09612369 5:0.095349045 6:0.035669462 
1 1:1.7305597 2:-0.15232326 3:-0.43239564 4:-0.29212947 5:-0.93188767 6:-0.18914286 
1 1:0.80046636 2:-0.35571626 3:-0.41509266 4:-0.21163704 5:-0.32239955 6:-0.24852147 
1 1:-0.12962697 2:0.89804646 3:0.62780528 4:1.0788871 5:0.56011206 6:0.76091493 
1 1:-0.12962697 2:-0.50139231 3:0.056582147 4:-0.026995717 5:-1.4405497 6:0.095507187 
1 1:0.80046636 2:-0.48973032 3:1.4482363 4:0.29709024 5:-0.018788368 6:0.94272367 
1 1:-1.0597203 2:-0.57927068 3:-0.66474998 4:0.0063349515 5:0.92943014 6:-0.64458294 
1 1:-1.0597203 2:-0.5276812 3:-0.17487333 4:0.16527916 5:-0.47108973 6:1.025517 
1 1:-0.12962697 2:0.57408034 3:-0.39127297 4:0.63561192 5:0.72664506 6:0.30731131 
1 1:-1.0597203 2:-0.73996894 3:-0.38722812 4:0.10640254 5:-0.13066003 6:0.14983556 
1 1:-0.12962697 2:0.43868266 3:0.1693886 4:-0.14860353 5:-0.45721198 6:0.11570816 
1 1:-0.12962697 2:-0.60812916 3:-0.25127611 4:-0.069471534 5:-0.90356573 6:-0.14445586 
1 1:-1.0597203 2:-1.1321281 3:-1.1984459 4:0.094234197 5:0.063911693 6:0.026334165 
1 1:1.7305597 2:0.18567678 3:0.50556084 4:0.12998342 5:-0.28614747 6:-0.45114333 
1 1:0.80046636 2:-0.087045764 3:-0.85806025 4:0.31590959 5:0.35959273 6:0.18411599 
1 1:1.7305597 2:-0.25095602 3:1.2167808 4:0.045031782 5:0.5431189 6:0.33424594 
1 1:-1.0597203 2:-0.99455611 3:-0.96564211 4:0.086449483 5:-0.10375418 6:0.21120366 
1 1:-1.0597203 2:0.050279107 3:1.6459847 4:3.5085492 5:0.054848672 6:3.1948259 
1 1:-0.12962697 2:-0.85105434 3:-0.84654365 4:0.27827088 5:0.19532549 6:0.41198907 
1 1:-0.12962697 2:-0.75884555 3:-0.8487908 4:0.080251944 5:0.17465047 6:0.099027053 
1 1:0.80046636 2:-0.7391783 3:0.61724372 4:0.62941438 5:0.050317162 6:1.8027953 
1 1:-0.12962697 2:-0.37666831 3:0.4410679 4:-0.022838831 5:-0.044844552 6:0.30914776 
1 1:1.7305597 2:-0.49788383 3:0.15236651 4:0.13655885 5:-0.14142236 6:0.12504346 
1 1:1.7305597 2:0.19299024 3:0.202871 4:-0.026995717 5:-0.85258624 6:-0.41257784 
1 1:-1.0597203 2:-0.67236893 3:-0.66587355 4:0.12537305 5:-0.05050894 6:0.023273412 
1 1:-1.0597203 2:2.9082572 3:2.1315918 4:-0.3296926 5:0.1137583 6:-0.87658803 
1 1:-0.12962697 2:-0.79808123 3:-0.59756048 4:0.059089615 5:0.058247305 6:-0.28035331 
1 1:-1.0597203 2:2.1719706 3:0.199725 4:0.78473076 5:1.2330413 6:-0.59561089 
1 1:0.80046636 2:0.02517618 3:-0.82160039 4:-0.51100841 5:1.0574453 6:-1.6148417 
1 1:-1.0597203 2:-0.3837841 3:0.56376178 4:0.46517959 5:-0.030966802 6:-0.44150196 
0.061304401319096646 1:1.7305597 2:3.1786573 3:-0.013528639 4:-0.91868557 5:1.2908181 6:-1.6062716 
0.9261521214625732 1:0.80046636 2:1.6374957 3:-0.85553222 4:-0.14278389 5:1.3180071 6:-1.0651304 
1 1:-0.12962697 2:-0.78918649 3:-1.1585591 4:0.095292313 5:0.048051407 6:0.065205731 
1 1:-0.12962697 2:-0.97834792 3:-1.2146253 4:0.046618956 5:0.01406508 6:-0.21118028 
1 1:-1.0597203 2:-0.90798066 3:-1.2793429 4:0.10111195 5:0.16020628 6:0.039189328 
1 1:-1.0597203 2:-0.080720617 3:-1.1481661 4:-0.53670553 5:0.13075147 6:-0.55184211 
1 1:-1.0597203 2:-1.002512 3:-1.1795137 4:0.09037963 5:0.060796279 6:0.067501295 
1 1:-0.12962697 2:-0.43517592 3:-0.36925099 4:0.57847363 5:0.94529043 6:0.53074629 
1 1:-0.12962697 2:-0.61811103 3:-1.2365349 4:0.016311478 5:0.095915483 6:-0.1446089 
1 1:-0.12962697 2:-0.67493853 3:-0.77935415 4:0.060147731 5:0.28482281 6:0.032455671 
1 1:-1.0597203 2:0.71382656 3:-0.30475806 4:0.31167713 5:1.6861923 6:0.024497713 
1 1:-1.0597203 2:-0.84117129 3:0.67072567 4:1.4611695 5:0.21345153 6:2.0586743 
1 1:-1.0597203 2:1.3119483 3:2.5230437 4:0.82909607 5:0.078639101 6:0.10101654 
1 1:-1.0597203 2:0.21295398 3:-0.76497245 4:-0.11308105 5:0.24403922 6:-0.29259632 
1 1:-0.12962697 2:1.1737833 3:-0.37329585 4:-0.93705144 5:0.1794652 6:-0.25158223 
0.69577085519610837 1:1.7305597 2:0.58178911 3:-0.42026109 4:-2.7170301 5:-0.90696437 6:-1.9025525 
1 1:0.80046636 2:-0.83346252 3:-0.89755375 4:-0.13235388 5:-0.27566835 6:0.041484893 
1 1:0.80046636 2:3.0857567 3:0.57746934 4:-4.471236 5:-1.5493059 6:-2.6695773 
1 1:-0.12962697 2:0.45805343 3:-0.54025839 4:-0.64161022 5:0.61222443 6:-0.67947552 
1 1:-0.12962697 2:1.309181 3:0.058829288 4:0.48241177 5:1.0121302 6:0.1995728 
1 1:-1.0597203 2:-0.041040202 3:2.1367602 4:2.2701751 5:1.097096 6:2.9413955 
1 1:-0.12962697 2:-0.11496536 3:-1.0321575 4:0.15976184 5:0.30748037 6:-0.44440968 
0.5989847247271427 1:-1.0597203 2:1.9652174 3:0.13770392 4:-1.1962144 5:-1.3204647 6:0.11448386 
1 1:1.7305597 2:-0.67731046 3:0.38870953 4:0.59774647 5:0.13075147 6:1.3595983 
1 1:-1.0597203 2:-0.48814903 3:-0.97597895 4:-0.10718583 5:0.083170611 6:-0.47501721 
1 1:1.7305597 2:0.12064637 3:-0.074426149 4:-0.039617534 5:0.32787216 6:-0.35993289 
1 1:0.80046636 2:-0.46917359 3:-0.78092715 4:0.09635043 5:-0.50365996 6:0.061226751 
1 1:-1.0597203 2:-0.032936108 3:-0.98339452 4:0.027346121 5:0.73230945 6:-0.64029788 
1 1:1.7305597 2:0.39341833 3:2.0877725 4:2.6096793 5:0.84333145 6:2.1762072 
1 1:-1.0597203 2:-0.59152565 3:0.45477546 4:0.15341314 5:-0.22157345 6:0.19283914 
1 1:-1.0597203 2:-0.69376572 3:-1.108167 4:0.042991129 5:-0.044561333 6:-0.017128531 
1 1:-0.12962697 2:-0.85955375 3:-1.3249599 4:0.0098871996 5:0.19419261 6:-0.27851685 
1 1:0.80046636 2:0.88757044 3:1.2082417 4:-0.032135139 5:-0.80613826 6:-0.33728332 
1 1:-0.12962697 2:-0.11259343 3:-0.74632118 4:0.12605327 5:0.086569244 6:-0.40584419 
1 1:0.80046636 2:1.8800255 3:0.62780528 4:0.37591991 5:1.0936974 6:-1.0571725 
1 1:-1.0597203 2:-0.35927416 3:0.20646642 4:-0.30467571 5:-0.45834486 6:-0.45910129 
1 1:-1.0597203 2:-0.39426013 3:-0.36318371 4:-0.59414613 5:-0.48893255 6:-0.48236302 
1 1:-0.12962697 2:-0.80005784 3:-0.79081457 4:0.12121617 5:0.082037733 6:-0.025086489 
1 1:-0.12962697 2:-0.6735549 3:-0.80879169 4:0.083879771 5:0.37885165 6:0.054493094 
1 1:-0.12962697 2:-0.43735019 3:-0.22880471 4:0.17162786 5:-0.14680353 6:0.6299147 
1 1:-1.0597203 2:-0.48399815 3:-1.0588984 4:0.11154196 5:0.199857 6:0.047147287 
1 1:-0.12962697 2:0.89448857 3:-0.3901494 4:-3.2689134 5:-1.012322 6:-2.3683991 
-1 1:-1.0597203 2:-1.1505105 3:-1.2161983 4:0.09332724 5:0.12848571 6:0.080203421 
-1 1:-1.0597203 2:-1.0815269 3:-1.1467616 4:0.092571442 5:0.074107591 6:0.055105245 
-1 1:-0.12962697 2:-0.9925795 3:-0.28835393 4:0.29134618 5:-0.7789492 6:1.0829062 
-1 1:-1.0597203 2:-0.76309526 3:-1.0274385 4:0.11418725 5:-0.015389736 6:-0.066712732 
-1 1:-0.12962697 2:1.3908149 3:-0.9975515 4:-1.5621715 5:-0.073166491 6:-2.5600023 
-1 1:0.80046636 2:-0.41620048 3:0.6105023 4:0.8573629 5:0.37092151 6:0.80682623 
-1 1:1.7305597 2:-0.12069752 3:2.8704516 4:3.2355552 5:-1.7113074 6:4.3077157 
-1 1:1.7305597 2:0.19654813 3:-0.1759969 4:0.34319388 5:0.55331479 6:-0.14261941 
-1 1:-1.0597203 2:-0.81251047 3:-0.96317025 4:0.054630409 5:-0.1683282 6:-0.18730641 
-1 1:-0.12962697 2:0.21769784 3:0.084446691 4:0.15439567 5:2.5607738 6:-0.58948938 
-1 1:-0.12962697 2:-0.52432096 3:0.44039376 4:0.60719394 5:0.084303488 6:-0.31708234 
-0.18756800267967408 1:-1.0597203 2:-0.47885897 3:1.0318412 4:0.4864175 5:0.82633828 6:-0.17383909 
-1 1:-1.0597203 2:0.36554815 3:0.34466557 4:-0.22486349 5:0.36865575 6:0.18426903 
-0.49551572527190141 1:0.80046636 2:-0.98724266 3:1.7441847 4:2.9002834 5:0.48987365 6:3.8222803 
-1 1:0.80046636 2:0.018455711 3:-0.49891101 4:0.018352131 5:-0.2544269 6:-0.098544566 
-1 1:-0.12962697 2:-0.38892329 3:0.29814976 4:0.47130155 5:0.85692598 6:-0.0054976684 
-1 1:-1.0597203 2:0.41693997 3:-0.37666656 4:0.3617865 5:1.6125553 6:-0.85761136 
-1 1:1.7305597 2:1.2370348 3:-0.33149903 4:-1.1224486 5:0.21345153 6:-1.4526218 
-1 1:-0.12962697 2:0.070638174 3:-0.57306665 4:0.94261685 5:-0.023319879 6:0.56196598 
-1 1:0.80046636 2:-0.17248466 3:-0.44677734 4:-0.46528267 5:-0.38130918 6:-0.22097469 
-1 1:0.80046636 2:1.7438372 3:1.1093675 4:1.4539138 5:2.688789 6:0.45667607 
-1 1:-0.12962697 2:0.99430729 3:0.29949804 4:0.23503926 5:1.9807405 6:0.61277448 
-1 1:-1.0597203 2:-0.54275284 3:-0.74727622 4:0.26670718 5:0.86032461 6:0.50212825 
-1 1:-1.0597203 2:-1.1311398 3:-1.1348518 4:0.091966804 5:0.021995223 6:0.041637931 
-1 1:-0.12962697 2:-1.0759924 3:-0.8681162 4:0.14290755 5:0.085436366 6:0.57420899 
-0.90254023965446417 1:1.7305597 2:-0.89691165 3:0.95611252 4:0.42663392 5:0.092233631 6:0.65746148 
-1 1:-1.0597203 2:0.38313997 3:-0.23127656 4:0.41726203 5:1.0404521 6:0.014091152 
-1 1:0.80046636 2:-0.40868937 3:1.4590226 4:0.57514812 5:0.65980528 6:-0.47930226 
-1 1:-1.0597203 2:0.95853068 3:0.2732065 4:-0.0017520814 5:-0.036914409 6:0.35995626 
-1 1:-1.0597203 2:-1.0036485 3:-0.97103524 4:0.084559989 5:-0.15926518 6:0.078366969 
-1 1:0.80046636 2:0.3637692 3:-1.0173263 4:-0.33127978 5:0.1137583 6:-1.4758835 
-1 1:1.7305597 2:-0.42578703 3:0.1134348 4:-0.029716588 5:0.65442411 6:0.35704855 
-1 1:-1.0597203 2:-0.16042735 3:-0.34947616 4:0.10776297 5:-0.25782553 6:0.026334165 
-1 1:-0.12962697 2:-1.0676906 3:-0.78721914 4:0.12061153 5:0.21685016 6:0.29017109 
-1 1:-1.0597203 2:-1.020252 3:-0.67216555 4:0.14207618 5:-0.06410347 6:0.51421823 
-1 1:-1.0597203 2:1.4038606 3:0.49814527 4:0.27411399 5:0.48194351 6:0.2020214 
-1 1:-0.12962697 2:3.7107603 3:0.81926166 4:-1.4303604 5:-0.57389837 6:-0.85699921 
-1 1:-1.0597203 2:-0.70419233 3:0.55904278 4:0.20322019 5:-0.36658178 6:-0.045899611 
-1 1:-1.0597203 2:-0.85303095 3:-1.0968751 4:0.098995721 5:0.10809392 6:0.061226751 
-1 1:-0.12962697 2:0.46180898 3:-0.24026512 4:0.047072435 5:-0.58975865 6:-0.25586728 
-1 1:1.7305597 2:-0.56345781 3:-0.67418797 4:-0.57396634 5:-0.85825063 6:-0.21301674 
-1 1:-1.0597203 2:-0.82812568 3:-0.8856439 4:0.090455209 5:-0.14227202 6:0.076530517 
-1 1:-1.0597203 2:1.321436 3:-0.29666835 4:-1.3526645 5:0.7447711 6:-0.5643912 
-1 1:-0.12962697 2:-0.96549997 3:-0.87328463 4:0.10285029 5:-0.35072149 6:0.23568968 
-0.2205890827879767 1:-0.12962697 2:0.96821606 3:2.312936 4:1.945031 5:2.105357 6:1.3387851 
-1 1:-1.0597203 2:-0.47984727 3:0.034335456 4:0.1184953 5:-0.90243286 6:0.35873196 
-1 1:-0.12962697 2:-0.7619093 3:-0.18431132 4:-0.0378792 5:-0.083362389 6:0.18732978 
-1 1:-0.12962697 2:-0.11911624 3:0.87678846 4:0.87157189 5:1.4992675 6:-0.69477929 
-1 1:-1.0597203 2:-0.71269175 3:-0.19307517 4:0.31666539 5:-0.41416263 6:0.7290831 
-1 1:-0.12962697 2:0.75256808 3:1.0907162 4:-0.16553339 5:0.11828981 6:-0.21791394 
-1 1:1.7305597 2:-0.92972335 3:-0.72924292 4:0.085769265 5:-0.46967363 6:0.0012359887 
-1 1:-1.0597203 2:0.64187801 3:0.17702888 4:0.050020045 5:0.75156836 6:-0.31585804 
-1 1:0.80046636 2:-0.99554441 3:-1.058449 4:0.078589189 5:0.12961859 6:-0.12058199 
-1 1:-1.0597203 2:-0.49902038 3:-0.1982436 4:-0.13061555 5:0.3913133 6:0.71745224 
-1 1:1.7305597 2:0.75632364 3:0.16377075 4:-0.42930671 5:1.4482881 6:-0.43400312 
-1 1:-1.0597203 2:-0.021471779 3:1.8864287 4:0.48097576 5:-0.23856661 6:0.59808286 
-1 1:0.80046636 2:-0.73324847 3:-0.47711374 4:0.0062593717 5:0.41991846 6:0.023426449 
-1 1:-1.0597203 2:-0.5650391 3:-0.65036828 4:0.16815119 5:0.60995867 6:0.19039054 
-1 1:-0.12962697 2:-0.075433189 3:-0.14543579 4:-0.1628881 5:-0.73816561 6:-0.11078758 
-1 1:-1.0597203 2:-0.75657245 3:-0.52744969 4:0.1162279 5:-0.466275 6:0.32261507 
-1 1:1.7305597 2:0.91544062 3:1.9414837 4:2.3178659 5:1.7960815 6:1.6056828 
-1 1:-0.12962697 2:-0.85382159 3:-0.73553491 4:0.23768456 5:0.65640665 6:0.62685394 
-1 1:-1.0597203 2:-1.0532614 3:-0.77755644 4:0.1162279 5:-0.011991103 6:0.3422039 
-1 1:0.80046636 2:-0.29582503 3:-0.066111729 4:0.37176303 5:0.021995223 6:0.52584909 
-1 1:-0.12962697 2:-0.46818528 3:-0.75688275 4:0.1710988 5:0.33806806 6:0.49524156 
-1 1:-0.12962697 2:-0.66189291 3:1.1585799 4:-0.07083197 5:-0.63054224 6:-0.0042733671 
-1 1:-1.0597203 2:-0.88994411 3:-0.85952089 4:0.075868318 5:0.057680866 6:0.18748282 
-1 1:-1.0597203 2:-0.79551164 3:-0.83238667 4:0.053496713 5:0.38338316 6:0.018376207 
-1 1:-0.12962697 2:-1.0912123 3:-1.0404719 4:0.084559989 5:0.049184284 6:0.060614601 
-1 1:-0.12962697 2:-0.18750689 3:0.39500152 4:0.47190619 5:0.56917508 6:0.69969987 
-1 1:-0.12962697 2:-0.55871395 3:-0.26745553 4:0.16913373 5:0.1692693 6:0.8233543 
-1 1:0.80046636 2:-0.75420052 3:-1.0717071 4:-0.10899974 5:-0.133209 6:-0.45481624 
-1 1:0.80046636 2:0.035059222 3:-0.84227409 4:-1.1131523 5:-0.44928184 6:-1.4636405 
-1 1:-0.12962697 2:0.061348114 3:-0.3373416 4:-0.22289842 5:-0.80273963 6:-0.88638244 
-1 1:-0.12962697 2:-0.83524147 3:0.18669159 4:0.14358777 5:-0.44475033 6:0.94762088 
-1 1:0.80046636 2:0.50964291 3:0.52600982 4:-4.2810773 5:-3.3143292 6:-1.5432201 
-1 1:1.7305597 2:0.2279762 3:0.63274899 4:0.11683254 5:-0.19211863 6:0.26507291 
-1 1:-0.12962697 2:-1.0437737 3:-1.0728307 4:0.090530789 5:0.027659611 6:0.018376207 
-1 1:-0.12962697 2:-0.16497355 3:-0.39419425 4:-0.9674345 5:-1.4632072 6:-0.71375596 
-1 1:-0.12962697 2:2.8685274 3:0.23702754 4:-4.7574565 5:-2.1021502 6:-5.1120583 
-1 1:-0.12962697 2:1.2832874 3:0.52016725 4:0.63780373 5:1.1027604 6:1.9307348 
-1 1:0.80046636 2:-0.71031982 3:-0.41419381 4:0.010869736 5:-0.61694771 6:-0.028147242 
-1 1:-0.12962697 2:1.3066114 3:0.70712935 4:-0.4673989 5:-0.53651341 6:-1.5811734 
-1 1:-1.0597203 2:-0.84453153 3:-0.15644678 4:0.38551854 5:-0.299742 6:1.2604299 
-1 1:-0.12962697 2:-0.1813794 3:0.78038613 4:0.042310911 5:-1.3385907 6:1.3791871 
-1 1:-0.12962697 2:-0.38032504 3:0.59578353 4:-0.080506177 5:-0.23658408 6:0.71668705 
-1 1:-0.12962697 2:0.05798788 3:-0.11015568 4:-0.13061555 5:0.86032461 6:-0.21424104 
-1 1:-1.0597203 2:-0.94790815 3:-1.0928303 4:0.10647812 5:0.045785652 6:0.093670735 
