svm_type c_svc
kernel_type rbf
gamma 0.050000000000000003
nr_class 2
total_sv 155
rho 0.45994250237292278
label 200 100
probA -0.77614451087682979
probB -0.045642880787219509
nr_sv 77 78
SV
5 1:-1.1687952 2:-0.6794142 3:-0.80910788 4:-0.072399929 5:0.26417101 6:-0.18471475 
5 1:1.5031251 2:-0.52108859 3:-0.025923726 4:0.26688359 5:0.38766472 6:0.44196599 
5 1:-0.27815513 2:-0.51751228 3:-0.8996928 4:-0.19034472 5:0.45659541 6:-0.44800469 
5 1:-1.1687952 2:0.17139771 3:-0.30249339 4:-0.036081923 5:0.95672781 6:0.25319556 
3.2335436237309452 1:-0.27815513 2:-0.3974236 3:-0.77683664 4:-0.11546102 5:0.52792073 6:-0.59018497 
5 1:-0.27815513 2:-0.93427325 3:-0.99383158 4:-0.080917506 5:0.15367665 6:-0.23612457 
5 1:-1.1687952 2:-0.66002684 3:-0.92162731 4:-0.082100503 5:0.28144645 6:-0.3058862 
5 1:-1.1687952 2:-0.73983499 3:-0.3432289 4:-0.070625433 5:0.11861265 6:-0.30761634 
5 1:-0.27815513 2:-0.25689887 3:-0.85345456 4:-0.047083795 5:0.83699707 6:-0.29328091 
5 1:0.61248497 2:-0.7881286 3:-0.65482117 4:-0.061989556 5:-0.28847186 6:-0.10420153 
5 1:-1.1687952 2:-0.5686293 3:-0.74189046 4:-0.057967366 5:0.045576896 6:-0.27665923 
1.6411843583168135 1:-1.1687952 2:0.59630621 3:0.30315119 4:-1.138635 5:-2.8479729 6:-0.29711193 
5 1:0.61248497 2:-0.80910245 3:-0.84015629 4:-0.07169013 5:0.27255217 6:-0.16352056 
5 1:-1.1687952 2:-0.63190038 3:-0.79731904 4:-0.073582925 5:0.13537495 6:-0.26201485 
5 1:0.61248497 2:-0.68089312 3:-0.40161902 4:-0.14207845 5:-0.86181105 6:-0.25225192 
5 1:-0.27815513 2:-0.45824774 3:-0.51637393 4:0.0044948709 5:0.13315138 6:-0.22586732 
5 1:-0.27815513 2:-0.80996291 3:-0.66131746 4:-0.049686388 5:0.16924164 6:-0.19837048 
5 1:-1.1687952 2:-1.0052347 3:-1.0087921 4:-0.074411023 5:-0.010525507 6:-0.28308546 
5 1:-1.1687952 2:-0.54983351 3:-0.70652394 4:-0.04873999 5:-0.12016465 6:-0.42242336 
5 1:0.61248497 2:0.32714192 3:0.039822472 4:-0.34046703 5:-0.53580136 6:-0.48532624 
5 1:0.61248497 2:-0.052108138 3:0.15125282 4:-0.096059867 5:1.6874274 6:-0.14720782 
5 1:-1.1687952 2:-0.40906677 3:-0.75576194 4:-0.16999717 5:0.18600395 6:-0.51659231 
5 1:-0.27815513 2:-0.36832912 3:-0.50464241 4:-0.11475122 5:-0.32473317 6:-0.088630292 
5 1:-1.1687952 2:-0.57021578 3:-0.91329678 4:-0.21045567 5:0.28965656 6:-0.47272095 
4.2678701939568766 1:0.61248497 2:0.72220303 3:0.011162403 4:-0.18265524 5:-0.21116001 6:-0.32541205 
5 1:-1.1687952 2:-0.04145988 3:-0.33627406 4:-0.22938362 5:0.011881246 6:-0.41142463 
5 1:1.5031251 2:-0.19386979 3:-0.10141435 4:0.0043765712 5:-0.090745101 6:-0.27400223 
5 1:-0.27815513 2:-0.78221291 3:1.2586779 4:3.6114525 5:0.20550295 6:2.5871519 
5 1:-1.1687952 2:-0.50979498 3:-0.95386033 4:-0.1206662 5:0.27272321 6:-0.30687486 
5 1:1.5031251 2:0.6084065 3:0.52306945 4:-1.7314348 5:-0.15574179 6:-0.9480146 
5 1:-1.1687952 2:1.2186915 3:-0.0024415763 4:-0.51164668 5:0.49969848 6:-0.43787103 
5 1:-1.1687952 2:-0.61087276 3:1.4455415 4:3.5020252 5:0.54827495 6:2.0651445 
5 1:-1.1687952 2:-0.44485675 3:-0.49631189 4:-0.11191203 5:-0.29343214 6:-0.35142591 
5 1:0.61248497 2:1.3967002 3:0.49425653 4:0.028982907 5:0.8164718 6:-0.14844364 
5 1:1.5031251 2:2.2757731 3:0.50931262 4:0.0055595681 5:-0.18310881 6:0.01097623 
2.7679485784088249 1:1.5031251 2:1.041839 3:0.75057308 4:1.2007414 5:-3.3239882 6:0.37103033 
5 1:-1.1687952 2:-0.58543526 3:-0.630976 4:-0.32485147 5:-0.65980819 6:-0.18323177 
5 1:-1.1687952 2:-0.79490477 3:-0.88234391 4:-0.076185519 5:0.24518514 6:-0.22827715 
5 1:-0.27815513 2:-0.34520412 3:-0.64488568 4:0.0068608647 5:0.63379691 6:-0.40573989 
5 1:-0.27815513 2:-0.34681749 3:-0.76862075 4:0.026498613 5:0.82605026 6:-0.069598773 
5 1:-0.27815513 2:-0.57311985 3:1.7588152 4:-0.18726893 5:-0.40478172 6:-0.34197194 
5 1:-0.27815513 2:-0.62560823 3:-0.61546135 4:-0.05276218 5:0.5441699 6:-0.16179042 
5 1:-0.27815513 2:-0.0016633621 3:-0.43532326 4:-0.078433213 5:0.10766584 6:-0.28388873 
5 1:-0.27815513 2:-0.32347737 3:-0.57105735 4:0.38494668 5:-0.2987345 6:0.015672319 
1.0379033438497387 1:0.61248497 2:0.69335056 3:-0.6788001 4:-4.8960698 5:-1.5945632 6:-2.335091 
5 1:0.61248497 2:0.1850576 3:1.1033021 4:1.73865 5:0.6762158 6:2.4405844 
5 1:1.5031251 2:0.27696604 3:0.89985382 4:0.41085431 5:0.48533079 6:-0.16141967 
1.9903270724402693 1:0.61248497 2:1.490975 3:0.09423839 4:-4.1348113 5:-3.6347749 6:-1.6583599 
5 1:-1.1687952 2:-0.63380954 3:-0.82286471 4:-0.07192673 5:0.31856298 6:-0.23241713 
5 1:-1.1687952 2:3.2603604 3:0.96817943 4:-1.0455332 5:0.45591124 6:-0.77351782 
5 1:1.5031251 2:0.92688621 3:0.6521544 4:0.25316082 5:-2.7911864 6:0.61256996 
3.8217929042356871 1:-0.27815513 2:2.1042178 3:1.754841 4:-2.6857584 5:-3.6785622 6:-0.61978269 
5 1:-1.1687952 2:-0.53536694 3:-0.77427634 4:-0.1210211 5:-0.20927853 6:-0.47599585 
5 1:-0.27815513 2:-0.82545129 3:-0.70656215 4:-0.084348197 5:-0.41436018 6:-0.014234354 
5 1:1.5031251 2:2.8930493 3:1.3777509 4:0.13959312 5:1.9275731 6:-0.8469251 
5 1:1.5031251 2:0.022106991 3:-0.39489345 4:-0.42375001 5:0.45864794 6:-0.57825937 
5 1:-1.1687952 2:-0.36424191 3:0.39902867 4:-0.27149831 5:-1.7938293 6:0.14376433 
5 1:-0.27815513 2:-0.6647594 3:0.12618481 4:-0.1966146 5:0.2547636 6:-0.22456971 
5 1:-0.27815513 2:-0.76650942 3:-0.89289081 4:-0.076422118 5:0.18155681 6:-0.26807033 
5 1:1.5031251 2:-0.15643955 3:1.0455998 4:0.14207741 5:0.34781149 6:1.5483275 
5 1:0.61248497 2:-0.64088149 3:-0.64557352 4:-0.16905078 5:-0.28984021 6:-0.013492866 
5 1:-0.27815513 2:-0.25485526 3:-0.50105035 4:-0.21968304 5:-0.74344867 6:-0.4618458 
1.5678646483587577 1:1.5031251 2:1.8422061 3:1.5643853 4:4.6346265 5:3.2774516 6:0.20574035 
5 1:0.61248497 2:-0.17434798 3:-0.21139259 4:0.31964525 5:0.39159873 6:0.52717529 
5 1:-1.1687952 2:-0.4123204 3:-0.98681941 4:-0.072399929 5:0.48806749 6:-0.3204688 
5 1:0.61248497 2:1.4467148 3:0.66231917 4:-0.20418578 5:-0.53135422 6:-0.41883951 
5 1:-0.27815513 2:-0.39040543 3:-0.43163566 4:-0.10647024 5:-0.46071308 6:-0.32899591 
5 1:-1.1687952 2:-0.7986693 3:-0.90611266 4:-0.079261311 5:0.10082408 6:-0.25818383 
5 1:-1.1687952 2:-0.43480006 3:-0.78512895 4:-0.14054055 5:0.68989931 6:-0.57059733 
5 1:1.5031251 2:-0.17676804 3:1.7076856 4:0.78834863 5:1.0203561 6:0.54460025 
0.69548468541348629 1:1.5031251 2:-0.30382111 3:-0.91572333 4:-0.069560736 5:-0.11383603 6:-0.40085843 
2.5998141643500934 1:0.61248497 2:-0.071683722 3:-0.30440406 4:-0.771906 5:-1.7355034 6:-0.91415333 
5 1:-1.1687952 2:-0.68183426 3:-0.5905653 4:0.03927498 5:0.055668487 6:-0.02344116 
5 1:-0.27815513 2:-0.039631391 3:-0.52588908 4:-0.47651167 5:0.21166053 6:-0.33678153 
5 1:-1.1687952 2:-0.086741864 3:0.052815037 4:-0.027209446 5:-1.5740379 6:0.11503168 
5 1:1.5031251 2:-0.035221507 3:0.13772527 4:-0.096769665 5:1.6648496 6:-0.19243858 
5 1:0.61248497 2:-0.60748468 3:-0.61981768 4:-0.18206374 5:-0.50826329 6:0.011408765 
-1.9086287792272236 1:-0.27815513 2:0.3881274 3:2.2590289 4:5.9037456 5:-0.0626939 6:3.8983494 
-5 1:-1.1687952 2:0.97937459 3:0.7924741 4:-0.54808299 5:-1.7129256 6:0.7860781 
-5 1:-0.27815513 2:1.5027526 3:0.15889551 4:0.0035484734 5:-0.23510616 6:-0.014234354 
-5 1:0.61248497 2:-0.7465036 3:-0.34598027 4:-0.059386962 5:0.2239757 6:0.019379758 
-5 1:1.5031251 2:-0.50170123 3:-0.30470977 4:-0.11321332 5:0.38886203 6:-0.18823681 
-5 1:-1.1687952 2:-0.81361989 3:-0.65336906 4:-0.074056124 5:0.099455728 6:-0.10568451 
-5 1:-1.1687952 2:-0.79963733 3:-0.80637562 4:-0.093812173 5:0.18634604 6:-0.1486908 
-5 1:-1.1687952 2:-0.77231756 3:-0.61194571 4:-0.05666607 5:0.25886865 6:-0.25744234 
-5 1:-0.27815513 2:-0.92214607 3:-0.60453231 4:-0.047083795 5:0.36970511 6:-0.025109508 
-2.4545410370067944 1:0.61248497 2:0.75414781 3:1.2654034 4:3.0624236 5:-0.63808562 6:2.7876007 
-2.9121609375975188 1:1.5031251 2:-0.66282335 3:2.662792 4:3.0193625 5:-0.31994394 6:2.0241155 
-4.4815545569946602 1:-0.27815513 2:2.5082062 3:1.0697507 4:0.018690834 5:1.4349666 6:-0.3666882 
-3.7644218859694147 1:-1.1687952 2:1.4777991 3:0.86095256 4:0.057256533 5:1.0634592 6:-0.034254523 
-5 1:0.61248497 2:-0.8750356 3:-0.43333616 4:-0.077250216 5:0.23013328 6:-0.15165675 
-5 1:-0.27815513 2:-0.77941639 3:-0.57954073 4:-0.043179905 5:-0.02643259 6:-0.078990951 
-5 1:-0.27815513 2:0.97421179 3:0.26681022 4:-0.075239121 5:0.14871637 6:-0.15388121 
-5 1:-1.1687952 2:-0.68549123 3:-0.82485181 4:-0.074411023 5:0.1312699 6:-0.23334399 
-5 1:0.61248497 2:-1.0269077 3:-0.86912206 4:-0.068969237 5:0.19592449 6:-0.17340706 
-5 1:-0.27815513 2:-0.070823257 3:-0.1306094 4:-0.058322265 5:0.26707876 6:-0.23519771 
-5 1:1.5031251 2:1.6196683 3:0.84987066 4:-0.32000118 5:-0.59156167 6:1.1639897 
-5 1:-1.1687952 2:-0.72692801 3:-0.79353591 4:-0.078551512 5:0.18976691 6:-0.16648651 
-5 1:-0.27815513 2:-0.81889024 3:-0.70602716 4:-0.067431341 5:-0.018906658 6:-0.10865046 
-5 1:-0.27815513 2:0.17742097 3:-0.18380249 4:-0.086359292 5:0.41896575 6:-0.26634019 
-5 1:-1.1687952 2:-0.47007914 3:-0.58718341 4:-0.15568291 5:-0.23510616 6:-0.29476389 
-5 1:-0.27815513 2:-0.6634687 3:-0.45374213 4:-0.12894718 5:-0.11469125 6:-0.3145369 
-3.1052636375218943 1:0.61248497 2:2.983936 3:2.0899727 4:2.6192729 5:-1.1902154 6:-0.80564895 
-5 1:0.61248497 2:-0.76220709 3:-0.43891532 4:-0.062581054 5:0.14050627 6:-0.28660752 
-5 1:-1.1687952 2:-0.58930735 3:-0.49849005 4:-0.01821867 5:0.41349235 6:0.022592872 
-5 1:-0.27815513 2:-0.80684372 3:-0.60529657 4:-0.015379477 5:0.39501961 6:-0.21567186 
-3.7777172268277344 1:0.61248497 2:1.7488456 3:0.70152615 4:0.11475018 5:4.3146619 6:-0.90624413 
-5 1:0.61248497 2:2.0937846 3:0.9672623 4:-0.28060739 5:0.22465987 6:-0.11013344 
-5 1:0.61248497 2:-0.76543383 3:1.3597142 4:3.3275332 5:-0.10784949 6:2.7151821 
-5 1:-1.1687952 2:-0.81351233 3:-0.7881096 4:-0.052170681 5:0.26707876 6:-0.025109508 
-5 1:-1.1687952 2:-0.80426233 3:-0.50594167 4:-0.051697483 5:0.22123899 6:-0.056499156 
-5 1:-1.1687952 2:-0.79339895 3:-0.60690154 4:-0.061161458 5:0.34986401 6:-0.20504387 
-5 1:1.5031251 2:-0.20680366 3:0.095671393 4:-0.22287714 5:-0.8760077 6:-0.055325134 
-5 1:-1.1687952 2:-0.81082338 3:-0.3349748 4:-0.099253958 5:-0.23579034 6:-0.11211074 
-5 1:-1.1687952 2:-0.94419549 3:-0.70778498 4:-0.086004393 5:-0.049694562 6:-0.14399471 
-5 1:-1.1687952 2:0.86331934 3:0.88701411 4:-3.0179439 5:-4.7534021 6:-1.2757522 
-5 1:0.61248497 2:0.0047901273 3:-0.116929 4:-0.20939097 5:-0.70445065 6:-0.89215586 
-5 1:-1.1687952 2:-0.75865767 3:-0.47812229 4:-0.063290852 5:0.21166053 6:-0.20084211 
-5 1:0.61248497 2:0.28433378 3:-0.037980062 4:0.0074523632 5:0.98751572 6:-0.10494302 
-0.33372872477575949 1:-1.1687952 2:-0.7544629 3:-0.43922103 4:-0.032532933 5:0.23286998 6:0.079934591 
-5 1:0.61248497 2:0.93186077 3:-0.46270318 4:-1.0923799 5:-0.40922886 6:-1.7883674 
-5 1:1.5031251 2:0.527953 3:0.33811647 4:0.14858389 5:1.3398662 6:0.25665584 
-5 1:-0.27815513 2:-0.48578263 3:-0.35423437 4:0.02022873 5:-0.616192 6:0.053241032 
-2.5063847471773926 1:1.5031251 2:-0.040706973 3:0.65291867 4:0.44977491 5:0.41622905 6:1.2327009 
-5 1:-1.1687952 2:-0.69799487 3:-0.81298654 4:-0.068850938 5:0.22089691 6:-0.25929606 
-5 1:-0.27815513 2:-0.54999485 3:-0.4795744 4:-0.042470107 5:0.2687892 6:-0.30044863 
-5 1:1.5031251 2:-0.29981457 3:-0.084829721 4:-0.096178166 5:-0.9870152 6:0.44029764 
-5 1:-1.1687952 2:-0.81286698 3:-0.74500486 4:-0.092037677 5:-0.098955209 6:-0.20875131 
-5 1:-0.27815513 2:2.3275085 3:1.0153348 4:0.48940531 5:-0.11400707 6:0.09031542 
-5 1:-1.1687952 2:-0.92171584 3:-0.71458697 4:-0.043534804 5:0.044037501 6:-0.015717329 
-5 1:-1.1687952 2:0.339296 3:-0.11861039 4:0.025079017 5:1.1955051 6:0.021604221 
-3.2131170383693499 1:1.5031251 2:-0.031672088 3:1.1588644 4:-0.67229766 5:-0.47730434 6:-0.20627968 
-5 1:-1.1687952 2:-0.92757776 3:-0.86621784 4:-0.072636528 5:0.2084107 6:-0.22772104 
-5 1:1.5031251 2:1.8356451 3:0.93608015 4:-0.62781698 5:1.4411242 6:-0.43193912 
-1.4298024481715645 1:-1.1687952 2:1.5580375 3:1.9419339 4:2.9563088 5:4.5260722 6:1.5609328 
-5 1:0.61248497 2:-0.64012858 3:-0.38839717 4:-0.15686591 5:0.041300798 6:-0.21493037 
-5 1:-0.27815513 2:-0.51213437 3:-0.42343888 4:-0.10694344 5:-0.96512158 6:0.09896611 
-5 1:0.61248497 2:0.0033918713 3:0.29936806 4:-0.13154977 5:-0.53819597 6:0.3335234 
-5 1:-0.27815513 2:-0.18655583 3:0.16573571 4:-0.072636528 5:0.14905846 6:-0.13126584 
-5 1:-0.27815513 2:-0.8032943 3:-0.68072988 4:-0.090144882 5:-0.099639384 6:-0.23223175 
-5 1:1.5031251 2:-0.62248904 3:0.77558376 4:-0.068259439 5:0.59411472 6:-0.20603252 
-5 1:0.61248497 2:-0.80361698 3:-0.78077262 4:-0.068969237 5:0.20892383 6:-0.27894548 
-5 1:0.61248497 2:-0.33200135 3:0.029753235 4:0.084347163 5:-0.19422667 6:0.3064591 
-5 1:-0.27815513 2:0.93804536 3:-1.0848942 4:-1.5874641 5:0.23321207 6:-1.2394811 
-5 1:1.5031251 2:0.37952275 3:-0.2493003 4:-1.6874273 5:-1.4762008 6:-1.1828191 
-5 1:-1.1687952 2:-0.81652396 3:-0.6537512 4:-0.070388834 5:0.11313924 6:-0.187001 
-5 1:-0.27815513 2:-0.76876814 3:-0.51450148 4:-0.11084733 5:-0.14958421 6:-0.13954578 
-0.21794359342606712 1:-0.27815513 2:-0.7333815 3:4.965533 4:2.2666216 5:-0.13179564 6:4.8701927 
-5 1:-0.27815513 2:-0.73166057 3:-0.43967959 4:-0.10978263 5:-0.20500243 6:-0.036478986 
-5 1:-0.27815513 2:-0.58825866 3:-0.37718153 4:-0.045664198 5:0.15880797 6:-0.059094363 
-5 1:-1.1687952 2:-0.81727687 3:-0.70533932 4:-0.053235379 5:0.2828148 6:0.024075847 
-5 1:-0.27815513 2:-0.80071291 3:-0.6506177 4:-0.046492296 5:0.078930459 6:0.041624391 
-5 1:-1.1687952 2:-0.61028119 3:-0.68195271 4:-0.097952662 5:0.091245621 6:-0.19997704 
-3.5184689599961207 1:0.61248497 2:-0.45598902 3:1.0039472 4:-0.52371325 5:-5.3274255 6:-0.12718766 
-5 1:-1.1687952 2:-0.79372163 3:-0.69089465 4:-0.070507133 5:0.13229616 6:-0.08170974 
