svm_type c_svc
kernel_type rbf
gamma 0.01
nr_class 2
total_sv 145
rho 1.7270989604670859
label 100 200
probA -1.0538322570151104
probB -0.1315914472508033
nr_sv 73 72
SV
10 1:0.67834488 2:-0.48282863 3:-0.67165299 4:0.14803178 5:0.14069651 6:0.2065399 
10 1:-1.1438597 2:-1.1331279 3:-1.1719048 4:0.0090129423 5:-0.17281109 6:0.1787196 
10 1:0.67834488 2:-1.0632101 3:-0.38926931 4:0.1247599 5:-0.075712583 6:0.88045005 
10 1:-1.1438597 2:-0.80904085 3:-0.62096218 4:-0.0062209496 5:-0.56818606 6:0.041448389 
10 1:0.67834488 2:0.03358552 3:0.64630819 4:-0.14347908 5:-0.15313754 6:-0.36560652 
3.3235560153594919 1:1.5894472 2:-1.1289839 3:0.36994085 4:2.3832035 5:-0.066827752 6:2.3692021 
10 1:-1.1438597 2:0.59292792 3:0.20391563 4:0.68519871 5:-1.0917565 6:0.25266303 
10 1:-1.1438597 2:-0.77854479 3:-0.42805546 4:-0.060266818 5:-0.22548545 6:0.071098971 
10 1:-1.1438597 2:-0.31951 3:-0.0069120803 4:-0.0053788752 5:0.30189273 6:0.1787196 
10 1:-0.23275739 2:-0.77036292 3:-0.85854337 4:-0.013646515 5:-0.092847614 6:-0.12071467 
10 1:-0.23275739 2:-1.1748873 3:-1.0261047 4:-0.0080582029 5:-0.16329163 6:0.18640679 
10 1:0.67834488 2:-0.45222631 3:-0.25819003 4:-0.13689559 5:0.12038833 6:0.18457651 
10 1:1.5894472 2:-1.0975315 3:-0.97592589 4:0.096971444 5:0.022020556 6:0.48327867 
10 1:-1.1438597 2:-0.35011232 3:-0.35509141 4:0.047365605 5:0.24287207 6:-0.46407574 
10 1:-0.23275739 2:-0.52246288 3:0.067588056 4:0.20115902 5:0.53416759 6:0.64434356 
10 1:-1.1438597 2:-1.0560908 3:-0.87403223 4:0.031825504 5:-0.32258395 6:0.35040014 
10 1:-0.23275739 2:0.25662118 3:0.72247242 4:-0.36624604 5:-0.30100651 6:-0.23016559 
0.74209881457774551 1:-0.23275739 2:-0.71500248 3:0.87275276 4:2.525361 5:0.14704282 6:2.5529625 
10 1:0.67834488 2:0.13601828 3:-0.65603612 4:-1.0549864 5:-0.17344572 6:-0.80560652 
10 1:1.5894472 2:0.9851264 3:0.34945971 4:-1.5539538 5:-2.3343635 6:-0.79608905 
10 1:1.5894472 2:0.31113156 3:0.40053454 4:-0.13643628 5:1.0729691 6:-0.42344346 
10 1:1.5894472 2:-0.36828244 3:0.44866522 4:3.1398457 5:1.9309899 6:1.4273386 
10 1:0.67834488 2:-0.86036349 3:-0.76650626 4:0.013376419 5:-0.62657209 6:0.61396087 
10 1:0.67834488 2:0.89714473 3:0.32641843 4:0.55138543 5:0.56145671 6:-0.021513341 
10 1:-1.1438597 2:-1.1580986 3:-1.1510396 4:0.0015108247 5:-0.14171418 6:0.047305294 
10 1:-0.23275739 2:1.1656588 3:0.8680165 4:-0.39648417 5:0.90859975 6:-1.5088012 
10 1:-0.23275739 2:-0.5543403 3:-0.18561 4:0.049891828 5:0.99173638 6:0.093428422 
10 1:-0.23275739 2:-0.9540831 3:-1.0245686 4:0.0080177635 5:-0.08142426 6:0.054260369 
10 1:-1.1438597 2:0.49687064 3:-0.26459039 4:-0.31694641 5:1.9785872 6:-1.7547912 
10 1:0.67834488 2:0.046867777 3:-0.63465894 4:0.082120313 5:0.25746857 6:-0.42856825 
10 1:-0.23275739 2:-1.0156596 3:-1.1998103 4:-0.03002869 5:-0.29751604 6:-0.080082393 
10 1:-0.23275739 2:-0.12505776 3:-0.38402102 4:0.098502489 5:-0.1296562 6:-0.17269471 
10 1:-1.1438597 2:-0.40557902 3:-0.69379822 4:-0.048554328 5:-0.91405983 6:-0.28470802 
0.30106503679487057 1:1.5894472 2:0.096277772 3:0.7310489 4:0.73710112 5:1.8618152 6:0.43056652 
10 1:-1.1438597 2:-1.0778206 3:-1.1980822 4:0.0023528991 5:-0.13663714 6:0.065242066 
10 1:-0.23275739 2:1.6749537 3:0.50844454 4:0.22733988 5:-0.32512248 6:-0.52191268 
10 1:-1.1438597 2:-1.1917824 3:-0.78301917 4:0.077986493 5:-0.11759821 6:0.4485033 
10 1:-0.23275739 2:-0.49024012 3:-0.87726441 4:-0.11622649 5:-0.30624221 6:-0.023526653 
10 1:-0.23275739 2:3.175955 3:1.8036205 4:-0.19270216 5:0.56145671 6:-1.8411806 
10 1:-1.1438597 2:-1.0200694 3:-1.2092828 4:0.0054915402 5:-0.082693522 6:0.071098971 
10 1:0.67834488 2:-0.23503484 3:0.21543627 4:-0.25409704 5:-0.7915761 6:0.38700579 
10 1:-1.1438597 2:-1.0276137 3:-0.52943709 4:0.0025825558 5:-0.34606529 6:0.12966802 
10 1:-0.23275739 2:-1.0100811 3:-0.6250584 4:0.016208851 5:0.063906187 6:0.0026463923 
10 1:-1.1438597 2:1.1667214 3:0.083332931 4:-0.76776244 5:0.11531128 6:-1.792129 
10 1:-0.23275739 2:-0.1182838 3:-0.49996346 4:-0.2080126 5:-0.48695332 6:-0.36926708 
10 1:-1.1438597 2:-0.65581674 3:-0.60284917 4:0.00036254137 5:-0.79665314 6:0.31178117 
10 1:-0.23275739 2:1.8737625 3:2.4335434 4:0.41879698 5:-2.3115168 6:-0.28544013 
10 1:-0.23275739 2:-0.14312162 3:0.078084639 4:-0.65392929 5:-1.6070766 6:1.2373552 
10 1:-0.23275739 2:0.2707535 3:0.52751759 4:-0.65653207 5:1.1275474 6:-0.078618167 
10 1:1.5894472 2:1.3666991 3:3.2998955 4:-0.086753886 5:-1.1920281 6:0.10916885 
10 1:1.5894472 2:-0.77583521 3:-0.44111219 4:0.1058515 5:-0.17043123 6:0.75516719 
10 1:-1.1438597 2:-0.53468256 3:-0.57923186 4:0.079517538 5:0.062002295 6:-0.099483391 
10 1:0.67834488 2:0.60334121 3:0.97272632 4:0.68236628 5:2.2324395 6:-1.721114 
10 1:-0.23275739 2:-0.88363401 3:-0.94354009 4:5.6332488e-05 5:-0.25975551 6:0.052430086 
10 1:0.67834488 2:0.020143876 3:0.18817075 4:0.12093229 5:-1.1704507 6:0.81693924 
10 1:-0.23275739 2:-1.1722309 3:-1.1493755 4:0.012687449 5:-0.13981029 6:0.23655654 
10 1:-1.1438597 2:0.62958695 3:0.052483218 4:0.26982636 5:-0.50281909 6:-0.4230774 
8.5824297938338532 1:-1.1438597 2:-1.0321828 3:-0.25774201 4:0.42989705 5:-0.18486908 6:1.1729293 
10 1:1.5894472 2:0.23706969 3:0.28545615 4:-0.25203013 5:0.23017945 6:-0.59915061 
10 1:1.5894472 2:0.78993035 3:1.4258715 4:4.5492486 5:2.7864722 6:1.5730291 
10 1:-1.1438597 2:-0.96383227 3:-0.81095673 4:-0.20525672 5:-0.24563497 6:0.17798749 
10 1:-1.1438597 2:-1.0890308 3:-0.93624368 4:-0.014105828 5:-0.27752517 6:0.09049997 
10 1:-1.1438597 2:0.03305423 3:-0.032257488 4:-0.068534457 5:0.074060279 6:0.13223042 
5.2083290669789637 1:0.67834488 2:1.4890021 3:0.48412319 4:5.1550063 5:7.2860044 6:1.055059 
10 1:1.5894472 2:0.12379861 3:-0.031489445 4:-0.19874979 5:0.66299764 6:0.59199747 
10 1:1.5894472 2:-0.35021857 3:0.54313446 4:-0.10520297 5:-0.64878417 6:0.42690596 
10 1:1.5894472 2:-0.51932827 3:-0.018048699 4:0.5297977 5:-0.21755256 6:0.71224706 
10 1:-1.1438597 2:-0.93378781 3:-1.1632003 4:0.0025825558 5:0.22002536 6:-0.15036525 
10 1:-1.1438597 2:-0.89107207 3:-0.85137497 4:0.0045729135 5:-0.37081589 6:0.16920213 
10 1:-0.23275739 2:0.54160528 3:0.58499279 4:-0.083385588 5:1.4734211 6:0.70913558 
7.5353946933949434 1:-0.23275739 2:1.7842932 3:2.7934994 4:0.63674115 5:1.0551995 6:-0.16061484 
10 1:1.5894472 2:0.38869994 3:0.48373916 4:-0.010737531 5:-0.42856729 6:-0.51056492 
10 1:0.67834488 2:-0.79172079 3:-0.16180068 4:0.2023073 5:0.063271556 6:0.84604073 
-10 1:-0.23275739 2:-0.056415052 3:-0.84612668 4:0.24088962 5:1.6365212 6:-0.0021123432 
-10 1:1.5894472 2:0.52991689 3:0.59830553 4:0.59731676 5:-0.19819632 6:-1.365307 
-10 1:-1.1438597 2:-0.18105575 3:-0.72439192 4:-0.066390995 5:0.030905387 6:-0.19941684 
-10 1:0.67834488 2:0.25290214 3:-0.28327943 4:0.001281168 5:-0.51360782 6:0.22886935 
-10 1:-1.1438597 2:-0.86588891 3:-1.0335291 4:-0.00032642862 5:-0.12204063 6:0.0041106185 
-10 1:-0.23275739 2:-0.65316029 3:-0.90091372 4:0.075843031 5:-0.37589294 6:-0.042378566 
-10 1:-0.23275739 2:0.5701887 3:0.065155921 4:0.12093229 5:-0.21660061 6:-0.012727984 
-10 1:0.67834488 2:0.76942255 3:0.97131824 4:-1.4785498 5:-2.8687226 6:-0.18843514 
-10 1:0.67834488 2:-0.33406735 3:0.22618886 4:0.05479117 5:-0.23881269 6:0.49572459 
-10 1:-0.23275739 2:-0.60056255 3:-1.0710352 4:-0.13123073 5:-0.24071658 6:-0.69432532 
-5.0511003774180692 1:-0.23275739 2:3.0309127 3:3.1206856 4:-0.074888292 5:-0.48822259 6:-3.3855732 
-3.503206079683141 1:0.67834488 2:0.13548699 3:-0.49641126 4:0.61829207 5:0.072156387 6:-0.18989936 
-10 1:-1.1438597 2:-0.64391584 3:-1.0065196 4:0.11748744 5:0.55764893 6:-0.018584889 
-10 1:-0.23275739 2:-0.58759907 3:-0.56566311 4:-0.055137819 5:-0.066193122 6:0.098919271 
-10 1:-1.1438597 2:0.058449905 3:0.071556277 4:0.19005894 5:-0.72620913 6:0.84494256 
-10 1:-1.1438597 2:-1.047723 3:-1.1564479 4:0.0039604958 5:-0.0036819904 6:0.078786159 
-10 1:-1.1438597 2:-0.88002123 3:-1.2464049 4:-0.077644172 5:-0.15186828 6:-0.24334362 
-10 1:-1.1438597 2:-0.18860007 3:-0.49871539 4:-0.050315029 5:0.2435067 6:-0.67236193 
-10 1:-1.1438597 2:-0.82699846 3:-0.24090907 4:-0.11377682 5:-0.079520368 6:0.32953491 
-10 1:0.67834488 2:0.64244417 3:-0.16986513 4:-0.082390409 5:2.3269995 6:-0.53472466 
-10 1:-0.23275739 2:-0.75644312 3:-0.6213462 4:-0.10252364 5:-0.078251106 6:0.041814445 
-10 1:-1.1438597 2:-0.68046861 3:-0.9402119 4:-0.069146875 5:0.04169411 6:-0.41648838 
-10 1:-1.1438597 2:2.025074 3:1.9924309 4:-1.1230413 5:0.79880862 6:-0.59988273 
-10 1:-0.23275739 2:0.29636169 3:-0.42575134 4:-0.15917229 5:-0.64243786 6:0.0022803357 
-10 1:-1.1438597 2:-0.99244226 3:-1.2279719 4:0.0061805102 5:-0.20644652 6:0.07658982 
-7.7998182773525722 1:1.5894472 2:1.2917871 3:1.1310711 4:2.4757552 5:-0.4266634 6:-0.09216226 
-10 1:0.67834488 2:-0.38666509 3:-0.74500106 4:-0.44938176 5:0.40343365 6:-0.89858489 
-10 1:1.5894472 2:-0.17457401 3:0.48361116 4:0.47414424 5:-2.4777901 6:0.55795421 
-10 1:-0.23275739 2:-0.76908782 3:-1.1795852 4:-0.030947317 5:-0.061750706 6:-0.53765311 
-10 1:-0.23275739 2:-0.37402038 3:-0.5853762 4:0.0084770768 5:-0.066193122 6:0.08720546 
-10 1:-0.23275739 2:-0.51959391 3:0.1980273 4:0.36689458 5:-0.48060702 6:0.9946597 
-10 1:1.5894472 2:-0.0024890895 3:-0.455641 4:0.91110431 5:1.3417352 6:0.18054989 
-10 1:-1.1438597 2:-0.7582495 3:-1.175745 4:-0.048095014 5:0.1178498 6:-0.18148006 
-10 1:1.5894472 2:0.2773415 3:0.36290045 4:-0.42993749 5:0.40279902 6:0.47559148 
-10 1:1.5894472 2:-1.1108137 3:-1.26663 4:0.0025060036 5:0.0086933096 6:0.0081372408 
-10 1:-1.1438597 2:-0.56347849 3:-0.68202157 4:-0.18481728 5:-0.84298119 6:-0.13535694 
-10 1:-0.23275739 2:-0.41163573 3:-0.61840203 4:-0.084304215 5:0.10515719 6:-0.18953331 
-10 1:1.5894472 2:0.52120373 3:-0.27060672 4:1.3184387 5:2.212766 6:0.061215444 
-10 1:0.67834488 2:-0.84357472 3:-0.97951009 4:-0.0094361429 5:0.055021356 6:-0.018218832 
-10 1:0.67834488 2:-1.0406834 3:-1.1836814 4:0.011079852 5:-0.13282935 6:0.13808732 
-10 1:-1.1438597 2:-0.83879311 3:-1.0413375 4:0.010773643 5:0.11404202 6:-0.10387607 
-10 1:-0.23275739 2:-0.82200434 3:-1.1391349 4:-0.0062975018 5:-0.10109781 6:0.0085032974 
-10 1:-0.23275739 2:3.4350121 3:3.1771367 4:-0.71164967 5:-0.23056249 6:-0.84221218 
-10 1:0.67834488 2:-0.14237782 3:-0.60227314 4:-0.21513196 5:0.51449404 6:-0.60647174 
-10 1:-1.1438597 2:-1.1424786 3:-0.67574922 4:0.07063748 5:0.039155587 6:0.45472626 
-10 1:0.67834488 2:0.43630355 3:3.1209416 4:0.57748973 5:-1.52394 6:0.97123208 
-10 1:-1.1438597 2:1.3315277 3:2.4833382 4:2.5526136 5:-1.8025429 6:1.7439775 
-10 1:1.5894472 2:0.037198294 3:0.38690179 4:0.47513942 5:0.41438103 6:-0.5214551 
-10 1:-0.23275739 2:-0.79533356 3:-1.0801237 4:-0.0058381885 5:0.3425091 6:-0.37256159 
-6.7500998746148237 1:-0.23275739 2:1.9936216 3:0.20596374 4:0.26423805 5:2.8753205 6:0.20031694 
-10 1:0.67834488 2:-0.82699846 3:-0.6592363 4:-0.035234241 5:-0.68051571 6:0.036689653 
-10 1:0.67834488 2:0.21337415 3:-0.013696457 4:-0.10214088 5:-0.15567606 6:-0.21332699 
-10 1:0.67834488 2:-1.0309342 3:-0.43820003 4:0.45515929 5:0.0042508942 6:0.99374456 
-10 1:-1.1438597 2:-0.53340746 3:-0.8212933 4:0.037566921 5:-0.04223581 6:-0.40669637 
-10 1:-1.1438597 2:-0.24119781 3:0.13555983 4:-0.15488536 5:-0.29021778 6:0.31599082 
-10 1:0.67834488 2:-0.81592106 3:1.1937626 4:5.4353406 5:1.1906931 6:3.6180956 
-10 1:-1.1438597 2:-0.49167461 3:-0.9131704 4:-0.072668277 5:0.011549148 6:0.037604795 
-10 1:-0.23275739 2:-0.92326826 3:-1.2278439 4:-0.0085175163 5:-0.032557691 6:-0.16793597 
-10 1:0.67834488 2:1.4079272 3:0.56310357 4:-0.33861069 5:0.47260841 6:-0.97838522 
-10 1:-0.23275739 2:-0.50663043 3:-0.6844537 4:-0.21076848 5:-0.203908 6:-0.13499088 
-10 1:0.67834488 2:-0.85183629 3:-1.0205684 4:-0.01242168 5:-0.145046 6:-0.25697923 
-10 1:-1.1438597 2:0.44544174 3:0.10509414 4:0.084263776 5:0.22446777 6:0.26876952 
-10 1:-1.1438597 2:0.5227976 3:0.19777129 4:-0.42366021 5:-1.5854992 6:-0.4230774 
-10 1:-1.1438597 2:-0.39909728 3:1.0436423 4:1.8209275 5:0.74105722 6:2.6554584 
-10 1:1.5894472 2:-0.75368041 3:-0.83255793 4:-0.0045368008 5:0.19781328 6:0.17579115 
-10 1:-0.23275739 2:-0.59971249 3:-0.57596768 4:0.30925075 5:-0.41143226 6:0.35918549 
-10 1:0.67834488 2:1.1598146 3:2.0089439 4:-1.3517793 5:-1.5797875 6:-0.43039853 
-10 1:-0.23275739 2:1.2159189 3:0.5473587 4:-0.17172685 5:-0.85059676 6:-0.36963314 
-10 1:0.67834488 2:0.85283512 3:-0.24487729 4:0.67754349 5:4.0500221 6:0.2790191 
-10 1:-1.1438597 2:-0.31788956 3:-0.37944477 4:-0.28456482 5:-0.65719303 6:-0.26896758 
-2.5886488118712623 1:0.67834488 2:0.80533777 3:-0.36277184 4:-2.5748542 5:-0.75159436 6:-0.35352665 
-10 1:0.67834488 2:-0.47719695 3:-0.70813502 4:-0.14853153 5:0.023924448 6:-0.2561556 
