svm_type c_svc
kernel_type rbf
gamma 0.20000000000000001
nr_class 2
total_sv 156
rho 0.011326468658050416
label 200 100
probA -1.0873088545177056
probB 0.033898837571792267
nr_sv 78 78
SV
1 1:-1.306641 2:-0.90099726 3:-1.0170784 4:0.023401202 5:0.12495453 6:-0.028722643 
1 1:-1.306641 2:-0.99285001 3:-1.0492411 4:0.027255586 5:0.12031444 6:-0.040561855 
1 1:1.363486 2:-0.26655221 3:-0.12178958 4:0.10976024 5:-0.81440524 6:0.2604243 
1 1:-1.306641 2:2.5444589 3:1.533351 4:-0.25921891 5:-2.8021153 6:-0.017876653 
1 1:1.363486 2:-0.41413343 3:-0.28966442 4:-0.042852536 5:-0.52414204 6:-0.41882072 
1 1:1.363486 2:1.4270337 3:1.0573693 4:0.027255586 5:0.21373485 6:-0.041713993 
1 1:0.47344364 2:-0.58534536 3:-0.37491193 4:0.12549029 5:0.17589237 6:0.57332912 
1 1:0.47344364 2:-0.48940899 3:-0.62232228 4:0.029964072 5:0.7804441 6:0.14135678 
1 1:1.363486 2:0.29230316 3:-0.0072615801 4:-0.74424627 5:0.64928432 6:0.51703327 
1 1:-1.306641 2:-0.73865221 3:-0.35768425 4:0.11080197 5:0.16217833 6:0.3646332 
0.37158537972029931 1:1.363486 2:0.061450488 3:-0.44608908 4:-0.0068088356 5:0.031018548 6:-0.1232377 
1 1:0.47344364 2:-0.79907826 3:-0.94918955 4:-0.041602465 5:-0.23893138 6:-0.26642066 
1 1:1.363486 2:1.4747235 3:1.4227794 4:0.23174629 5:0.78786824 6:0.84789555 
0.96141931523605839 1:1.363486 2:3.2720275 3:-0.39242782 4:-6.4005028 5:-0.7942982 6:0.095430172 
1 1:1.363486 2:-0.45833926 3:-0.7928435 4:-0.052957272 5:0.34901916 6:-0.29852161 
0.12265761465384871 1:0.47344364 2:1.0805263 3:-0.05877429 4:-0.78008162 5:-3.0182402 6:-2.5462239 
1 1:-0.41659868 2:0.55028473 3:1.5149049 4:-0.048165335 5:-0.56043783 6:1.1296529 
1 1:-1.306641 2:-1.0035588 3:-1.0010036 4:0.019338473 5:0.085874684 6:-0.026497824 
1 1:1.363486 2:-0.10846211 3:-0.52684298 4:0.23685074 5:1.4634649 6:0.023441404 
0.64469736918093912 1:1.363486 2:4.6434363 3:0.88160778 4:-1.0498885 5:0.12918216 6:-1.5750907 
0.73585150617889006 1:1.363486 2:1.624475 3:-0.97028199 4:-7.3573276 5:-0.13396231 6:-3.5497759 
1 1:-0.41659868 2:-0.7923246 3:-0.86732207 4:0.026422206 5:-0.1157113 6:-0.041038602 
1 1:-1.306641 2:-0.49086539 3:-0.96412457 4:0.12559447 5:0.24992753 6:-0.43975785 
1 1:-0.41659868 2:-0.79999208 3:-0.80594439 4:0.019338473 5:-0.078281271 6:0.024712729 
0.47025637602341541 1:0.47344364 2:0.15807221 3:-0.40611825 4:-0.14056638 5:-0.52445138 6:0.17115346 
1 1:-0.41659868 2:1.8493879 3:0.353537 4:-2.8756165 5:-1.1127113 6:-1.2993721 
1 1:-1.306641 2:-0.1711727 3:0.057247215 4:0.026213861 5:-0.27089642 6:-0.12991215 
1 1:0.47344364 2:-0.51579542 3:1.5946632 4:2.1963363 5:0.045041921 6:3.3945181 
1 1:1.363486 2:-0.38434875 3:-0.41886542 4:-0.02951845 5:-0.8306971 6:0.3801672 
1 1:1.363486 2:-0.77893148 3:-0.82458696 4:0.028505656 5:0.10000117 6:0.11406303 
1 1:-1.306641 2:-0.91421903 3:-1.0211921 4:0.019963508 5:0.053290964 6:-0.055301278 
1 1:0.47344364 2:-0.67305738 3:-0.66356389 4:0.40258926 5:0.34252303 6:0.12772977 
1 1:-0.41659868 2:-0.82198077 3:-0.68064746 4:0.012775602 5:-0.18263166 6:-0.095904214 
1 1:-0.41659868 2:-0.70889608 3:-0.68620223 4:0.019546818 5:0.037205331 6:-0.0019850926 
1 1:1.363486 2:0.44365387 3:0.21471994 4:-0.33922342 5:0.84973606 6:-1.2558292 
1 1:0.47344364 2:2.2643744 3:1.5014896 4:-0.94988287 5:-2.5562938 6:0.49256027 
1 1:-1.306641 2:-0.89520024 3:-0.98385451 4:0.017775885 5:0.21827182 6:-0.070477718 
0.77335637306230109 1:-1.306641 2:1.1399243 3:-0.97688484 4:-6.8775089 5:0.13206932 6:-2.8599233 
1 1:-1.306641 2:-0.26461035 3:-0.1910409 4:0.024859617 5:0.1856881 6:-0.25942837 
1 1:-1.306641 2:-0.93723576 3:-1.0335331 4:0.020171853 5:0.063602268 6:-0.033768213 
1 1:-1.306641 2:-0.74893263 3:-0.90896981 4:0.0081920106 5:0.062364912 6:-0.14707504 
0.72055634459085338 1:-0.41659868 2:-0.10440705 3:-0.50582915 4:-0.15171284 5:0.45006993 6:-0.69549279 
1 1:1.363486 2:-0.49472055 3:-0.63149291 4:-0.027018309 5:-0.11045254 6:-0.33952183 
1 1:0.47344364 2:-0.71557836 3:-0.85688066 4:0.020276026 5:0.11598369 6:-0.022485205 
0.21475311842065492 1:1.363486 2:-0.064656069 3:-0.62017374 4:0.059444902 5:0.81715234 6:-0.67054304 
1 1:-1.306641 2:-1.1619345 3:-1.1085619 4:0.020588543 5:-0.097460296 6:0.070321507 
1 1:0.47344364 2:-0.67891151 3:-0.87710844 4:-0.0050379024 5:-0.0081644058 6:-0.26228885 
1 1:-1.306641 2:-0.62044159 3:-0.72012044 4:0.0082961831 5:0.037411557 6:-0.066663743 
1 1:1.363486 2:2.0500846 3:1.8774328 4:0.45613395 5:1.9113879 6:1.3335416 
1 1:-0.41659868 2:-0.6037359 3:-0.74626983 4:0.045798299 5:0.10361013 6:0.16845189 
1 1:1.363486 2:2.0547679 3:1.8652752 4:-0.0013918634 5:-0.65076485 6:-0.35541339 
1 1:-0.41659868 2:-0.22947128 3:-0.6841716 4:-0.081604722 5:0.00090954145 6:-0.17603741 
1 1:-1.306641 2:-0.0086277481 3:-0.2790789 4:-0.1048352 5:-0.43340257 6:-0.6212792 
1 1:-1.306641 2:-0.53981164 3:-0.65588677 4:-0.020872129 5:-0.15417247 6:-0.076516511 
0.81105622174158143 1:1.363486 2:5.1952667 3:0.8481743 4:-0.919777 5:2.1423611 6:-2.8565861 
1 1:0.47344364 2:-0.55697424 3:0.1055109 4:0.00089993256 5:-0.6788116 6:0.08827897 
0.89998774603280929 1:1.363486 2:0.95430547 3:0.33519575 4:-1.0615558 5:-4.5360641 6:-2.3977967 
1 1:-1.306641 2:0.11460886 3:-0.41232808 4:0.082050344 5:0.48585016 6:0.031744744 
1 1:-1.306641 2:-0.53909772 3:-0.86306428 4:0.024338755 5:0.17290209 6:-0.014221594 
1 1:-0.41659868 2:-0.81455602 3:-0.86814743 4:-0.0086839414 5:0.0021468979 6:-0.15676889 
1 1:0.47344364 2:0.8391647 3:0.73472057 4:0.71146085 5:1.6894886 6:0.63335949 
1 1:-0.41659868 2:1.0665906 3:-0.016537012 4:-0.50985805 5:-1.3036766 6:0.10401161 
0.42102099398456405 1:0.47344364 2:1.0574524 3:-0.97122525 4:-5.0443847 5:0.17166473 6:-2.5913559 
1 1:-1.306641 2:-0.035342577 3:-0.52093447 4:0.0095462536 5:0.72084477 6:-0.37003363 
0.81034681943047115 1:0.47344364 2:1.8692634 3:-0.9367175 4:-2.7520679 5:-0.89060578 6:-4.2693458 
0.88664748118583059 1:0.47344364 2:-0.50534365 3:-0.46893703 4:0.015588261 5:-1.1547814 6:-0.40404157 
1 1:-0.41659868 2:0.029352714 3:0.052268875 4:-0.22723794 5:-0.82028269 6:0.18458183 
1 1:-0.41659868 2:-0.25371595 3:-0.033109641 4:0.03600608 5:0.079481676 6:0.10305812 
1 1:-1.306641 2:-0.65293916 3:-0.92221481 4:0.0026708658 5:0.044423243 6:-0.33546949 
1 1:-1.306641 2:-0.82369417 3:-0.87338779 4:0.025692998 5:0.0068900976 6:-0.079138618 
0.97310727434096156 1:0.47344364 2:0.9048452 3:0.69478905 4:0.45634229 5:-0.23913761 6:-1.7452893 
1 1:1.363486 2:0.48608919 3:0.64825468 4:0.085071347 5:0.098660701 6:0.15836075 
1 1:0.47344364 2:-0.55350459 3:0.39927222 4:0.039131256 5:-0.575183 6:0.70284534 
1 1:0.47344364 2:-0.50024628 3:-0.20114169 4:0.20841164 5:-0.67056256 6:0.57193861 
1 1:1.363486 2:0.096603832 3:-0.44194919 4:0.081737826 5:1.1583534 6:-0.67074168 
1 1:-1.306641 2:-0.67017315 3:-0.71780159 4:0.022151131 5:0.0004970893 6:-0.075324644 
1 1:0.47344364 2:-0.11280273 3:-0.12697754 4:0.51926251 5:0.39242974 6:0.30611253 
1 1:-1.306641 2:-0.46005267 3:-0.61613866 4:0.026318033 5:0.024006862 6:-0.052838086 
-1 1:-1.306641 2:-0.66684629 3:-0.75407796 4:0.01840092 5:0.035555522 6:-0.07039826 
-1 1:1.363486 2:0.87617423 3:1.4445793 4:0.21737048 5:1.3195191 6:0.10115113 
-1 1:0.47344364 2:-0.40239661 3:3.7141517 4:-0.53548449 5:-4.3467486 6:2.3151633 
-0.57805320771411695 1:0.47344364 2:-0.17882591 3:-0.13268953 4:0.35185723 5:1.6635042 6:0.83399044 
-1 1:-1.306641 2:3.284364 3:0.32529148 4:-6.6333285 5:3.1268844 6:-2.1009424 
-1 1:-0.41659868 2:1.4134978 3:0.97179432 4:0.047465059 5:-0.2849198 6:0.0042126159 
-1 1:1.363486 2:0.06099358 3:-0.85766672 4:-0.043477571 5:2.8814754 6:-1.3368762 
-1 1:-1.306641 2:-0.82462227 3:-0.23153576 4:-0.039310669 5:0.32045684 6:0.023481133 
-1 1:-0.41659868 2:-0.79553723 3:-0.20267449 4:0.013400638 5:-0.13396231 6:0.03949188 
-1 1:-1.306641 2:1.8962209 3:1.4327361 4:-0.33484817 5:-2.1166198 6:0.26022565 
-1 1:-0.41659868 2:-0.62562464 3:3.5359534 4:2.2237337 5:-0.38225851 6:6.6062024 
-1 1:-0.41659868 2:-0.65024054 3:-0.83183176 4:0.021005233 5:0.0409174 6:-0.032020142 
-1 1:-1.306641 2:-0.27900295 3:-0.41941566 4:-0.0042045221 5:-0.81615817 6:0.28453974 
-0.066866601981313792 1:0.47344364 2:0.19389664 3:1.4676369 4:1.8062101 5:0.097010892 6:0.99330333 
-1 1:-0.41659868 2:-0.33420312 3:-0.20524227 4:0.060903317 5:-0.0090924232 6:-0.015929937 
-1 1:0.47344364 2:-0.21806287 3:1.5523735 4:1.2714924 5:0.70661517 6:2.3567992 
-1 1:-1.306641 2:-0.84094244 3:-0.59302869 4:0.030068245 5:0.021944601 6:0.089391379 
-1 1:-1.306641 2:-0.84382667 3:-0.88520479 4:0.018296747 5:0.045454374 6:-0.048150075 
-1 1:-0.41659868 2:-0.69703076 3:-0.5726306 4:0.016838332 5:-0.067454402 6:0.14588588 
-1 1:-1.306641 2:-0.7945663 3:-0.80431988 4:0.022046959 5:0.00255935 6:-0.048070618 
-1 1:-0.41659868 2:-0.86672918 3:-0.40165085 4:-0.24119706 5:-0.063329881 6:-0.093401294 
-1 1:1.363486 2:-0.3491383 3:-0.38566776 4:0.18830634 5:0.022769505 6:0.67038683 
-1 1:-1.306641 2:-0.91196305 3:-0.90577319 4:-0.0026419339 5:0.065045851 6:-0.010963824 
-1 1:-1.306641 2:-0.6350198 3:-0.67281312 4:0.018609265 5:0.029678079 6:-0.026497824 
-1 1:-1.306641 2:-0.95317042 3:-0.98120813 4:0.019130128 5:0.094845518 6:-0.03134475 
-0.33211423259482675 1:1.363486 2:-0.25358745 3:0.79073998 4:0.039547946 5:-0.66313842 6:0.68580164 
-1 1:1.363486 2:0.41806704 3:-0.098758213 4:-0.23171736 5:0.1848632 6:-1.1836815 
-1 1:-0.41659868 2:0.46255843 3:0.094244135 4:0.06632029 5:0.43563411 6:-0.28803318 
-1 1:1.363486 2:-0.58675891 3:-0.39688212 4:0.064236839 5:0.84282749 6:0.66700987 
-1 1:-1.306641 2:-0.46844835 3:-0.83701971 4:-0.064520425 5:0.028440722 6:-0.20257631 
-1 1:0.47344364 2:-0.81883953 3:-0.40212248 4:0.020484371 5:-0.25316098 6:0.22462856 
-1 1:-1.306641 2:-0.88754704 3:-0.90302201 4:-0.015976019 5:-0.19345853 6:-0.085376056 
-1 1:-1.306641 2:-0.81975334 3:-0.80405786 4:0.023609547 5:0.093298823 6:-0.033768213 
-1 1:-1.306641 2:-0.8369445 3:-0.9088126 4:0.026838896 5:0.014520462 6:0.005801772 
-0.6198873579460259 1:1.363486 2:0.045801395 3:1.3277718 4:-0.075354369 5:0.43645901 6:-0.49557696 
-1 1:-0.41659868 2:1.1257173 3:0.31160104 4:-3.9716158 5:-3.2369429 6:-1.1122092 
-1 1:-0.41659868 2:1.8118072 3:1.2981638 4:0.15455443 5:0.66990693 6:0.52084724 
-1 1:-0.41659868 2:1.5676471 3:1.3367852 4:-0.10077247 5:-0.98773826 6:-0.14453239 
-1 1:-1.306641 2:-0.68887781 3:-0.65373822 4:0.014442363 5:-0.23068234 6:0.022646826 
-0.95802872469968425 1:0.47344364 2:1.3490167 3:3.1773034 4:4.717416 5:3.2287601 6:4.7186029 
-1 1:1.363486 2:-0.88057919 3:-0.28929759 4:0.027047241 5:-0.039510769 6:0.021375501 
-1 1:0.47344364 2:-0.26283983 3:-0.14620965 4:-0.081604722 5:0.30282451 6:0.17854303 
-1 1:-0.41659868 2:-0.41070662 3:-0.071351146 4:0.014025673 5:0.29251321 6:0.31441587 
-0.14588146572303945 1:1.363486 2:-0.5877584 3:0.89968701 4:1.7765209 5:-0.10962763 6:1.7985287 
-1 1:-1.306641 2:-0.88780405 3:-0.69222864 4:0.10559334 5:-0.011154684 6:0.31088 
-1 1:1.363486 2:-0.55583197 3:-0.17013188 4:0.040693844 5:-0.29688091 6:0.025348391 
-1 1:-0.41659868 2:1.5041512 3:1.3329466 4:-0.071187467 5:-1.2616065 6:0.64921132 
-1 1:-0.41659868 2:-0.56708332 3:-0.34777998 4:-0.015767674 5:-0.70706457 6:0.055065609 
-1 1:1.363486 2:0.11462313 3:1.1304723 4:0.14174121 5:-0.87348901 6:0.073340903 
-0.14046852181029829 1:-0.41659868 2:-0.83837234 3:-0.3672217 4:0.016213296 5:0.098660701 6:0.28136143 
-0.055361975607614092 1:-1.306641 2:2.8634376 3:2.7709661 4:-0.1184818 5:-0.29688091 6:-0.093361565 
-1 1:-1.306641 2:-0.43499413 3:-0.48590269 4:0.035693562 5:0.44491428 6:-0.25386632 
-1 1:-1.306641 2:-0.36034682 3:-0.35457934 4:-0.068999844 5:0.28581086 6:-0.044097728 
-0.98607989235477189 1:-0.41659868 2:-0.79867847 3:1.9281071 4:6.1308291 5:0.3382954 6:3.6792949 
-1 1:-0.41659868 2:-0.29191059 3:-0.7605629 4:0.021838614 5:8.4637152e-05 6:-0.18886984 
-1 1:1.363486 2:-0.54022571 3:-0.20349985 4:-0.075875232 5:-0.46165554 6:0.7348271 
-1 1:0.47344364 2:-0.74676232 3:-0.80321941 4:0.0139215 5:0.38201533 6:-0.16535033 
-1 1:1.363486 2:0.61122481 3:1.8599824 4:-0.22484197 5:0.78869315 6:-1.1217044 
-1 1:1.363486 2:1.178533 3:1.2722764 4:0.11840656 5:0.68558011 6:0.32569888 
-1 1:1.363486 2:-0.86932784 3:-0.27205682 4:0.023817892 5:0.088349397 6:0.016449117 
-1 1:-0.41659868 2:-0.71643506 3:-0.8853358 4:0.045694126 5:0.18280094 6:-0.23606778 
-1 1:0.47344364 2:-0.34548303 3:-0.41522337 4:0.096738672 5:0.75940904 6:0.28295058 
-1 1:-1.306641 2:-1.0021738 3:-0.67462105 4:0.017046677 5:-0.048584716 6:-0.039489175 
-1 1:-1.306641 2:-0.43502269 3:0.17045203 4:-0.0033711417 5:1.7979636 6:-0.35894927 
-1 1:1.363486 2:-0.84052837 3:-0.35864062 4:-0.12181532 5:-1.4804124 6:0.80824611 
-1 1:0.47344364 2:-0.43657903 3:-0.38519613 4:0.014650708 5:-0.89699879 6:-0.11354385 
-1 1:-1.306641 2:3.0141601 3:1.944719 4:-1.6170038 5:-1.6930314 6:-1.3271823 
-1 1:-0.41659868 2:-0.82704959 3:-0.78326675 4:0.0017333129 5:-0.13220939 6:0.033095527 
-1 1:0.47344364 2:-0.79976363 3:-0.38063702 4:0.030484935 5:0.1762017 6:0.16789569 
-1 1:-1.306641 2:-0.41379075 3:-0.40951138 4:0.070487191 5:0.25137111 6:0.012039209 
-0.93455795335178715 1:0.47344364 2:0.39910536 3:1.231978 4:2.3440529 5:2.1390615 6:1.1805059 
-1 1:1.363486 2:0.093819551 3:-0.71901997 4:-0.31432618 5:1.7422825 6:-1.5538357 
-1 1:1.363486 2:-0.66354798 3:-0.33350001 4:0.33237696 5:0.13959658 6:0.46097579 
-1 1:0.47344364 2:-0.85716267 3:-0.53569918 4:0.0069419401 5:-0.049409621 6:0.06444163 
-1 1:0.47344364 2:-0.60090878 3:-0.66682601 4:0.035797734 5:-0.060855168 6:0.014581859 
-1 1:-0.41659868 2:-0.85464968 3:-0.82842552 4:0.0139215 5:-0.08570541 6:-0.14500914 
-1 1:-1.306641 2:-1.1410309 3:-1.0460182 4:0.020796888 5:-0.28120773 6:0.13921142 
-1 1:1.363486 2:-0.14330133 3:-0.18548612 4:-0.38130913 5:0.036792878 6:0.31854768 
