svm_type c_svc
kernel_type rbf
gamma 0.00029999999999999997
nr_class 2
total_sv 179
rho -2.1007196838556141
label 100 200
probA -0.43929092285287918
probB -0.010150298969000207
nr_sv 90 89
SV
60.395362194892527 1:1.8065897 2:-0.53539714 3:0.74953354 4:0.29902563 5:-1.3748081 6:1.8983554 
100 1:-0.093179782 2:-1.0245241 3:-0.83986617 4:0.035465343 5:-0.054258533 6:0.4794202 
100 1:-0.093179782 2:-0.74485296 3:-0.56284251 4:0.030749316 5:-0.13788415 6:0.22527546 
100 1:1.8065897 2:-0.41787576 3:0.28556602 4:-0.37924663 5:-0.0037155793 6:0.49414634 
100 1:-1.0430645 2:0.11885478 3:0.70618971 4:-0.69211627 5:-1.9390512 6:-0.48727989 
100 1:-0.093179782 2:-1.0756979 3:-1.0241717 4:0.039703799 5:0.04223256 6:0.3687366 
100 1:-1.0430645 2:-1.1003923 3:-1.1112363 4:0.029077812 5:-0.055177495 6:0.047611659 
100 1:-1.0430645 2:-0.17896521 3:0.19096338 4:0.5370358 5:1.3085633 6:0.16352066 
100 1:-1.0430645 2:-0.99506936 3:-0.65066089 4:0.23938878 5:-0.084584305 6:0.76966774 
100 1:-0.093179782 2:-0.9638295 3:-0.92919217 4:0.080536243 5:-0.24448383 6:0.15497 
100 1:0.85670494 2:-0.78323336 3:-0.85117326 4:0.04244984 5:0.17272528 6:0.36303616 
100 1:-0.093179782 2:-0.5888768 3:-0.93701291 4:-0.11855177 5:-0.48249519 6:-0.4540273 
100 1:0.85670494 2:2.5966219 3:3.5879896 4:1.0043404 5:1.0016297 6:0.36588638 
100 1:-0.093179782 2:-0.098634145 3:0.79702331 4:0.18399037 5:0.36203161 6:-0.058796606 
100 1:-1.0430645 2:-1.0679624 3:-1.1651334 4:0.018810005 5:-0.18750814 6:0.19677324 
100 1:1.8065897 2:-0.6541086 3:-0.45693278 4:-0.034916895 5:-0.26286309 6:-0.050245942 
100 1:-1.0430645 2:-1.1182437 3:-1.0765612 4:0.025137839 5:-0.066205049 6:0.12361756 
100 1:-1.0430645 2:-0.82622535 3:-0.91015857 4:0.11402601 5:-0.1934814 6:0.15900781 
100 1:-1.0430645 2:0.083449608 3:-0.19800046 4:0.014690942 5:0.056935965 6:-0.42647516 
100 1:-1.0430645 2:-0.5481906 3:-0.13505767 4:-0.16565235 5:-0.35659729 6:0.56635195 
100 1:-1.0430645 2:-1.0739128 3:-1.0882452 4:-0.0019643967 5:-0.35108351 6:0.16067044 
100 1:-1.0430645 2:-1.1256817 3:-1.3128794 4:0.030092653 5:-0.0037155793 6:0.056162323 
100 1:-0.093179782 2:0.18520229 3:0.12538227 4:0.4331041 5:0.83254056 6:-0.35711978 
100 1:0.85670494 2:-0.84898582 3:-0.74224831 4:0.040300764 5:0.30321799 6:0.056162323 
100 1:-1.0430645 2:-1.1786407 3:-1.1523187 4:0.036122006 5:-0.009229356 6:0.23002583 
100 1:-1.0430645 2:-0.94389549 3:-0.66799843 4:0.024003605 5:0.082666923 6:-0.22695967 
100 1:-1.0430645 2:-0.11053504 3:0.086938168 4:0.59488176 5:1.0751467 6:-0.36472037 
14.113417961271512 1:0.85670494 2:0.86563619 3:1.4909016 4:2.6051633 5:3.3835813 6:0.61290557 
100 1:-0.093179782 2:-0.26316407 3:-0.37853697 4:-0.18517312 5:0.3969522 6:-0.15190384 
100 1:-0.093179782 2:-0.73116692 3:-0.20704613 4:-0.18260617 5:-0.99251954 6:0.82477202 
100 1:0.85670494 2:-0.25037061 3:0.44725738 4:0.55500446 5:0.54214832 6:1.0138367 
100 1:-1.0430645 2:-0.64280275 3:-0.45617897 4:0.26899827 5:0.88032662 6:0.29178062 
100 1:-1.0430645 2:-1.1676324 3:-1.1383733 4:0.039763495 5:-0.11399111 6:0.19582317 
100 1:1.8065897 2:0.61095695 3:0.52829152 4:-2.2506142 5:0.018339528 6:-2.1147563 
100 1:-1.0430645 2:2.4880262 3:1.6789762 4:-0.39393198 5:-2.3195018 6:0.58440335 
100 1:0.85670494 2:-0.53569466 3:-0.66573701 4:0.15915661 5:-0.40438336 6:0.38013749 
100 1:-1.0430645 2:-0.68624103 3:-0.29034168 4:0.24989537 5:-0.85835097 6:0.87892623 
100 1:-1.0430645 2:-0.58367016 3:-0.37373146 4:0.1766477 5:0.11758751 6:0.42692862 
100 1:-1.0430645 2:0.55651034 3:0.22714606 4:-1.3546286 5:0.59728608 6:-0.88441073 
100 1:-1.0430645 2:-1.1295495 3:-1.0524394 4:0.029077812 5:-0.071718826 6:0.10936646 
100 1:-1.0430645 2:-0.97602792 3:-1.2137539 4:0.036898061 5:0.027529156 6:-0.0027422521 
54.628268878073605 1:1.8065897 2:-0.97543287 3:0.36622325 4:0.44181979 5:0.034880858 6:1.1297457 
100 1:0.85670494 2:-1.1206238 3:-1.2348605 4:0.028839026 5:-0.12318074 6:0.09796557 
100 1:0.85670494 2:0.80137134 3:0.71598918 4:-0.51625022 5:-0.20956324 6:0.34593483 
100 1:-1.0430645 2:-0.55533114 3:-0.13731908 4:0.21783832 5:-0.10112563 6:0.22337531 
100 1:-1.0430645 2:-0.59192641 3:-0.66611391 4:-0.020768812 5:-0.12134282 6:-0.013193064 
100 1:0.85670494 2:0.90193393 3:-0.15917945 4:-0.6534926 5:0.37857294 6:-0.89106125 
100 1:-1.0430645 2:-0.96204436 3:-0.99854231 4:0.053792186 5:-0.14156 6:-0.021743728 
100 1:1.8065897 2:-1.0031025 3:-0.114328 4:0.44510311 5:0.022015379 6:0.93688073 
100 1:0.85670494 2:0.10873902 3:0.65643852 4:-0.0062625487 5:0.4190073 6:0.52644885 
100 1:0.85670494 2:-1.0280944 3:-0.30654851 4:0.015646087 5:-0.83262001 6:0.81337114 
100 1:-1.0430645 2:-0.62346379 3:-0.47615483 4:0.11927931 5:-0.044149942 6:0.83427276 
100 1:1.8065897 2:2.7284244 3:1.1392512 4:-1.6564544 5:1.2056395 6:-0.24216085 
100 1:-0.093179782 2:-1.1563265 3:-1.0494242 4:0.056120352 5:-0.073556751 6:0.35543557 
100 1:-1.0430645 2:-0.28785844 3:-0.071361069 4:-0.47058235 5:-0.03679824 6:0.34593483 
100 1:1.8065897 2:-0.6368523 3:-0.087567895 4:0.25293989 5:-0.52936229 6:0.45614339 
100 1:0.85670494 2:-0.015625375 3:1.0883693 4:0.54479635 5:-0.28124234 6:0.82952239 
100 1:-1.0430645 2:0.21941738 3:0.75141806 4:0.94380813 5:1.2497497 6:0.39913896 
100 1:-0.093179782 2:-1.0804583 3:-0.56887296 4:0.011765811 5:-0.084584305 6:0.013409002 
100 1:-0.093179782 2:-0.67612526 3:-0.66196798 4:-0.076346304 5:0.036718783 6:-0.50723144 
100 1:-1.0430645 2:-1.0789707 3:-1.050178 4:0.027764488 5:-0.42643846 6:0.26232834 
100 1:1.8065897 2:-0.32921406 3:1.1207829 4:0.64502687 5:-0.85651305 6:1.0584902 
100 1:0.85670494 2:-1.0361275 3:-0.87001841 4:0.050449179 5:-0.47790038 6:0.11031653 
100 1:-0.093179782 2:-0.7335471 3:-0.79049189 4:0.0050797968 5:-0.068042974 6:0.41053985 
100 1:-0.093179782 2:-0.59222393 3:0.068469923 4:0.15909691 5:0.14515639 6:-0.19085686 
100 1:-0.093179782 2:-1.1387727 3:-1.1244279 4:0.022809674 5:-0.35108351 6:0.17777177 
100 1:1.8065897 2:1.5478552 3:-0.41208133 4:-2.3842151 5:-0.16545303 6:-3.7479331 
100 1:-1.0430645 2:-1.1253842 3:-1.0825917 4:0.016422142 5:-0.34556974 6:0.14261904 
100 1:1.8065897 2:0.082557041 3:1.3748155 4:0.63434119 5:-1.6762279 6:1.6076328 
100 1:-0.093179782 2:-1.028615 3:-1.0302964 4:0.010631576 5:-0.53533555 6:0.021009593 
100 1:0.85670494 2:2.6016798 3:0.85808159 4:-1.9021057 5:-1.5016249 6:-1.2777413 
100 1:-1.0430645 2:-1.1530538 3:-1.2261917 4:0.029376295 5:-0.12685659 6:0.083714463 
100 1:0.85670494 2:1.5198881 3:0.71108944 4:-1.7341196 5:-1.3692943 6:-0.86445918 
100 1:-1.0430645 2:1.7799227 3:1.9081332 4:-0.47165689 5:0.30689384 6:-1.2178866 
100 1:-0.093179782 2:-0.2569161 3:-0.0072875683 4:0.74221286 5:0.82702678 6:0.89887778 
100 1:-1.0430645 2:0.28130205 3:0.29385788 4:0.22494221 5:-0.66536879 6:-0.053096163 
100 1:1.8065897 2:0.36579844 3:-0.16671751 4:-0.11055243 5:-0.62677235 6:-1.0022199 
100 1:-1.0430645 2:-0.93645743 3:-0.86323415 4:0.048300103 5:-0.047825793 6:0.24617708 
100 1:-1.0430645 2:-0.8076302 3:-0.78709976 4:0.21945013 5:0.89503003 6:0.58060306 
100 1:1.8065897 2:0.038523715 3:0.28707363 4:-0.88493614 5:0.35284198 6:-0.83215667 
100 1:-1.0430645 2:0.77608193 3:0.081661527 4:-1.068324 5:-0.62493442 6:-1.2967428 
100 1:1.8065897 2:-0.61156289 3:-0.57113437 4:0.010631576 5:-0.34189389 6:0.386788 
100 1:-0.093179782 2:3.5135862 3:0.98811311 4:-1.2452646 5:0.095532402 6:-0.66114339 
100 1:-1.0430645 2:-0.53971121 3:-0.9582137 4:-0.079211739 5:-0.24402435 6:-0.39773543 
100 1:0.85670494 2:2.2300743 3:2.6555317 4:1.2096966 5:0.62117912 6:-0.86065889 
100 1:1.8065897 2:-0.079295184 3:0.7823241 4:-0.34008569 5:0.89135418 6:-0.87871029 
100 1:-1.0430645 2:-1.1593018 3:-1.1481728 4:0.025794501 5:-0.093773933 6:0.063762913 
100 1:0.85670494 2:0.41399708 3:-0.45844039 4:-0.47619383 5:0.082666923 6:-1.0345224 
100 1:1.8065897 2:0.19621063 3:-0.83685095 4:0.34242503 5:2.1503332 6:-0.46922848 
100 1:-1.0430645 2:-1.1218139 3:-0.84966565 4:0.031047798 5:-0.045987868 6:0.15687015 
-100 1:-1.0430645 2:0.35598019 3:-1.0731691 4:0.29174265 5:-0.27389064 6:-0.16900517 
-100 1:-1.0430645 2:-1.0144083 3:-1.0173875 4:0.024660267 5:0.036718783 6:0.16352066 
-100 1:-1.0430645 2:-0.21704809 3:-0.56284251 4:0.013616404 5:0.14515639 6:0.055212249 
-100 1:0.85670494 2:0.25482255 3:0.71259706 4:0.048419496 5:0.31240762 6:0.4846456 
-100 1:-0.093179782 2:0.293798 3:-0.28808026 4:-0.44759918 5:0.33446273 6:-0.6934459 
-100 1:0.85670494 2:-0.23698209 3:-0.93635333 4:-0.17920347 5:0.044070486 6:-0.4217248 
-100 1:0.85670494 2:0.060540378 3:-0.22249915 4:-0.32778819 5:-0.58082421 6:-0.82455608 
-100 1:0.85670494 2:-0.22865147 3:0.87956506 4:-1.1099922 5:-3.3119816 6:-0.15950443 
-100 1:-1.0430645 2:-0.81834101 3:0.67302225 4:0.739825 5:-0.009229356 6:1.3178603 
-100 1:0.85670494 2:0.021267412 3:-0.46296323 4:-0.16147359 5:0.63220667 6:-0.42362494 
-100 1:-1.0430645 2:-0.89777951 3:-1.0369864 4:0.037733813 5:0.018339528 6:0.1511697 
-100 1:-0.093179782 2:-0.21109764 3:-0.7791848 4:-0.49625187 5:0.13412884 6:-0.9727676 
-100 1:-0.093179782 2:1.187258 3:0.49323954 4:-0.15359365 5:0.16904942 6:-0.22125922 
-100 1:-1.0430645 2:-0.18372557 3:-0.97517433 4:-0.85073002 5:0.16537357 6:-1.3290453 
-100 1:1.8065897 2:0.65112249 3:0.32514083 4:-0.94749813 5:-1.696445 6:0.10366601 
-100 1:0.85670494 2:0.25750025 3:-0.04083193 4:-0.022141832 5:0.76269939 6:-1.0592243 
-100 1:1.8065897 2:-0.12630374 3:3.2472694 4:2.3841069 5:0.74064428 6:2.3268387 
-100 1:0.85670494 2:0.2024586 3:-0.7919995 4:-0.37811239 5:0.0091498998 6:-0.47112863 
-66.590125767615461 1:0.85670494 2:1.1467949 3:0.68395243 4:-1.3676425 5:-0.97965406 6:-1.2140863 
-100 1:-0.093179782 2:-0.52587642 3:0.63872408 4:0.1887661 5:-1.2075568 6:1.1040937 
-100 1:1.8065897 2:-0.050435504 3:1.2900124 4:0.78173198 5:0.90789551 6:1.752044 
-100 1:-0.093179782 2:1.4056395 3:1.3329793 4:0.70281313 5:-0.88591986 6:0.36303616 
-100 1:-1.0430645 2:-0.84392794 3:-1.0878683 4:0.046509206 5:0.12677714 6:0.052362028 
-100 1:-0.093179782 2:-0.16051882 3:1.1158832 4:0.01057188 5:0.11207373 6:0.4523431 
-100 1:-0.093179782 2:0.22745049 3:0.35529306 4:-1.6754976 5:-1.7938551 6:-0.51388195 
-100 1:-0.093179782 2:-1.0194662 3:-1.1127439 4:0.0088406798 5:-0.060691272 6:0.13216823 
-100 1:-1.0430645 2:-1.010838 3:-1.1787019 4:0.019048791 5:-0.2426459 6:-0.013193064 
-100 1:-0.093179782 2:0.093862895 3:1.0951535 4:-1.1381689 5:-0.4576832 6:-0.50058092 
-100 1:-1.0430645 2:0.12956559 3:-0.85268087 4:-0.2809861 5:0.46127959 6:-1.287242 
-100 1:-0.093179782 2:0.28487232 3:-0.38682883 4:0.056597924 5:-0.40805921 6:0.068513282 
-100 1:-0.093179782 2:-1.1027725 3:-1.1692793 4:0.036301095 5:0.12493921 6:0.17682169 
-100 1:-1.0430645 2:-0.5389674 3:-0.45580207 4:0.14166552 5:-0.038636165 6:-0.08729882 
-100 1:0.85670494 2:-0.0081873133 3:0.26935919 4:1.409501 5:0.41349353 6:0.93118029 
-100 1:1.8065897 2:0.4791545 3:1.0058275 4:-1.7831902 5:-1.3380495 6:-1.1817838 
-100 1:1.8065897 2:0.44107162 3:-0.43092648 4:-0.53959157 5:-0.047825793 6:-0.94331531 
-100 1:-0.093179782 2:0.033465833 3:-0.88848665 4:0.21240593 5:-0.28491819 6:-0.14715347 
-100 1:-1.0430645 2:-0.76716714 3:-1.0629927 4:0.041494695 5:-0.060691272 6:0.12456764 
-75.894311748437232 1:0.85670494 2:2.2773803 3:0.45479544 4:-3.6516924 5:-0.52936229 6:-1.0183711 
-100 1:1.8065897 2:-0.25780867 3:-0.42828816 4:0.055583083 5:-0.1562634 6:-0.14715347 
-100 1:0.85670494 2:-0.87130001 3:-0.41848868 4:-0.065600925 5:-0.099287709 6:0.0077085596 
-100 1:-1.0430645 2:-0.076022437 3:-0.50630707 4:0.088117705 5:0.22418719 6:0.29843114 
-100 1:-0.093179782 2:-0.98971395 3:-1.2853655 4:0.016780322 5:-0.034960314 6:0.016259224 
-100 1:0.85670494 2:-0.13255171 3:0.22714606 4:0.29198144 5:0.54582417 6:-0.26876291 
-100 1:-0.093179782 2:-1.0974171 3:-1.0833455 4:0.014810335 5:-0.26837686 6:0.068513282 
-100 1:-1.0430645 2:-0.91235811 3:-1.1127439 4:0.048837372 5:0.15434602 6:0.14831948 
-100 1:-0.093179782 2:-0.054303297 3:-0.38079839 4:0.097012492 5:-0.54222777 6:0.065663061 
-100 1:0.85670494 2:-0.43126427 3:-0.26659679 4:-0.51899626 5:-1.8839134 6:-0.051196016 
-100 1:0.85670494 2:0.90074384 3:0.09485313 4:0.51345566 5:0.88951625 6:-0.054996311 
-100 1:-0.093179782 2:-0.72491895 3:-0.30089496 4:0.14130734 5:0.12677714 6:0.05046188 
-100 1:-0.093179782 2:-0.94627567 3:-1.1067135 4:0.024003605 5:-0.20588739 6:0.098915644 
-100 1:-1.0430645 2:-1.0129207 3:-1.2996878 4:0.010930059 5:-0.079070528 6:-0.07494786 
-100 1:-0.093179782 2:1.028976 3:-0.33067029 4:0.29060842 5:-0.80321321 6:0.057112397 
-100 1:-0.093179782 2:0.21673968 3:-0.12186606 4:0.64986229 5:0.75167183 6:0.17207133 
-100 1:-1.0430645 2:-0.68148067 3:-0.48708502 4:0.34940953 5:-0.23713213 6:0.42479096 
-100 1:-1.0430645 2:-1.1057477 3:-1.2175229 4:0.026033288 5:0.075315221 6:0.052837065 
-100 1:1.8065897 2:0.15336739 3:0.18832506 4:0.1315171 5:-0.79034773 6:0.097015496 
-100 1:0.85670494 2:0.7055691 3:1.9446928 4:1.048098 5:0.73329258 6:0.32788343 
-100 1:1.8065897 2:-0.38544581 3:-0.75581682 4:-0.28522455 5:-0.84916134 6:-0.88251059 
-100 1:-1.0430645 2:-0.37294987 3:0.58897289 4:0.48933825 5:0.5770689 6:1.520226 
-100 1:0.85670494 2:1.7867658 3:1.2753132 4:-1.1421089 5:-1.7295277 6:0.67371029 
-100 1:-1.0430645 2:-0.90997793 3:-1.3155177 4:-0.0045313486 5:0.055098039 6:-0.16520487 
-100 1:-1.0430645 2:1.0640837 3:3.3267959 4:0.33269449 5:-1.722176 6:-1.6758222 
-100 1:-0.093179782 2:0.16229306 3:-0.69890447 4:0.16375324 5:1.6320382 6:0.10271594 
-100 1:0.85670494 2:-0.039427173 3:-0.40416637 4:-0.42664569 5:-0.084584305 6:-0.4217248 
-100 1:0.85670494 2:-0.50028948 3:-0.55228923 4:0.015646087 5:0.19661831 6:0.21007428 
-100 1:-0.093179782 2:-0.99923467 3:-0.99967302 4:0.02460057 5:-0.3786524 6:0.15972037 
-100 1:-0.093179782 2:-0.95936666 3:-1.1308352 4:0.031644764 5:-0.12318074 6:0.056162323 
-86.652611518184969 1:-1.0430645 2:0.24589688 3:-0.86134964 4:-1.2326686 5:0.18559076 6:-1.5304609 
-100 1:-0.093179782 2:-0.51784331 3:-0.48708502 4:0.090027995 5:-0.709479 6:0.49034605 
-100 1:0.85670494 2:0.98405013 3:0.6421162 4:0.19145244 5:0.49987603 6:-0.84165741 
-100 1:-1.0430645 2:-0.43810729 3:-1.2243072 4:-0.31220739 5:0.04223256 6:-0.89771177 
-100 1:-0.093179782 2:0.46011306 3:-0.37062201 4:0.2355085 5:-0.31064915 6:-0.10820044 
-100 1:-1.0430645 2:-0.96591215 3:-1.2981802 4:0.032241729 5:-0.13604622 6:-0.049295868 
-100 1:1.8065897 2:-0.31790821 3:-0.96047511 4:-0.082375657 5:0.3179214 6:-0.17945598 
-100 1:-1.0430645 2:-0.80167975 3:-1.1632489 4:0.023645425 5:0.21315964 6:-0.0074926211 
-100 1:-0.093179782 2:0.9968436 3:2.0694477 4:0.74191438 5:0.62853082 6:0.32408313 
-100 1:-1.0430645 2:-0.25304831 3:-0.49914591 4:0.14841123 5:0.99795386 6:0.11886719 
-100 1:-1.0430645 2:-0.88528356 3:-0.82667457 4:-0.0053074038 5:-0.12134282 6:0.12361756 
-100 1:0.85670494 2:-0.71391062 3:-0.32690126 4:0.45919149 5:0.2609457 6:0.86277497 
-100 1:-0.093179782 2:-1.0066727 3:-1.3249403 4:-0.0072773901 5:-0.12134282 6:-0.1785059 
-100 1:-0.093179782 2:0.056672586 3:-0.29750284 4:0.37919811 5:1.1210949 6:0.30318151 
-100 1:-1.0430645 2:-0.042997443 3:-0.87680266 4:-0.28588121 5:-0.23345628 6:-0.73999952 
-100 1:0.85670494 2:0.48569999 3:-0.70983466 4:0.27478883 5:0.81967508 6:-0.43407575 
-100 1:0.85670494 2:-0.20038683 3:-0.42941887 4:-0.028111488 5:0.53295869 6:-0.050245942 
-100 1:-1.0430645 2:-0.80852277 3:-1.1176436 4:0.010333094 5:-0.2996216 6:-0.088248894 
-100 1:-1.0430645 2:-0.46518183 3:-0.51233751 4:-0.10977638 5:-0.96862651 6:-0.21080841 
-100 1:-1.0430645 2:-0.64191018 3:-1.0596006 4:-0.036110826 5:-0.314325 6:-0.591788 
-100 1:-1.0430645 2:-0.25304831 3:-0.9838431 4:-0.12881958 5:-0.46135905 6:-0.8350069 
-100 1:-1.0430645 2:-0.59876942 3:-0.90017064 4:-0.074973284 5:0.35835576 6:-0.20225775 
