svm_type c_svc
kernel_type rbf
gamma 0.00050000000000000001
nr_class 2
total_sv 149
rho -118.63435167938655
label 100 200
probA -0.3805958751672478
probB 0.03385405208413516
nr_sv 74 75
SV
50000 1:-0.17294743 2:-0.80078448 3:-0.56080098 4:0.026341393 5:0.028518897 6:-0.085133401 
50000 1:-0.17294743 2:-0.62048606 3:-0.32245347 4:0.036164737 5:-0.67990343 6:0.10838042 
50000 1:0.73711661 2:-0.92718725 3:-0.5883683 4:-0.0074945693 5:0.25497356 6:-0.25440483 
50000 1:-1.0830115 2:-0.68814644 3:-0.69534412 4:-0.031749739 5:0.33613651 6:-0.29183168 
50000 1:-0.17294743 2:-0.70384985 3:-0.089473057 4:-0.21705924 5:-0.39533209 6:0.13645056 
50000 1:-0.17294743 2:-0.78023434 3:-0.80646724 4:-0.022532775 5:0.25497356 6:-0.17189564 
50000 1:-1.0830115 2:-0.79399906 3:-0.84952593 4:0.0065734293 5:0.32711841 6:-0.23696732 
50000 1:-0.17294743 2:0.27809801 3:0.75181801 4:0.18460638 5:-0.28110274 6:0.65957583 
26197.983929112583 1:1.6471807 2:3.0992836 3:0.31683991 4:-1.6498121 5:2.1026833 6:-0.73287307 
50000 1:1.6471807 2:-0.12456846 3:-0.65033377 4:-0.147932 5:-0.24202428 6:-0.22633469 
50000 1:-1.0830115 2:-0.68504453 3:-0.19132575 4:0.020035049 5:0.18483274 6:0.42012906 
50000 1:-0.17294743 2:2.0461858 3:0.091178251 4:-0.28448861 5:1.0535769 6:-0.40411223 
50000 1:-0.17294743 2:-0.72614481 3:-0.84220717 4:-0.022411499 5:0.42531556 6:-0.24164568 
50000 1:-1.0830115 2:-0.72439999 3:-0.45053171 4:-0.087294078 5:-0.81517502 6:-0.044304111 
50000 1:-1.0830115 2:-0.81299825 3:-0.59312549 4:-0.0024009836 5:0.30307013 6:-0.10384683 
50000 1:-1.0830115 2:-0.94153357 3:-0.59446726 4:-0.043028393 5:0.27000374 6:0.015663908 
50000 1:-1.0830115 2:-0.77829565 3:-0.76523825 4:-0.017924292 5:0.29405202 6:-0.14595203 
50000 1:0.73711661 2:1.0213443 3:0.28222829 4:-0.2297932 5:-0.96848283 6:-0.82750345 
50000 1:-0.17294743 2:-0.78624429 3:-0.81903111 4:-0.019985982 5:0.24194741 6:-0.2599338 
50000 1:-1.0830115 2:-0.72711416 3:-0.4358942 4:-0.029809326 5:0.37321095 6:-0.30033778 
50000 1:-0.17294743 2:0.13986922 3:0.38673404 4:0.075336836 5:-1.3752996 6:-0.35009848 
50000 1:-0.17294743 2:1.5308812 3:0.16851311 4:-0.19195514 5:0.16779853 6:-0.32585609 
50000 1:-0.17294743 2:-0.79264197 3:-0.75694365 4:-0.0051903281 5:0.19184682 6:-0.094915418 
50000 1:-1.0830115 2:-0.75289877 3:-0.76048105 4:-0.01331581 5:0.20988303 6:-0.21229963 
50000 1:-1.0830115 2:0.14801173 3:0.27329331 4:0.074851733 5:-1.8472472 6:-0.37859392 
50000 1:-1.0830115 2:1.4477113 3:0.12862589 4:-0.16563828 5:-0.067674234 6:-0.58699342 
13484.995903312589 1:0.73711661 2:-0.78159142 3:-0.30940169 4:0.015547842 5:-0.10174263 6:0.10582859 
50000 1:-0.17294743 2:1.0398588 3:0.043148911 4:-0.26120365 5:-0.26306653 6:1.0684004 
50000 1:-1.0830115 2:-0.75154169 3:-0.51249719 4:0.0035415331 5:-0.067674234 6:-0.26461215 
50000 1:-1.0830115 2:-0.69939085 3:-0.64460074 4:0.014698911 5:0.46740006 6:-0.22463347 
50000 1:-1.0830115 2:-0.62809543 3:-0.67280845 4:-0.014286017 5:-0.12554041 6:-0.021656615 
50000 1:-0.17294743 2:0.72302799 3:0.55286981 4:0.15780441 5:1.2900517 6:0.4069446 
50000 1:-1.0830115 2:-0.75115395 3:-0.32830848 4:-0.10924501 5:-0.78912272 6:-0.24079507 
50000 1:-1.0830115 2:1.7693404 3:0.37270642 4:0.26016123 5:1.1307319 6:-0.1684932 
47729.099391859731 1:-0.17294743 2:2.7410132 3:0.35050619 4:0.29751419 5:1.8601964 6:-0.86982131 
27423.236962439198 1:-1.0830115 2:-0.65829057 3:2.5678455 4:3.6609786 5:0.56259118 6:4.9883311 
50000 1:-0.17294743 2:-0.79031554 3:-0.74474573 4:-0.0055541557 5:0.26298965 6:-0.16594137 
50000 1:-1.0830115 2:-0.76433706 3:-0.76450637 4:-0.016105155 5:0.42731959 6:-0.16934381 
50000 1:0.73711661 2:0.25115018 3:0.40478697 4:-0.0037350179 5:-1.0586639 6:0.40269155 
3812.0980700520963 1:0.73711661 2:-0.15946493 3:1.2840136 4:-2.756333 5:-3.3482608 6:1.4901967 
50000 1:-0.17294743 2:-0.68620774 3:0.052144883 4:-0.15060007 5:-0.19292571 6:-0.24036976 
50000 1:-0.17294743 2:-0.79167263 3:-0.62313239 4:0.022703117 5:0.32411237 6:-0.03920045 
50000 1:-1.0830115 2:-0.91264705 3:-0.23231079 4:0.027554151 5:-0.51757752 6:0.088816385 
50000 1:-1.0830115 2:-0.60798149 3:-0.71540971 4:-0.0010669492 5:0.34916267 6:-0.034734747 
50000 1:-1.0830115 2:1.5052905 3:0.28756489 4:0.19164038 5:1.6267277 6:-0.36540946 
43710.615838967249 1:0.73711661 2:0.31124966 3:1.3842806 4:0.14507045 5:1.5175084 6:1.1023184 
50000 1:-1.0830115 2:-0.72439999 3:-0.83793789 4:-0.01828812 5:0.32311036 6:-0.22378286 
50000 1:-1.0830115 2:-0.61602707 3:-0.59239361 4:0.01591167 5:0.36719888 6:-0.24717464 
50000 1:1.6471807 2:0.52082234 3:1.4441724 4:0.45905362 5:0.7519714 6:-0.52319765 
50000 1:0.73711661 2:-0.64064846 3:0.86464884 4:-0.19147003 5:0.47241012 6:-0.11447945 
50000 1:1.6471807 2:-0.14414926 3:0.94918048 4:0.60701016 5:0.056575227 6:1.7806801 
50000 1:-1.0830115 2:-0.65955072 3:-0.82854549 4:-0.0034924662 5:0.42180852 6:-0.29140637 
32444.23328493346 1:-0.17294743 2:-0.52413303 3:-0.30793794 4:0.014092532 5:-0.92038626 6:0.72507281 
50000 1:-1.0830115 2:-0.76239837 3:-0.48053862 4:0.1051707 5:0.29505403 6:0.17090027 
50000 1:-1.0830115 2:-0.7823669 3:-0.61581363 4:0.017852083 5:0.38022503 6:-0.20294291 
50000 1:-1.0830115 2:1.3201453 3:0.85098716 4:-0.16757869 5:-2.0356254 6:-0.16934381 
50000 1:-1.0830115 2:1.5264222 3:0.73095955 4:0.4124837 5:0.7770217 6:0.059895638 
50000 1:-1.0830115 2:-0.75328651 3:-0.88636367 4:-0.011254121 5:0.56960526 6:-0.24972647 
50000 1:-0.17294743 2:-0.83141583 3:-0.41564564 4:-0.039875221 5:0.18282871 6:-0.033246179 
50000 1:0.73711661 2:2.045798 3:0.23755338 4:-0.21499755 5:-0.6257948 6:-0.094064808 
50000 1:-1.0830115 2:-0.70811497 3:-0.66399545 4:-0.004462673 5:-0.23701423 6:0.077758452 
50000 1:0.73711661 2:2.5624596 3:0.87172364 4:0.065513492 5:-0.82319112 6:-0.075776689 
25834.705185980347 1:0.73711661 2:-0.12117575 3:0.68607118 4:0.58166351 5:-3.1759148 6:-0.37561678 
50000 1:0.73711661 2:0.3193437 3:1.5286735 4:0.65188223 5:1.4255738 6:0.062660121 
50000 1:0.73711661 2:-0.65887218 3:3.7819052 4:0.48791728 5:-0.53761776 6:2.1328327 
46293.504690689486 1:1.6471807 2:-0.69221769 3:-0.60446956 4:0.044896598 5:0.28904196 6:0.16324478 
50000 1:-0.17294743 2:-0.41595398 3:-0.71730039 4:-0.093600423 5:0.23894137 6:-0.01665928 
50000 1:-1.0830115 2:-0.68863111 3:-0.80756505 4:-0.011496672 5:0.53603786 6:-0.26184767 
50000 1:-0.17294743 2:-0.7546436 3:-0.59959039 4:0.012515946 5:0.34214858 6:0.07010296 
50000 1:-1.0830115 2:-0.83587482 3:-0.52994022 4:-0.010526466 5:0.30206811 6:-0.28630271 
50000 1:-1.0830115 2:-0.79264197 3:-0.51664448 4:-0.036479497 5:0.32511438 6:-0.0077278727 
50000 1:-0.17294743 2:2.4758001 3:0.87916437 4:0.39004767 5:0.3601848 6:-0.20634535 
50000 1:0.73711661 2:-0.70384985 3:-0.089473057 4:-0.21705924 5:-0.39533209 6:0.13645056 
50000 1:-1.0830115 2:-0.78275464 3:-0.72876644 4:0.0097266014 5:0.36519486 6:0.029698976 
-50000 1:-0.17294743 2:-0.48056091 3:-0.12951275 4:0.0014798436 5:0.026264371 6:-0.24196466 
-50000 1:0.73711661 2:-0.097232898 3:-0.46407141 4:0.021732911 5:-0.078696364 6:0.085413944 
-50000 1:-1.0830115 2:-0.3652087 3:-0.751973 4:-0.11288328 5:0.69360422 6:-0.31788162 
-50000 1:-1.0830115 2:-0.64976032 3:-0.79073191 4:-0.015862603 5:0.30206811 6:-0.43941255 
-50000 1:-1.0830115 2:-0.61815963 3:-0.89819566 4:-0.037934808 5:0.37321095 6:-0.23399019 
-50000 1:-1.0830115 2:-0.0026731607 3:-0.59858406 4:-0.17788714 5:0.089892119 6:-0.48608978 
-50000 1:-1.0830115 2:-0.50203194 3:-0.84293904 4:-0.1695191 5:0.20487297 6:-0.55977389 
-50000 1:0.73711661 2:1.1852123 3:1.3054819 4:1.0611882 5:0.41228941 6:-0.23866854 
-50000 1:-0.17294743 2:-0.22785232 3:-0.58602019 4:-0.011375396 5:0.23418182 6:-0.21761594 
-50000 1:-0.17294743 2:3.4251779 3:0.77877543 4:-0.27369506 5:1.1587882 6:-1.5711494 
-50000 1:-1.0830115 2:-0.6880495 3:-0.84184123 4:-0.017560465 5:0.39550571 6:-0.26748296 
-50000 1:-0.17294743 2:-0.44503437 3:0.50224841 4:0.54224886 5:-0.094728552 6:1.3409146 
-50000 1:-1.0830115 2:-0.67602961 3:-0.84153628 4:-0.019622154 5:0.37020491 6:-0.29161903 
-50000 1:-1.0830115 2:-0.43635872 3:-0.33736544 4:0.10844514 5:-0.23200417 6:0.16452069 
-50000 1:-1.0830115 2:-0.62765922 3:-0.40430157 4:-0.038056083 5:-0.28711481 6:-0.13659532 
-50000 1:-0.17294743 2:-0.64258716 3:0.25963163 4:-0.010769017 5:-1.5456416 6:0.084563334 
-50000 1:-1.0830115 2:-0.59664014 3:-0.63221985 4:-0.06825377 5:0.056575227 6:-0.37497883 
-50000 1:-1.0830115 2:-0.35682385 3:-0.78939014 4:-0.038056083 5:0.61970585 6:-0.44749335 
-50000 1:-1.0830115 2:-0.8743094 3:-0.83656563 4:-0.00033929412 5:-0.057403613 6:-0.26578174 
-50000 1:-1.0830115 2:-0.3950161 3:-0.45772849 4:-0.0045839489 5:-0.18290559 6:-0.33010914 
-50000 1:-1.0830115 2:-0.42351488 3:-0.8237883 4:-0.24398248 5:0.34665764 6:-0.44281499 
-50000 1:-0.17294743 2:-0.22053375 3:0.2880528 4:0.36749036 5:1.1237178 6:0.3737708 
-50000 1:-1.0830115 2:-0.8618533 3:-0.90636827 4:-0.015620051 5:0.3862371 6:-0.25610605 
-14323.543569941152 1:0.73711661 2:1.9992694 3:0.26951195 4:0.052536976 5:-0.31817718 6:0.086689859 
-50000 1:-0.17294743 2:-0.6757388 3:0.84988935 4:0.85635331 5:0.1056738 6:1.4387348 
-50000 1:-0.17294743 2:-0.20405487 3:0.26621851 4:-0.15787662 5:-0.84924342 6:-0.16594137 
-50000 1:-1.0830115 2:-0.60303783 3:2.959033 4:-0.68021171 5:0.34415261 6:2.1575004 
-50000 1:0.73711661 2:1.6035822 3:0.26792622 4:0.13270031 5:1.5445627 6:-0.22335756 
-50000 1:-1.0830115 2:-0.6530561 3:-0.7767043 4:-0.0037350179 5:0.26499368 6:-0.17189564 
-50000 1:-0.17294743 2:1.0378717 3:0.3115948 4:-0.10403015 5:0.41228941 6:-0.31522346 
-50000 1:-0.17294743 2:-0.59949971 3:-0.56333205 4:0.0030564297 5:0.14575428 6:-0.039094124 
-50000 1:0.73711661 2:0.37619586 3:0.61934852 4:-0.1941381 5:-2.2660881 6:0.26574331 
-50000 1:0.73711661 2:-0.35013536 3:-0.020371797 4:0.13658114 5:-0.044627963 6:0.54580671 
-50000 1:1.6471807 2:0.90507123 3:2.576384 4:1.0297778 5:2.3471742 6:2.1587763 
-50000 1:0.73711661 2:-0.32076417 3:-0.70888382 4:-0.021562568 5:0.36218882 6:-0.29055576 
-50000 1:-1.0830115 2:-0.6729277 3:-0.85349025 4:-0.014892396 5:0.3516677 6:-0.24015711 
-50000 1:-0.17294743 2:-0.31775919 3:-0.57177911 4:0.034224323 5:0.36594636 6:-0.30172002 
-50000 1:-1.0830115 2:-0.79147876 3:0.3957605 4:0.54976796 5:0.2750138 6:1.5114619 
-50000 1:-1.0830115 2:-0.75154169 3:-0.83866977 4:-0.016105155 5:0.081625522 6:-0.18848254 
-50000 1:-1.0830115 2:-0.81319211 3:-0.66985045 4:0.0017223953 5:0.1136899 6:-0.20974779 
-50000 1:-1.0830115 2:-0.67157061 3:-0.79286655 4:-0.02180512 5:0.43308115 6:-0.31299061 
-50000 1:1.6471807 2:0.09939901 3:-0.12121816 4:0.059813527 5:-0.75229878 6:0.38908179 
-50000 1:-1.0830115 2:-0.39850574 3:-0.85342926 4:-0.10657694 5:0.38122704 6:-0.45940189 
-37302.062857638055 1:-1.0830115 2:1.5993171 3:0.18083302 4:-0.19862531 5:-0.1668734 6:-0.75924198 
-50000 1:-1.0830115 2:-0.78004047 3:-0.63703803 4:0.022945669 5:0.0084786615 6:0.10795511 
-50000 1:-1.0830115 2:-0.45026884 3:0.11837963 4:0.38495408 5:0.06960138 6:0.73953319 
-2933.1213402609742 1:1.6471807 2:3.0240624 3:5.3053044 4:0.70269681 5:-0.9404265 6:0.28275551 
-50000 1:-1.0830115 2:-0.67612654 3:-0.84446379 4:-0.010526466 5:0.30507415 6:-0.27311825 
-50000 1:-0.17294743 2:-0.20739911 3:-0.7584379 4:-0.40831125 5:0.30357113 6:-0.4748192 
-50000 1:0.73711661 2:-0.71664522 3:-0.32489306 4:0.050354011 5:-0.055650093 6:0.37164428 
-50000 1:-0.17294743 2:-0.58539572 3:1.940872 4:0.6986947 5:0.26298965 6:0.56941115 
-50000 1:-1.0830115 2:-0.75192943 3:-0.85037978 4:-0.015498775 5:0.41729947 6:-0.26801459 
-50000 1:-1.0830115 2:-0.49195073 3:-0.57958579 4:-0.20238486 5:0.043048068 6:-0.51596747 
-50000 1:0.73711661 2:-0.055017864 3:-0.33492585 4:-0.042058186 5:-0.19042068 6:-0.31628672 
-50000 1:0.73711661 2:0.17515343 3:0.45321274 4:0.40557098 5:-1.6125259 6:0.64415852 
-50000 1:-1.0830115 2:0.49309903 3:-0.45565484 4:-0.024109361 5:0.7429533 6:-0.37901922 
-50000 1:0.73711661 2:-0.57705934 3:-0.74864906 4:-0.12246407 5:0.47241012 6:-0.65121449 
-50000 1:-1.0830115 2:-0.73428732 3:-0.83586425 4:-0.019015775 5:0.20186694 6:-0.28800393 
-50000 1:0.73711661 2:0.3217186 3:0.33599066 4:-0.8791041 5:-0.97850294 6:0.48605135 
-37731.661327367459 1:0.73711661 2:-0.39928122 3:-0.84385389 4:-0.55529758 5:0.24294942 6:-0.82197449 
-50000 1:0.73711661 2:0.014048064 3:0.64228062 4:-0.10645566 5:0.50146846 6:0.17175088 
-50000 1:-1.0830115 2:-0.80756991 3:-0.90929577 4:-0.017075361 5:0.23493332 6:-0.30671736 
-50000 1:-1.0830115 2:1.7918293 3:0.76572365 4:-0.46458325 5:-1.6127764 6:0.16834844 
-50000 1:-1.0830115 2:-0.16038581 3:0.51545267 4:0.012879773 5:0.15176635 6:0.50944313 
-50000 1:0.73711661 2:3.1467816 3:0.89148428 4:-0.34536909 5:1.2680075 6:-1.1862483 
-50000 1:-1.0830115 2:-0.86417973 3:0.90514596 4:1.1334686 5:-0.087213464 6:2.6848787 
-5376.8141852973658 1:1.6471807 2:-0.4719822 3:4.0209846 4:3.9361535 5:-1.5015531 6:4.5468644 
-14812.815231510167 1:0.73711661 2:0.17224539 3:-0.45797245 4:-0.031385912 5:0.69686076 6:-0.47854062 
-50000 1:1.6471807 2:-0.26260339 3:-0.62593791 4:0.015184015 5:0.25697758 6:-0.25695666 
-50000 1:0.73711661 2:2.3536624 3:0.69912296 4:-0.06825377 5:0.091645639 6:-0.079179129 
-4450.4547453317491 1:1.6471807 2:2.6747099 3:1.9498985 4:0.43964949 5:-3.020603 6:0.59195232 
-50000 1:-1.0830115 2:-0.64239329 3:-0.4894431 4:-0.0095562587 5:0.58764147 6:-0.17955113 
-50000 1:0.73711661 2:0.29864815 3:0.59739225 4:-0.42650263 5:-2.3903375 6:-0.62994923 
-50000 1:-1.0830115 2:-0.70394678 3:-0.48230732 4:0.0088776705 5:0.23668684 6:0.13315444 
-50000 1:-0.17294743 2:1.1541932 3:1.3154842 4:1.0416628 5:0.35818077 6:-0.1604124 
