svm_type c_svc
kernel_type rbf
gamma 0.0001
nr_class 2
total_sv 92
rho -445.14209612100058
label 0 1
probA -0.95964781503666841
probB 0.035246021989702059
nr_sv 43 49
SV
1000000 1:-1.2157218 2:-0.51208396 3:-0.47190816 4:-0.48865574 5:-0.65089343 6:-0.42302329 7:-0.2613956 8:-0.40238893 
1000000 1:0.57564839 2:-0.16428373 3:1.0331878 4:1.0180231 5:0.50998996 6:-0.37262356 7:0.14438487 8:-0.4557993 
1000000 1:-0.32003669 2:-0.56056595 3:-0.54135308 4:-0.72343001 5:-0.84362697 6:-0.58291589 7:-0.71352155 8:-0.69964306 
100282.97439886387 1:-0.32003669 2:2.0697344 3:0.90481734 4:0.017040042 5:-0.11191186 6:0.65842512 7:0.64122564 8:-0.10640647 
1000000 1:-1.2157218 2:-0.56441276 3:-0.56763724 4:-0.69669368 5:-0.61727712 6:-0.55568023 7:-0.51080297 8:-0.82394934 
1000000 1:1.4713335 2:0.32938989 3:-0.25296853 4:0.82288774 5:0.73409873 6:0.53022493 7:-0.61671098 8:1.121926 
1000000 1:0.57564839 2:-0.51281669 3:-0.094009227 4:0.015477097 5:-0.34610551 6:-0.529545 7:-0.38704336 8:-0.49055843 
163148.83114282705 1:1.4713335 2:-0.28249673 3:0.3627992 4:-0.37638975 5:-0.13544328 6:-0.30714793 7:-0.35683297 8:-0.20824648 
1000000 1:-0.32003669 2:-0.48991903 3:-0.43690063 4:-0.86735395 5:-0.70916171 6:-0.50357483 7:-0.33486177 8:-0.81059675 
1000000 1:-1.2157218 2:-0.57778499 3:-0.64854227 4:-0.81707368 5:-0.89517199 6:-0.55953174 7:-0.45304276 8:-0.71924806 
1000000 1:0.57564839 2:-0.52246424 3:-0.18694454 4:0.010555484 5:-0.29680159 6:-0.48162124 7:-0.2390811 8:-0.24512507 
1000000 1:0.57564839 2:-0.47886709 3:0.066546505 4:0.00031320695 5:-0.44471337 6:-0.51556953 7:-0.28679979 8:-0.58339073 
727239.23574210401 1:0.57564839 2:-0.54847598 3:-0.33792167 4:-0.30017125 5:-0.59710733 6:-0.59496561 7:-0.52642311 8:-0.60797646 
1000000 1:0.57564839 2:-0.57271698 3:-0.2708714 4:-0.83542997 5:-0.54332123 6:-0.54572133 7:0.019767013 8:-0.74023071 
1000000 1:-1.2157218 2:-0.42794269 3:-0.28141927 4:0.06010416 5:-0.5578883 6:-0.49460632 7:-0.56641755 8:-0.25498055 
1000000 1:-1.2157218 2:-0.60898687 3:-0.73472125 4:-0.82156299 5:-0.90637742 6:-0.60354897 7:-0.74321699 8:-0.78929618 
1000000 1:-1.2157218 2:-0.61484868 3:-0.84524585 4:-0.90872211 5:-0.94223483 6:-0.6043743 7:-0.69566996 8:-0.79618443 
1000000 1:-0.32003669 2:-0.37475905 3:-0.47225025 4:0.0025744888 5:-0.73605476 6:-0.48288673 7:-0.68880396 8:-0.49522124 
1000000 1:-1.2157218 2:-0.030622437 3:0.036214243 4:1.321966 5:0.33070295 6:0.14017721 7:-0.37811756 8:0.46743707 
1000000 1:0.57564839 2:-0.3715839 3:-0.32515019 4:-0.057549006 5:-0.41333814 6:-0.27903192 7:-0.44574764 8:0.16223497 
1000000 1:0.57564839 2:0.74893613 3:1.0529152 4:-0.21118316 5:2.0428939 6:2.1213929 7:2.7781816 8:-0.16246616 
1000000 1:-0.32003669 2:-0.54670523 3:-0.70852261 4:-0.64787659 5:-0.59262515 6:-0.54043926 7:-0.5758583 8:-0.36974926 
1000000 1:-1.2157218 2:-0.12025916 3:0.69599796 4:-0.66929226 5:-0.063728472 6:-0.6003027 7:-0.47527143 8:-0.69148315 
1000000 1:0.57564839 2:-0.23303778 3:1.2940909 4:0.40747696 5:0.56825824 6:-0.39771338 7:0.032125809 8:-0.25572236 
1000000 1:-1.2157218 2:-0.59439343 3:-0.60612272 4:-0.67793834 5:-0.77191217 6:-0.59215951 7:-0.68983386 8:-0.4867434 
1000000 1:1.4713335 2:-0.35247199 3:-0.37763298 4:-0.082323344 5:0.094268206 6:-0.24722947 7:-0.51792644 8:0.095048114 
1000000 1:0.57564839 2:0.97968351 3:0.41753411 4:0.13572409 5:-0.17130068 6:-0.0078857573 7:-0.20921401 8:-0.14890163 
1000000 1:-1.2157218 2:-0.60349144 3:-0.80168599 4:-0.6575868 5:-0.83466262 6:-0.59628613 7:-0.71695455 8:-0.6630824 
1000000 1:1.4713335 2:-0.090156361 3:1.26889 4:1.1852249 5:0.36656035 6:-0.31567626 7:0.19759636 8:-0.25275512 
1000000 1:-1.2157218 2:1.6689948 3:0.2607414 4:1.1034197 5:0.16934464 6:0.65308803 7:0.13820548 8:1.6127928 
1000000 1:0.57564839 2:-0.48424041 3:-0.69324245 4:-0.5348125 5:-0.39540944 6:-0.47661428 7:-0.59130679 8:-0.20951815 
1000000 1:-1.2157218 2:-0.6185123 3:-0.86423202 4:-0.98261282 5:-1.0150702 6:-0.60701533 7:-0.75514667 8:-0.8558472 
1000000 1:0.57564839 2:-0.38373493 3:0.24352271 4:0.38951972 5:0.043843734 6:-0.50979227 7:-0.16630153 8:-0.34050073 
1000000 1:1.4713335 2:-0.51764046 3:-0.58194813 4:-0.64495023 5:-0.18922938 6:-0.3683869 7:-0.2692915 8:-0.24427728 
1000000 1:0.57564839 2:-0.48808721 3:-0.82235412 4:-0.73277442 5:-0.034594333 6:-0.2176829 7:-0.37502786 8:0.20080912 
1000000 1:-1.2157218 2:-0.61552034 3:-0.90271751 4:-0.85524944 5:-0.95119918 6:-0.6051446 7:-0.76501654 8:-0.7715987 
1000000 1:1.4713335 2:-0.46219759 3:-0.56276241 4:-0.43834222 5:0.14917485 6:-0.12623709 7:-0.10613822 8:0.1797205 
1000000 1:-0.32003669 2:-0.57308334 3:-0.85690553 4:-0.94240856 5:-0.27887289 6:-0.45273493 7:-0.45493091 8:-0.43916154 
1000000 1:1.4713335 2:-0.5485981 3:-0.44111977 4:-0.52882675 5:-0.036835421 6:-0.47876012 7:-0.30842768 8:-0.41383401 
1000000 1:-1.2157218 2:-0.60104902 3:-0.72448696 4:-0.54146333 5:-0.79432304 6:-0.59386518 7:-0.74888144 8:-0.64909397 
1000000 1:-0.32003669 2:-0.27748977 3:-0.53451121 4:0.33059338 5:-0.35058769 6:-0.062081976 7:-0.52573651 8:0.31525991 
1000000 1:1.4713335 2:-0.11671765 3:0.80957289 4:1.5887972 5:0.58170477 6:-0.11902927 7:-0.0042639795 8:0.66878568 
1000000 1:-0.32003669 2:-0.37280511 3:-0.31557158 4:-0.60211889 5:-0.71364389 6:-0.52960002 7:-0.58787379 8:-0.65926737 
-1000000 1:-0.32003669 2:-0.597996 3:-0.68340727 4:-0.65416163 5:-0.86267621 6:-0.59606604 7:-0.69841636 8:-0.71734055 
-365770.32023871207 1:-0.32003669 2:1.4300653 3:0.024240982 4:0.76662173 5:0.88761323 6:2.6662162 7:0.084564867 8:2.6380811 
-1000000 1:1.4713335 2:0.18266166 3:0.437347 4:-0.62549655 5:0.98285945 6:1.1170297 7:1.2133349 8:-0.41987447 
-1000000 1:1.4713335 2:0.41353116 3:2.0723529 4:1.0266691 5:0.47413256 6:0.0037788096 7:0.41421859 8:-0.13957601 
-1000000 1:0.57564839 2:-0.34233596 3:-0.29592973 4:-0.16020455 5:-0.40661488 6:-0.57059107 7:-0.56993637 8:-0.083304367 
-1000000 1:-1.2157218 2:-0.61161247 3:-0.84296523 4:-0.79166752 5:-0.88844872 6:-0.60123807 7:-0.70940196 8:-0.80211891 
-324569.81175629847 1:0.57564839 2:0.021339993 3:0.10976428 4:1.787391 5:0.084183311 6:-0.41009323 7:-0.27238119 8:0.65861228 
-1000000 1:-0.32003669 2:-0.53827889 3:-0.55016198 4:-0.23941593 5:-0.67218377 6:-0.56222779 7:-0.67833331 8:-0.38437353 
-1000000 1:-1.2157218 2:-0.56459594 3:-0.32127313 4:-0.48799066 5:-0.57469645 6:-0.54038424 7:-0.010100078 8:-0.71310163 
-1000000 1:1.4713335 2:-0.43075147 3:-0.53131834 4:-0.26345867 5:0.11555854 6:-0.27952711 7:-0.36060927 8:0.45683978 
-1000000 1:-1.2157218 2:-0.35002957 3:-0.32081701 4:-0.75941099 5:-0.40213271 6:-0.39820858 7:0.0039752179 8:-0.40387255 
-1000000 1:0.57564839 2:-0.46012153 3:-0.40873495 4:-0.20453233 5:-0.13992545 6:-0.48921421 7:-0.37605776 8:-0.26250463 
-1000000 1:0.57564839 2:-0.5816318 3:-0.78321295 4:-0.56713553 5:-0.29680159 6:-0.51810052 7:-0.54770771 8:-0.3468591 
-1000000 1:-0.32003669 2:-0.57821242 3:-0.7106892 4:-0.14786726 5:-0.61055386 6:-0.59788175 7:-0.578948 8:-0.68936369 
-391134.09543654509 1:0.57564839 2:-0.47092923 3:0.066888598 4:-0.71943951 5:0.061772435 6:-0.22274488 7:0.9967985 8:-0.53167593 
-1000000 1:-0.32003669 2:-0.48143163 3:-0.25547721 4:-0.31520212 5:-0.072692823 6:-0.44849827 7:-0.42377645 8:-0.20019253 
-104086.37650835435 1:0.57564839 2:1.7415346 3:2.9985131 4:1.0551347 5:1.8949821 6:1.9203442 7:0.54673235 8:0.37333309 
-1000000 1:0.57564839 2:-0.46793727 3:-0.58571116 4:-0.20533043 5:-0.086139349 6:-0.4002994 7:-0.65413067 8:0.046936393 
-162552.42397630305 1:-1.2157218 2:-0.31430922 3:0.43019156 4:0.72432246 5:0.31277425 6:-0.33812505 7:-0.36678866 8:-0.67749472 
-1000000 1:-1.2157218 2:-0.036056816 3:0.73667854 4:-0.57415215 5:-0.19034992 6:-0.17383073 7:-0.30490886 8:-0.5423792 
-1000000 1:0.57564839 2:-0.47886709 3:-0.63557124 4:0.35370501 5:-0.41445869 6:-0.55424967 7:-0.53715123 8:-0.18472048 
-1000000 1:-0.32003669 2:0.042955387 3:-0.1588929 4:1.2210064 5:-0.35058769 6:-0.18846646 7:-0.53157261 8:0.295337 
-1000000 1:-0.32003669 2:-0.6018428 3:-0.7877742 4:-0.72702146 5:-0.89741307 6:-0.60255859 7:-0.71043185 8:-0.76015362 
-263056.76946114405 1:-0.32003669 2:-0.47379907 3:-0.33085174 4:0.08344857 5:-0.22060461 6:-0.43028614 7:-0.32456278 8:0.13892092 
-1000000 1:-1.2157218 2:-0.58279195 3:-0.78195861 4:-0.28553943 5:-0.71364389 6:-0.59149926 7:-0.69669986 8:-0.59610749 
-1000000 1:-0.32003669 2:-0.41261652 3:-0.19464164 4:-0.77291218 5:-0.026750526 6:-0.29630868 7:0.16506869 8:-0.38924828 
-1000000 1:0.57564839 2:-0.29989895 3:-0.046344244 4:0.5850541 5:0.3038099 6:-0.31760202 7:-0.39459596 8:0.15290935 
-1000000 1:-1.2157218 2:-0.5927448 3:-0.68012888 4:-0.75548701 5:-0.82569827 6:-0.5665745 7:-0.53946851 8:-0.68724423 
-1000000 1:1.4713335 2:-0.39997701 3:0.5900631 4:0.12335354 5:-0.041317596 6:-0.4447568 7:-0.51715402 8:-0.38416158 
-1000000 1:0.57564839 2:-0.43105677 3:0.22014634 4:0.2938808 5:0.19175552 6:-0.46549992 7:-0.34928037 8:-0.55541387 
-879208.45322815957 1:1.4713335 2:1.9447437 3:-0.04908099 4:1.1945361 5:0.55481171 6:1.3259465 7:0.32393072 8:1.7687849 
-101769.15529838781 1:-0.32003669 2:2.8630926 3:2.4848032 4:-0.50049422 5:2.4104323 6:2.8684754 7:3.8338288 8:-0.41213844 
-1000000 1:1.4713335 2:-0.034102882 3:0.780609 4:0.90322976 5:0.42931081 6:-0.013497955 7:0.79459487 8:0.70312092 
-1000000 1:1.4713335 2:-0.32291874 3:0.19642788 4:-0.43478403 5:-0.11751458 6:-0.52508825 7:-0.63765228 8:-0.76947924 
-1000000 1:-0.32003669 2:-0.60098796 3:-0.61718373 4:-0.68525425 5:-0.85259132 6:-0.59281977 7:-0.52402001 8:-0.74870854 
-1000000 1:-1.2157218 2:-0.56612245 3:-0.51147694 4:-0.7457768 5:-0.48505295 6:-0.50032856 7:-0.2404543 8:-0.5850863 
-1000000 1:-0.32003669 2:-0.43850614 3:-0.43142713 4:-0.52816167 5:-0.36851639 6:-0.55628547 7:-0.54976751 8:-0.54608825 
-1000000 1:-0.32003669 2:-0.6041631 3:-0.76645039 4:-0.65585759 5:-0.81225174 6:-0.59359007 7:-0.71901435 8:-0.6418878 
-155728.66404979615 1:1.4713335 2:2.7584961 3:1.9356296 4:4.2066965 5:1.9532504 6:1.5441619 7:0.61916862 8:0.31229267 
-1000000 1:0.57564839 2:-0.54481236 3:-0.67063579 4:-0.17882687 5:-0.5478034 6:-0.5617326 7:-0.68425524 8:-0.73970084 
-1000000 1:0.57564839 2:-0.44204765 3:-0.19310222 4:-0.60185285 5:-0.48505295 6:-0.46643529 7:-0.44609094 8:-0.38416158 
-163898.18762890837 1:1.4713335 2:0.5369343 3:1.8298088 4:2.3178611 5:1.0523332 6:-0.059550985 7:0.15228077 8:0.40851611 
-1000000 1:-1.2157218 2:-0.56111549 3:-0.67431329 4:-0.70720199 5:-0.47160642 6:-0.48492253 7:-0.60744189 8:-0.24003837 
-78896.783701187422 1:-0.32003669 2:0.10902278 3:0.22527774 4:-0.72170079 5:0.40689993 6:0.35916295 7:0.89483843 8:-0.65163732 
-1000000 1:-1.2157218 2:-0.60923112 3:-0.7808183 4:-0.83356774 5:-0.90637742 6:-0.60200837 7:-0.73068655 8:-0.79109772 
-1000000 1:-0.32003669 2:-0.43893356 3:-0.43929528 4:-0.015116716 5:-0.42230249 6:-0.43281713 7:-0.54770771 8:-0.16416173 
-1000000 1:-0.32003669 2:-0.61582564 3:-0.84547391 4:-0.94197625 5:-0.99602093 6:-0.60663018 7:-0.75506084 8:-0.82288961 
-1000000 1:-1.2157218 2:-0.13772244 3:0.60614148 4:-0.41496456 5:-0.072692823 6:-0.16244127 7:-0.027951672 8:-0.36169532 
-1000000 1:-1.2157218 2:-0.2533709 3:-0.16790135 4:0.11949606 5:-0.25646201 6:-0.27820659 7:-0.27066469 8:0.31186878 
