svm_type c_svc
kernel_type rbf
gamma 0.69999999999999996
nr_class 2
total_sv 99
rho -0.80859002981885053
label 1 0
probA -2.3734969108225759
probB -0.44228098367863777
nr_sv 72 27
SV
0.061493643295342432 1:-1.4791944 2:0.13432641 3:0.98687187 4:0.95145799 5:0.29541868 6:0.077741512 7:-0.10254009 8:0.27082362 
0.078497318115430384 1:0.31595682 2:0.23388177 3:0.31391666 4:0.12019928 5:0.66733476 6:0.95709035 7:1.1467312 8:0.29582155 
5 1:-0.5816188 2:-0.51201762 3:-0.31340824 4:-0.57469096 5:-0.59262583 6:-0.52187952 7:-0.35777083 8:-0.51116261 
0.027127163267446339 1:0.31595682 2:-0.070336436 3:0.84168921 4:1.9211958 5:1.2517743 6:0.0015142845 7:0.48116086 8:0.40105555 
0.11364626885115325 1:0.31595682 2:0.88118307 3:1.650634 4:2.3628336 5:1.6161003 6:1.0703742 7:1.5569559 8:0.906936 
5 1:0.31595682 2:-0.51642103 3:-0.63598462 4:-0.66245434 5:-0.74158201 6:-0.48880212 7:-0.54588452 8:-0.49309372 
0.17792767058686201 1:-0.5816188 2:1.6785832 3:1.4097957 4:1.6846099 5:2.5003497 6:3.2751193 7:2.6608767 8:2.83532 
0.12842027171373321 1:-1.4791944 2:0.88896881 3:2.0153062 4:1.8440844 5:2.1474089 6:0.45806937 7:0.92920682 8:1.6856579 
0.04279082568352436 1:1.2135324 2:0.36943023 3:0.20658453 4:1.4590632 5:0.9026286 6:1.5610015 7:0.336061 8:0.61031007 
0.029378107536495647 1:0.31595682 2:0.13043354 3:0.19548534 4:-0.088485837 5:0.6331792 6:-0.0097394904 7:0.82773721 8:0.40867628 
0.71873793992682533 1:-0.5816188 2:-0.28725225 3:-0.53133744 4:-0.5387466 5:-0.63816657 6:-0.017200557 7:-0.15077786 8:-0.26234826 
0.51400155940061976 1:-0.5816188 2:-0.35898317 3:-0.40078851 4:0.97198764 5:0.39409029 6:-0.36743544 7:-0.40456678 8:0.46420567 
0.11359866810243746 1:0.31595682 2:0.7237452 3:2.9558837 4:1.8386463 5:1.7375422 6:-0.30047237 7:0.4160498 8:0.51929819 
0.073007838888895019 1:-0.5816188 2:0.19603797 3:0.44242329 4:1.1575347 5:1.6502558 6:0.12773066 7:1.4734149 8:1.3289884 
0.12432173713566309 1:-1.4791944 2:0.33356477 3:2.7534406 4:1.8607713 5:1.5136336 6:0.21682822 7:0.54765103 8:2.229642 
5 1:-1.4791944 2:-0.56702834 3:-0.58479382 4:-0.61855082 5:-0.71596534 6:-0.5478689 7:-0.56399065 8:-0.61082669 
5 1:1.2135324 2:-0.5464791 3:-0.46015121 4:-0.67253867 5:-0.64385917 6:-0.52822142 7:-0.377674 8:-0.55959307 
0.12533905306946622 1:-0.5816188 2:-0.017750783 3:0.97338727 4:1.2025648 5:1.9842213 6:0.15359569 7:1.3220463 8:0.023853773 
2.4886216164223987 1:-0.5816188 2:-0.45496474 3:-0.40226713 4:-0.2591422 5:-0.54329002 6:-0.4268131 7:-0.55096217 8:-0.18976932 
0.1855756643348809 1:-0.5816188 2:2.9611243 3:2.0662819 4:2.4358926 5:2.5003497 6:4.0189876 7:0.55671977 8:1.377431 
0.17312509812861474 1:1.2135324 2:1.0168592 3:2.8255472 4:1.1028161 5:2.4851695 6:1.0454418 7:2.0859519 8:-0.089340739 
4.7578139241479338 1:1.2135324 2:-0.46402683 3:-0.51247753 4:0.16396016 5:-0.13342333 6:-0.46032572 7:-0.48831682 8:0.33251754 
0.19128815888773898 1:-0.5816188 2:1.8471892 3:1.4565779 4:1.4338174 5:2.4510139 6:3.1102919 7:4.9821818 8:5.3405495 
1.9156199390188866 1:1.2135324 2:0.74454972 3:0.091900147 4:0.098924371 5:-0.12962826 6:1.3805059 7:-0.19857681 8:0.74423103 
5 1:-1.4791944 2:-0.5312267 3:-0.52956745 4:-0.46645033 5:-0.58124064 6:-0.48979693 7:-0.5757027 8:-0.44135043 
5 1:-1.4791944 2:-0.5581577 3:-0.37414881 4:-0.46783314 5:-0.6457567 6:-0.54712279 7:-0.53264708 8:-0.62843446 
0.1184316992893464 1:-1.4791944 2:0.34345649 3:0.63027085 4:0.49515944 5:0.72805575 6:0.42449457 7:1.2772041 8:1.6358077 
5 1:0.31595682 2:-0.48483135 3:-0.40639529 4:-0.33534528 5:-0.58218941 6:-0.43160061 7:-0.57026982 8:-0.39492224 
0.18233495630074928 1:-0.5816188 2:3.5391198 3:2.0133238 4:2.0398322 5:2.2346954 6:2.1014936 7:2.0017422 8:2.4582153 
5 1:1.2135324 2:-0.21915894 3:0.085141512 4:-0.11335315 5:-0.13437209 6:-0.17338554 7:-0.11681187 8:-0.38492306 
0.050288721805199145 1:0.31595682 2:-0.21954184 3:1.7958494 4:1.6497805 5:0.66733476 6:-0.31371577 7:0.15130107 8:0.32033408 
0.105095401368399 1:-0.5816188 2:0.59968391 3:2.8907808 4:2.1533683 5:1.1341274 6:0.0032552 7:0.069055532 8:1.4216992 
0.14694623300399565 1:-1.4791944 2:0.26157859 3:0.036997815 4:0.25856191 5:0.75177489 6:1.659301 7:0.0096176658 8:0.11115237 
0.050510616705918755 1:1.2135324 2:0.52354958 3:1.8380459 4:0.8469233 5:1.5439941 6:0.72871954 7:0.10248868 8:1.1142004 
5 1:-1.4791944 2:-0.51023073 3:-0.65703115 4:-0.47342843 5:-0.64765423 6:-0.51727852 7:-0.48650934 8:-0.57947006 
0.1860658751593737 1:0.31595682 2:2.1074371 3:3.8059032 4:2.6937767 5:2.4661942 6:3.0994734 7:2.4308148 8:0.30514116 
0.16652183017569444 1:0.31595682 2:0.038919191 3:-0.11668623 4:0.24692883 5:1.0809965 6:1.5251884 7:1.3789244 8:2.1622204 
0.18188545769136968 1:1.2135324 2:0.90083888 3:2.0060587 4:1.4094683 5:1.2821348 6:1.1568604 7:3.3457129 8:1.5673182 
0.18371933659700534 1:1.2135324 2:2.1377504 3:1.4081946 4:0.19405013 5:1.9538608 6:2.5534477 7:1.2352873 8:0.06855881 
5 1:-1.4791944 2:-0.55439247 3:-0.52761501 4:-0.53743948 5:-0.69699003 6:-0.53207631 7:-0.53822624 8:-0.55263976 
0.170747924083685 1:-1.4791944 2:1.9429793 3:0.24934746 4:0.0012367712 5:0.079100147 6:1.5401105 7:0.60795607 8:1.1421107 
5 1:-0.5816188 2:-0.56185912 3:-0.77104294 4:-0.69833756 5:-0.38484618 6:-0.52722661 7:-0.51209614 8:-0.24804119 
0.16919195998426567 1:0.31595682 2:2.1433664 3:1.6134261 4:2.5502205 5:2.4775793 6:1.8889775 7:0.31909368 8:0.15233828 
0.19119740979712374 1:1.2135324 2:4.0866104 3:1.0305307 4:0.53035853 5:0.64930821 6:2.5338002 7:2.6963158 8:2.1706906 
5 1:1.2135324 2:-0.50691222 3:-0.60829111 4:-0.6622622 5:-0.72165794 6:-0.52418001 7:-0.40333394 8:-0.6004028 
4.3690776947009136 1:-1.4791944 2:-0.55107396 3:-0.42145381 4:-0.4156997 5:-0.62488386 6:-0.54084306 7:-0.56440857 8:-0.50202502 
0.18547446728744321 1:0.31595682 2:1.9059013 3:0.8816964 4:1.7790719 5:1.9576558 6:2.4885364 7:0.46327412 8:2.8627935 
5 1:1.2135324 2:-0.54756399 3:0.015142537 4:-0.64402074 5:-0.50154434 6:-0.53655295 7:-0.15218832 8:-0.57531992 
0.076515686916714634 1:-0.5816188 2:-0.15974481 3:1.7774959 4:1.8135869 5:0.65974463 6:-0.22810003 7:0.47827725 8:0.35848626 
5 1:0.31595682 2:-0.46038923 3:-0.545078 4:-0.099338721 5:-0.21691469 6:-0.42233646 7:-0.58042514 8:-0.31242907 
0.19053536480048663 1:1.2135324 2:4.2178193 3:3.3895038 4:1.8619125 5:2.4320386 6:1.7660565 7:3.1342482 8:1.2740901 
0.030826160616530325 1:0.31595682 2:0.91577218 3:1.8491887 4:1.0280803 5:1.3428558 6:0.88813766 7:0.59378877 8:0.43314028 
0.1061513631743663 1:-0.5816188 2:-0.27499928 3:0.92997081 4:1.1914791 5:0.8532928 6:-0.43893733 7:-0.2742193 8:-0.21141801 
0.21767659382857388 1:1.2135324 2:0.028134027 3:1.1352133 4:0.50794534 5:0.97473478 6:-0.24351957 7:0.28954713 8:0.091226836 
5 1:0.31595682 2:-0.56645399 3:-0.79038484 4:-0.74063994 5:-0.55088015 6:-0.5422731 7:-0.56365632 8:-0.39245885 
0.073222656323266785 1:1.2135324 2:0.71493838 3:1.5807385 4:1.1724749 5:1.4453225 6:1.2795328 7:-0.010473566 8:0.93101168 
0.191441862621133 1:-0.5816188 2:3.4732601 3:3.8881831 4:4.3482826 5:2.4889645 6:-0.080992673 7:2.7089786 8:2.4717579 
0.13297953156054099 1:-0.5816188 2:1.5103602 3:0.88840602 4:0.80736616 5:1.2024385 6:1.8953194 7:0.35595372 8:0.75908417 
0.17038326646928267 1:-0.5816188 2:1.1705956 3:0.8181293 4:0.017877084 5:2.1132534 6:1.7396319 7:2.5002722 8:1.2975833 
0.16563633444796297 1:1.2135324 2:1.2556644 3:2.3495781 4:1.9059063 5:2.0828929 6:2.6275609 7:2.011187 8:1.0205188 
0.060731593547531756 1:0.31595682 2:0.47115538 3:2.5191921 4:2.2027536 5:1.3656262 6:0.29896213 7:1.2507083 8:0.99052132 
0.11594159508680267 1:1.2135324 2:0.73835942 3:1.3630571 4:0.7513201 5:2.1170484 6:0.033161641 7:1.1714718 8:0.66782958 
5 1:-1.4791944 2:-0.55873206 3:-0.4256092 4:-0.45228161 5:-0.65714188 6:-0.54805542 7:-0.57151311 8:-0.59847335 
0.16648348413161546 1:-1.4791944 2:2.2770641 3:1.9551375 4:1.7708158 5:2.0942781 6:2.1757934 7:0.93509941 8:1.066049 
0.036616337553620495 1:1.2135324 2:-0.12949529 3:0.16430086 4:0.30844791 5:1.661641 6:0.27160488 7:0.13044715 8:1.2935059 
0.072336310730604286 1:0.31595682 2:0.31071809 3:0.49800639 4:1.1602712 5:0.87606317 6:0.04043618 7:1.3143985 8:1.220211 
0.85392368642357386 1:-1.4791944 2:-0.51897374 3:-0.073117276 4:-0.5936806 5:-0.52810978 6:-0.51143402 7:-0.37790385 8:-0.51522781 
0.16561641730929008 1:-1.4791944 2:1.2465385 3:0.88908134 4:1.3155886 5:1.4035768 6:2.5247847 7:2.4975139 8:1.7509923 
0.96318588147336093 1:0.31595682 2:-0.17512483 3:-0.2715058 4:0.22142979 5:-0.27858445 6:-0.2108774 7:-0.5054722 8:0.03828219 
0.12856211006028559 1:-1.4791944 2:-0.25489676 3:0.1169523 4:-0.089533862 5:0.71667056 6:0.31487907 7:1.5834517 8:0.58453551 
0.19168966865230352 1:0.31595682 2:1.5761561 3:5.9958641 4:4.2378323 5:1.7792879 6:-0.0096773149 7:1.8829709 8:0.24864099 
0.15669041491522445 1:0.31595682 2:2.1540877 3:2.5914185 4:2.7678605 5:1.9348855 6:0.32028834 7:0.73984983 8:0.48391277 
-4.2822408369127878 1:0.31595682 2:-0.5686876 3:-0.79350819 4:-0.79148954 5:-0.65334682 6:-0.5453197 7:-0.56377125 8:-0.46178563 
-5 1:1.2135324 2:-0.45126333 3:-0.36712059 4:-0.35230873 5:-0.52431471 6:-0.52890535 7:-0.39508013 8:-0.39868406 
-5 1:-1.4791944 2:-0.56632635 3:-0.55094891 4:-0.66882401 5:-0.68370732 6:-0.54805542 7:-0.5669265 8:-0.61167614 
-5 1:0.31595682 2:-0.56824088 3:-0.761839 4:-0.79663069 5:-0.62203756 6:-0.54364096 7:-0.46160164 8:-0.42005365 
-5 1:-0.5816188 2:-0.50774185 3:-0.45042444 4:-0.55883958 5:-0.6457567 6:-0.51180708 7:-0.53010825 8:-0.55668069 
-5 1:-0.5816188 2:-0.55834916 3:-0.41994795 4:-0.4622 5:-0.62773015 6:-0.54737149 7:-0.58040424 8:-0.61143344 
-3.0357306448619927 1:1.2135324 2:0.8634418 3:-0.64450236 4:-0.011182328 5:-0.17896407 6:1.4697278 7:-0.5527801 8:0.83075299 
-0.10517038656934403 1:-1.4791944 2:-0.56645399 3:-0.55642771 4:-0.67051249 5:-0.70647769 6:-0.54805542 7:-0.56767875 8:-0.62065597 
-5 1:1.2135324 2:-0.51201762 3:-0.56468403 4:0.36966423 5:-0.24727519 6:-0.52436654 7:-0.51418571 8:0.045211228 
-0.53881504197846397 1:1.2135324 2:-0.5577748 3:-0.41604036 4:-0.42135322 5:-0.61634497 6:-0.54656321 7:-0.54470391 8:-0.61301098 
-3.5064438936542168 1:1.2135324 2:-0.56587963 3:-0.56307198 4:-0.6757992 5:-0.71406781 6:-0.54687409 7:-0.55982196 8:-0.62915042 
-5 1:1.2135324 2:-0.12675114 3:0.50438924 4:-0.43981884 5:-0.19699061 6:-0.24302216 7:-0.10950882 8:-0.55465416 
-5 1:0.31595682 2:-0.5588597 3:-0.50019108 4:-0.58556422 5:-0.61919126 6:-0.54115394 7:-0.48505708 8:-0.58522201 
-0.95344312208638216 1:1.2135324 2:-0.55330757 3:-0.68205063 4:-0.56711607 5:-0.59736966 6:-0.52150646 7:-0.58025797 8:-0.27256586 
-5 1:-1.4791944 2:-0.56734743 3:-0.56762493 4:-0.6771267 5:-0.67991226 6:-0.54793107 7:-0.56964295 8:-0.61483121 
-5 1:0.31595682 2:-0.36983215 3:-0.46059779 4:0.14231262 5:-0.32317643 6:-0.33348759 7:-0.50089604 8:-0.3198071 
-1.6560342253309319 1:0.31595682 2:-0.45834707 3:-0.62183561 4:-0.59927589 5:-0.73019683 6:-0.4781701 7:-0.54697109 8:-0.46051147 
-5 1:-1.4791944 2:-0.4282252 3:-0.5012449 4:-0.55250194 5:-0.65903941 6:-0.40778738 7:-0.33551689 8:-0.46411554 
-5 1:-0.5816188 2:-0.43103317 3:-0.40268375 4:0.099984041 5:-0.44082335 6:-0.49085391 7:-0.49934975 8:-0.16938266 
-5 1:-1.4791944 2:-0.5665178 3:-0.53622261 4:-0.65696968 5:-0.68370732 6:-0.54799325 7:-0.56776233 8:-0.60405541 
-5 1:-1.4791944 2:-0.56556054 3:-0.57070744 4:-0.67595058 5:-0.68370732 6:-0.54805542 7:-0.56809666 8:-0.61318087 
-0.32128882537179909 1:1.2135324 2:-0.56990013 3:-0.80643727 4:-0.86513079 5:-0.81653449 6:-0.54830413 7:-0.59246107 8:-0.63798464 
-5 1:1.2135324 2:-0.41290899 3:-0.39395907 4:-0.64345015 5:-0.52810978 6:-0.49427357 7:-0.53336798 8:-0.4875602 
-1.1477061866170042 1:1.2135324 2:0.32992717 3:-0.33424782 4:-0.64381114 5:-0.66947583 6:-0.35033717 7:-0.34814835 8:-0.54566218 
-2.2180952077249816 1:1.2135324 2:-0.42911864 3:0.48735378 4:-0.28223077 5:-0.068907272 6:-0.36134224 7:1.3026551 8:-0.2210046 
-5 1:-1.4791944 2:-0.54673437 3:-0.51972903 4:-0.55050487 5:-0.69224621 6:-0.54071871 7:-0.54877857 8:-0.58881395 
-5 1:-1.4791944 2:-0.54596855 3:-0.55843188 4:-0.67053578 5:-0.71027275 6:-0.53369287 7:-0.55463982 8:-0.61492829 
