svm_type c_svc
kernel_type rbf
gamma 0.089999999999999997
nr_class 2
total_sv 156
rho 0.16484195252962319
label 1 0
probA -1.0367809499511733
probB -0.091532373631380143
nr_sv 79 77
SV
1 1:-0.063990132 2:-0.27008367 3:-0.087695724 4:0.08133659 5:-0.41471118 6:-0.46400301 7:-0.1027194 8:0.1926981 
1 1:1.8596313 2:0.035132629 3:1.1093657 4:0.43218596 5:0.45815104 6:-0.11783915 7:-0.2134402 8:0.1926981 
1 1:-0.063990132 2:-0.72618698 3:-0.52571015 4:-0.70393527 5:-0.9338345 6:-0.75472945 7:-0.59022141 8:-0.66729245 
1 1:-1.0258009 2:-0.78188145 3:-0.89054412 4:-0.87029306 5:-1.145159 6:-0.79779141 7:-0.8017477 8:-0.76719034 
0.85242084829380838 1:0.8978206 2:-0.36178979 3:-0.032142675 4:-0.39487245 5:0.3249247 6:-0.1553147 7:0.12533238 8:0.4815333 
1 1:0.8978206 2:-0.56435526 3:-0.57805822 4:-0.48002241 5:-0.59387763 6:-0.44119181 7:0.027831983 8:-0.2633575 
0.9353329088493102 1:-0.063990132 2:1.9956045 3:0.004714637 4:2.5987794 5:2.1946874 6:1.9564284 7:1.0606752 8:5.1419871 
1 1:-0.063990132 2:-0.33367776 3:-0.38202005 4:0.76017099 5:0.063066036 6:-0.7472033 7:-0.42992414 8:0.65961215 
1 1:-1.0258009 2:0.73374079 3:1.2696148 4:1.2852624 5:1.0691546 6:1.2766313 7:1.2358454 8:1.6042987 
1 1:-0.063990132 2:-0.76140425 3:-0.91084235 4:-0.70945424 5:-1.1084069 6:-0.77304048 7:-0.92899399 8:-0.88446178 
1 1:0.8978206 2:0.10914185 3:0.31666638 4:0.28238511 5:0.49030912 6:0.34812231 7:0.055925319 8:0.83551931 
0.82412163283398254 1:-0.063990132 2:2.5946511 3:1.2680124 4:3.5172952 5:1.620436 6:3.6169132 7:2.8652589 8:0.27956583 
1 1:-0.063990132 2:-0.76992171 3:-0.74792235 4:-0.98303791 5:-1.0532788 6:-0.74910424 7:-0.74390848 8:-0.93441072 
1 1:-1.0258009 2:-0.69864867 3:-0.85635763 4:-0.61326633 5:-0.55712554 6:-0.58073585 7:-0.6034418 8:0.031992792 
1 1:1.8596313 2:0.53007202 3:-0.10532313 4:1.4539855 5:0.76594982 6:0.015730516 7:0.41783359 8:2.5402985 
1 1:-1.0258009 2:-0.78302888 3:-0.9220598 4:-0.78750837 5:-1.135971 6:-0.78087698 7:-0.88272261 8:-0.86708823 
1 1:0.8978206 2:-0.56642946 3:-0.44398307 4:-0.39566087 5:-0.21716868 6:-0.31596297 7:-0.22666059 8:-0.31982152 
1 1:1.8596313 2:1.3536618 3:0.69432028 4:1.7685673 5:0.88539412 6:1.0926675 7:1.2341929 8:-0.15042944 
1 1:-1.0258009 2:0.17701673 3:-0.23459081 4:1.162268 5:0.29276662 6:-0.2351927 7:0.13855278 8:1.7498022 
1 1:-0.063990132 2:-0.42564866 3:-0.51556104 4:0.036396333 5:-0.18960461 6:-0.46679622 7:-0.082888811 8:0.69001586 
1 1:0.8978206 2:0.028159787 3:-0.026266871 4:0.63717661 5:0.55462528 6:0.37322239 7:0.52690183 8:0.081941738 
1 1:-1.0258009 2:-0.21858173 3:0.53674192 4:-0.46504232 5:-0.41011717 6:-0.62018991 7:-0.31920334 8:-0.34588184 
1 1:0.8978206 2:1.3639004 3:1.5591317 4:1.2458411 5:1.4550516 6:1.0843655 7:0.79626735 8:0.092800204 
1 1:-1.0258009 2:-0.63792316 3:-0.78104052 4:-0.1898818 5:-0.55712554 6:-0.62418575 7:-0.44810218 8:0.24047535 
1 1:-1.0258009 2:-0.59242316 3:-0.72922661 4:0.022204673 5:-0.39633513 6:-0.65479466 7:-0.36547472 8:0.41421081 
1 1:1.8596313 2:-0.1760827 3:0.39572264 4:0.067933355 5:0.63731749 6:0.4972486 7:0.20465475 8:0.19921318 
0.48813896974301374 1:1.8596313 2:1.1545827 3:1.3865967 4:-0.17411329 5:1.6020599 6:1.4119855 7:1.7877969 8:-0.58042472 
1 1:-0.063990132 2:-0.74260405 3:-0.81255619 4:-0.87502361 5:-0.97977461 6:-0.65630765 7:-0.60178925 8:-0.75850357 
1 1:-0.063990132 2:-0.5920701 3:-0.83712773 4:-0.63691909 5:-0.35498903 6:-0.19624296 7:-0.46793277 8:-0.63688874 
1 1:0.8978206 2:1.1055963 3:2.0238543 4:0.97777645 5:1.6939402 6:1.7063974 7:1.0705905 8:1.0896074 
1 1:-1.0258009 2:-0.79710696 3:-1.0187435 4:-1.0027486 5:-1.2554153 6:-0.80062341 7:-0.95212968 8:-0.94744088 
1 1:-0.063990132 2:-0.76330192 3:-0.84834517 4:-0.95465459 5:-0.96139857 6:-0.74735848 7:-0.66458612 8:-0.77370542 
1 1:-1.0258009 2:0.0020778271 3:0.060801851 4:0.13179583 5:-0.038002221 6:-0.031404874 7:0.046010024 8:0.92238704 
1 1:-1.0258009 2:-0.68704198 3:-0.56149914 4:-0.74572182 5:-0.55712554 6:-0.59823219 7:-0.36051707 8:-0.69552446 
1 1:0.8978206 2:-0.41748426 3:0.53513943 4:-0.18199755 5:-0.36417705 6:-0.48534002 7:-0.76208652 8:-0.19386331 
1 1:-1.0258009 2:-0.60919328 3:-0.50487776 4:-0.82141067 5:-0.45605728 6:-0.29260865 7:-0.37869511 8:-0.76936203 
1 1:-1.0258009 2:-0.78691249 3:-0.93274308 4:-0.83481391 5:-1.1819111 6:-0.7893342 7:-0.96865517 8:-0.86708823 
1 1:-1.0258009 2:-0.75059193 3:-0.79653127 4:-0.72206905 5:-0.90627043 6:-0.77560092 7:-0.93725674 8:-0.67597922 
1 1:-1.0258009 2:0.015361533 3:-0.02199356 4:0.95096998 5:0.56381331 6:0.25540331 7:-0.051490377 8:-0.083106952 
1 1:-0.063990132 2:0.048725258 3:0.28942402 4:0.3036726 5:0.086036094 6:0.091573882 7:0.30215515 8:-0.23295379 
1 1:-0.063990132 2:-0.3925056 3:0.31826887 4:-0.64716863 5:-0.47443333 6:-0.45166634 7:-0.55221278 8:-0.77370542 
0.27343697275960932 1:-0.063990132 2:2.5745711 3:1.0751792 4:2.8195386 5:1.6663761 6:2.1233226 7:1.3515239 8:3.2135235 
1 1:-1.0258009 2:-0.72309775 3:-0.58927566 4:-0.76622088 5:-0.88789438 6:-0.69762386 7:-0.44149198 8:-0.7150697 
1 1:-1.0258009 2:3.3941007 3:3.4917368 4:2.5546276 5:2.3830419 6:1.0577524 7:2.7908942 8:1.9517697 
1 1:-0.063990132 2:-0.57997796 3:-0.38789586 4:-0.88054259 5:-0.42849321 6:-0.75895806 7:-0.5092465 8:-0.95395596 
1 1:-0.063990132 2:-0.69176409 3:-0.57431907 4:-0.73153016 5:-0.61225368 6:-0.51680241 7:-0.13907548 8:-0.41320433 
0.77063465895162864 1:-1.0258009 2:1.0012243 3:0.83640789 4:-0.63455382 5:0.80270191 6:0.69851478 7:1.8191953 8:-0.42189111 
1 1:0.8978206 2:-0.63024421 3:-0.40392078 4:-0.60143994 5:-0.70413391 6:-0.62154772 7:-0.0085240984 8:-0.81713928 
1 1:-0.063990132 2:-0.7089314 3:-0.49526281 4:-0.72206905 5:-0.84654827 6:-0.67209704 7:-0.43322924 8:-0.6173435 
1 1:0.8978206 2:0.83895127 3:1.7097659 4:-0.20486189 5:0.53624924 6:0.584226 7:0.21457004 8:-0.69986785 
0.18719825810965843 1:-1.0258009 2:0.17511905 3:0.49721379 4:0.63875346 5:0.89458215 6:0.45876439 7:0.29885005 8:0.1253756 
1 1:0.8978206 2:-0.19249977 3:-0.57805822 4:0.11602731 5:0.26060854 6:0.47924792 7:-0.26466922 8:1.4544519 
1 1:0.8978206 2:-0.35366951 3:-0.69450596 4:0.83664827 5:-0.28607885 6:-0.24652071 7:-0.19526216 8:0.48587669 
1 1:1.8596313 2:0.45495951 3:0.34230625 4:0.99669866 5:1.4550516 6:1.1399193 7:0.4955034 8:0.71173279 
1 1:-1.0258009 2:-0.77587951 3:-0.80828288 4:-0.89552268 5:-1.0992189 6:-0.80384336 7:-0.96535007 8:-0.77370542 
1 1:-0.063990132 2:0.90687028 3:0.18419372 4:2.6003562 5:0.94052226 6:0.39428783 7:-0.38695786 8:1.4718254 
1 1:0.8978206 2:-0.54078882 3:-0.32700117 4:-0.17411329 5:-0.61225368 6:-0.63919925 7:-0.78356966 8:-0.49790037 
1 1:-0.063990132 2:1.2571453 3:1.0447318 4:1.7354534 5:1.1426588 6:-0.14130986 7:1.1267772 8:2.9681221 
1 1:-1.0258009 2:-0.28694206 3:-0.17155946 4:0.37226562 5:-0.024220186 6:-0.70949499 7:-0.35060178 8:0.5488558 
1 1:-0.063990132 2:-0.28694206 3:-0.1176089 4:0.13337268 5:0.35708278 6:-0.369965 7:0.21126494 8:1.4153614 
0.54970548623518278 1:-1.0258009 2:-0.49475924 3:-0.12348471 4:-0.17805542 5:-0.21257466 6:-0.29280262 7:0.0955865 8:0.50759362 
1 1:-1.0258009 2:-0.52397456 3:-0.44932471 4:-0.061368436 5:-0.42849321 6:-0.62868592 7:-0.40017825 8:-0.35022523 
1 1:-1.0258009 2:-0.74657592 3:-0.96960039 4:-0.54388488 5:-0.75007403 6:-0.74894906 7:-1.0182316 8:-0.27855935 
1 1:-1.0258009 2:-0.54378979 3:-0.76074229 4:-0.42325577 5:-0.21716868 6:0.013053692 7:-0.46462767 8:-0.28073104 
1 1:-0.063990132 2:-0.22599589 3:-0.14164628 4:0.23350272 5:-0.19879263 6:-0.18592361 7:-0.10437195 8:0.092800204 
0.53795707335581489 1:0.8978206 2:3.2070255 3:1.5837032 4:1.6242854 5:2.006333 6:1.4562501 7:1.288727 8:2.1841408 
1 1:0.8978206 2:-0.56700318 3:-0.51449271 4:-0.1559795 5:-0.31364292 6:-0.35347731 7:-0.15725352 8:0.2882526 
1 1:-1.0258009 2:-0.096380468 3:0.10513746 4:0.76805525 5:0.23304447 6:-0.27670288 7:0.050967672 8:0.18401132 
1 1:-1.0258009 2:-0.78836885 3:-0.93220891 4:-0.88645578 5:-1.145159 6:-0.7985673 7:-0.94593262 8:-0.74927387 
1 1:-0.063990132 2:-0.38054585 3:-0.2228392 4:-0.0061786471 5:-0.42849321 6:-0.44774809 7:-0.62327239 8:0.10800206 
1 1:-0.063990132 2:-0.77905701 3:-0.90042616 4:-0.7480871 5:-1.1061099 6:-0.7864634 7:-0.92321007 8:-0.58531103 
1 1:1.8596313 2:-0.15970976 3:1.1553038 4:-0.22851465 5:0.38924086 6:-0.26498692 7:0.30215515 8:-0.20472178 
0.50062028078294207 1:-0.063990132 2:1.7286065 3:1.5537901 4:-0.42877475 5:2.015521 6:2.2163131 7:2.4207232 8:-0.34153845 
1 1:1.8596313 2:-0.39047553 3:-0.49152366 4:-0.013274477 5:-0.25392077 6:0.047619645 7:-0.29606765 8:-0.39800248 
1 1:-0.063990132 2:-0.7898252 3:-0.97601035 4:-0.97909578 5:-1.1543471 6:-0.77525177 7:-0.80340025 8:-0.98653136 
1 1:0.8978206 2:-0.49378833 3:-0.50701442 4:-0.46031177 5:0.21466842 6:0.066861747 7:-0.17047392 8:-0.46098158 
1 1:0.8978206 2:0.77963798 3:-0.40392078 4:2.1880097 5:0.85783005 6:0.68714797 7:-0.67284887 8:2.7314076 
1 1:-1.0258009 2:-0.75037127 3:-0.70091593 4:-0.87738889 5:-0.97977461 6:-0.7322674 7:-0.87776496 8:-0.7476451 
1 1:-1.0258009 2:-0.4959508 3:-0.11974556 4:-0.1157698 5:-0.45605728 6:-0.67403676 7:-0.30267785 8:-0.28941781 
-1 1:1.8596313 2:0.63775388 3:-0.33074032 4:2.6382007 5:0.8762061 6:0.07012049 7:-0.46793277 8:1.4305633 
-1 1:0.8978206 2:-0.68351142 3:-0.50527838 4:-0.89177765 5:-0.78682612 6:-0.71019329 7:-0.43777375 8:-0.95341304 
-1 1:1.8596313 2:1.4552976 3:2.4773595 4:0.74203721 5:1.5836839 6:1.2023785 7:0.11045944 8:0.93758889 
-1 1:-0.063990132 2:-0.64193916 3:-0.94022137 4:0.040338461 5:-0.71332194 6:-0.57782625 7:-0.94717203 8:-0.25467072 
-1 1:-0.063990132 2:-0.42110308 3:-0.011310281 4:0.16885183 5:-0.35039501 6:-0.33749395 7:0.13029003 8:0.17098116 
-1 1:0.8978206 2:-0.51148523 3:-0.73510242 4:-0.084232777 5:-0.16204054 6:-0.42423859 7:-0.64640808 8:-0.0027543005 
-1 1:-0.063990132 2:0.024805762 3:0.3519212 4:-0.61642003 5:-0.051784256 6:-0.18724262 7:0.7913097 8:-0.56522286 
-1 1:-1.0258009 2:-0.79538582 3:-0.94235803 4:-0.91050276 5:-1.2094752 6:-0.79724829 7:-0.91081595 8:-0.92572395 
-1 1:-1.0258009 2:-0.74370735 3:-0.72281665 4:-0.97594208 5:-1.0440908 6:-0.77637681 7:-0.59022141 8:-0.89097686 
-1 1:1.8596313 2:-0.64167437 3:-0.6020956 4:-0.81352642 5:-0.5019974 6:-0.44251083 7:-0.22500804 8:-0.39583079 
-1 1:-0.063990132 2:-0.68505604 3:-0.5753874 4:-0.89236897 5:-1.0394968 6:-0.76760924 7:-0.58691631 8:-0.78890727 
-1 1:1.8596313 2:-0.33681112 3:-0.1058573 4:-0.0038133705 5:-0.26310879 6:-0.38668546 7:0.10550179 8:0.63789522 
-1 1:1.8596313 2:0.31188385 3:0.049584408 4:0.66871363 5:0.84864203 6:1.5356238 7:1.021014 8:2.1450504 
-1 1:0.8978206 2:-0.44471365 3:-0.29281468 4:0.34782443 5:-0.37336507 6:-0.70437411 7:-0.54395003 8:-0.046188166 
-1 1:-0.063990132 2:-0.19814866 3:-0.3072371 4:1.1275773 5:-0.0058441395 6:-0.53158314 7:-0.42992414 8:0.012447553 
-1 1:0.8978206 2:-0.76136012 3:-0.83819606 4:-1.0264013 5:-0.99815066 6:-0.70262835 7:-0.64475553 8:-0.94744088 
-1 1:-1.0258009 2:1.6459033 3:1.6082748 4:1.3499133 5:1.3999234 6:-0.23278744 7:0.5930038 8:1.7975794 
-1 1:0.8978206 2:0.14718355 3:1.1221856 4:0.54887295 5:0.94052226 6:0.4123661 7:0.56325792 8:0.64006691 
-1 1:-1.0258009 2:-0.44872965 3:-0.042692413 4:-0.2547298 5:-0.14136748 6:-0.27891417 7:-0.059339986 8:-0.58856857 
-1 1:-1.0258009 2:-0.60367679 3:-0.59087815 4:-0.14415312 5:-0.63981775 6:-0.65976037 7:-0.49767865 8:-0.074420179 
-1 1:1.8596313 2:0.62499976 3:1.693741 4:1.395642 5:0.49949714 6:1.1110561 7:0.75825872 8:0.53148225 
-1 1:-1.0258009 2:-0.7898252 3:-1.0417125 4:-0.78435467 5:-1.145159 6:-0.80120533 7:-0.97196027 8:-0.7476451 
-1 1:-1.0258009 2:-0.30861083 3:-0.44611973 4:1.0108903 5:-0.17122856 6:-0.35824904 7:-0.52246689 8:0.064568192 
-0.030726798850592242 1:0.8978206 2:0.3422466 3:-0.32272786 4:2.1974708 5:0.91295819 6:-0.72602147 7:-0.42661904 8:1.4370784 
-1 1:-1.0258009 2:-0.77874809 3:-0.82751278 4:-0.91129119 5:-1.0900309 6:-0.77629922 7:-0.9025532 8:-0.71724139 
-1 1:-0.063990132 2:0.02083389 3:0.16442965 4:-0.45006224 5:-0.042596233 6:-0.61371122 7:-0.31755079 8:-0.45012312 
-1 1:-0.063990132 2:0.06170004 3:-0.78531383 4:1.0274473 5:0.65569354 6:0.30498276 7:-0.46628022 8:2.1255051 
-1 1:-0.063990132 2:-0.62834653 3:-0.19506268 4:-0.3657007 5:-0.58468961 6:-0.72059024 7:-0.69267946 8:-0.017956154 
-1 1:-0.063990132 2:-0.77084848 3:-0.66659589 4:-0.98717715 5:-1.0027447 6:-0.7743207 7:-0.66128102 8:-0.97187243 
-1 1:-1.0258009 2:-0.39991976 3:-0.24741074 4:0.24927123 5:-0.38714711 6:-0.62915146 7:-0.62823004 8:-0.196035 
-1 1:1.8596313 2:1.7429935 3:0.039435293 4:4.2221476 5:1.5239617 6:0.94742067 7:-0.046532729 8:0.69218755 
-1 1:-0.063990132 2:-0.65231016 3:-0.78905298 4:-0.19855448 5:-0.37336507 6:-0.61378881 7:-0.67284887 8:0.46415976 
-1 1:-0.063990132 2:-0.69330871 3:-0.9279356 4:-0.15913321 5:-0.86951833 6:-0.7558157 7:-0.88107006 8:-0.41320433 
-1 1:-0.063990132 2:1.9915885 3:2.7123916 4:0.54177712 5:1.5377438 6:1.3379267 7:1.776229 8:0.96147752 
-1 1:1.8596313 2:-0.40733392 3:0.018068735 4:-0.1835744 5:-0.52037345 6:-0.50136218 7:-0.24153353 8:-0.20906516 
-1 1:-1.0258009 2:-0.79754828 3:-1.0267559 4:-0.98303791 5:-1.1910991 6:-0.79880007 7:-0.96700262 8:-0.81496759 
-1 1:1.8596313 2:0.38478977 3:0.55490349 4:0.29499992 5:0.78432587 6:0.77816001 7:1.2490658 8:-0.02881462 
-1 1:0.8978206 2:0.053712164 3:-0.18651605 4:0.7727858 5:0.82107796 6:0.5492721 7:0.43105398 8:1.7476305 
-1 1:-1.0258009 2:-0.71696341 3:-0.65818281 4:-0.73074173 5:-1.0900309 6:-0.78064421 7:-0.86784967 8:-0.64557551 
-1 1:-0.063990132 2:-0.24576699 3:-0.79546294 4:0.81378393 5:0.20088639 6:0.026437815 7:-0.6034418 8:1.3132918 
-1 1:-0.063990132 2:-0.17224322 3:0.16429611 4:0.058669355 5:0.14116423 6:-0.068764036 7:0.61531322 8:-0.27584473 
-1 1:-1.0258009 2:-0.79388533 3:-1.0214143 4:-0.84427501 5:-1.1819111 6:-0.8021752 7:-0.96039242 8:-0.73461494 
-1 1:0.8978206 2:-0.56770929 3:-0.58980983 4:0.20433098 5:-0.32742496 6:-0.64420375 7:-0.44975473 8:0.26436397 
-1 1:-0.063990132 2:-0.11023789 3:0.29316316 4:-0.82141067 5:0.49949714 6:0.23317403 7:0.55499517 8:-0.67815091 
-1 1:-1.0258009 2:-0.79057544 3:-1.0502591 4:-0.73153016 5:-1.1612381 6:-0.80155448 7:-0.99840105 8:-0.71724139 
-1 1:0.8978206 2:0.82297552 3:1.6269705 4:1.6613414 5:0.444369 6:0.07981913 7:-0.85628183 8:0.22961688 
-0.8934302083915735 1:-0.063990132 2:-0.76868601 3:-0.79653127 4:-0.89552268 5:-1.122189 6:-0.80035185 7:-0.96204497 8:-0.81931098 
-1 1:-0.063990132 2:-0.75875633 3:-0.78851881 4:-0.6865899 5:-1.0211207 6:-0.78871348 7:-0.67450142 8:-0.70638293 
-1 1:-0.063990132 2:0.31514961 3:0.25470336 4:0.6245618 5:0.22385644 6:0.008980263 7:-0.408441 8:1.0548603 
-1 1:-1.0258009 2:-0.77870396 3:-0.85475514 4:-1.0303434 5:-1.0992189 6:-0.79305847 7:-1.0050113 8:-0.96698612 
-1 1:-1.0258009 2:-0.79194353 3:-0.81202203 4:-1.0697647 5:-1.0992189 6:-0.78727808 7:-0.72242534 8:-0.98001628 
-1 1:-1.0258009 2:0.87928784 3:0.67455622 4:0.94466258 5:0.41680493 6:0.079857924 7:0.86897951 8:-0.35674031 
-1 1:-0.063990132 2:-0.12780239 3:-1.0176751 4:0.96358479 5:0.095224117 6:-0.13766317 7:-0.98022301 8:1.5000575 
-1 1:-1.0258009 2:-0.21562489 3:-0.083422413 4:0.32574851 5:-0.52956147 6:-0.4348683 7:0.23935828 8:-0.68032261 
-1 1:-1.0258009 2:2.4129159 3:0.97529051 4:2.7698677 5:1.7215042 6:2.0470137 7:0.90037795 8:2.7466094 
-1 1:0.8978206 2:0.20000945 3:1.2786956 4:-0.6771288 5:0.70163366 6:0.48235149 7:2.3860197 8:-0.77370542 
-1 1:-0.063990132 2:-0.66709435 3:-0.53265429 4:-0.66057186 5:-0.78682612 6:-0.66177768 7:-0.52411944 8:-0.54567762 
-1 1:-1.0258009 2:0.25914621 3:-0.016651921 4:1.1559606 5:0.88539412 6:-0.17083252 7:0.32694338 8:2.006062 
-1 1:-1.0258009 2:-0.32674905 3:-0.62613297 4:0.41878273 5:0.22385644 6:-0.23251587 7:-0.64640808 8:1.3740992 
-0.6500156069766293 1:1.8596313 2:-0.69789843 3:-0.55829415 4:-0.57069135 5:-0.69494589 6:-0.75888047 7:-0.86123947 8:-0.21123686 
-1 1:-0.063990132 2:0.29502546 3:-0.13683881 4:1.5525387 5:0.38464685 6:0.046921343 7:-0.076278615 8:1.5630366 
-1 1:-0.063990132 2:-0.50535089 3:0.7295751 4:-0.68816675 5:-0.033408209 6:-0.49558179 7:-0.52907709 8:-0.64557551 
-1 1:1.8596313 2:0.7936278 3:0.61099071 4:0.076606036 5:0.59137738 6:0.11834213 7:0.62935988 8:-0.4892136 
-1 1:-0.063990132 2:-0.68042219 3:-0.60316393 4:-0.35623959 5:-0.82357822 6:-0.75628123 7:-0.83314614 8:-0.79976574 
-1 1:-1.0258009 2:-0.7909285 3:-0.93701639 4:-0.8994648 5:-1.2002872 6:-0.80442528 7:-0.98022301 8:-0.84971468 
-1 1:-1.0258009 2:-0.7224799 3:-0.79920209 4:-0.62036216 5:-0.86951833 6:-0.72842674 7:-0.65467083 8:-0.38931571 
-1 1:-1.0258009 2:0.83784797 3:1.7135051 4:1.8852543 5:0.79351389 6:0.74910288 7:0.95160697 8:-0.024471233 
-1 1:1.8596313 2:-0.35322819 3:-0.32219369 4:0.30288417 5:0.090630106 6:-0.018408697 7:-0.30928805 8:1.0266283 
-0.34539447569615594 1:0.8978206 2:-0.094968247 3:-0.96586124 4:1.0905213 5:0.13197621 6:-0.014917186 7:-0.85958692 8:1.4262199 
-1 1:-0.063990132 2:-0.62997941 3:-0.84113396 4:0.16215021 5:-0.63981775 6:-0.62639704 7:-0.73234064 8:-0.23512548 
-1 1:-1.0258009 2:-0.79962248 3:-1.0112652 4:-0.96175042 5:-1.2462273 6:-0.80415372 7:-0.93890928 8:-0.83451283 
-1 1:0.8978206 2:-0.63624615 3:-0.3798834 4:-0.55492284 5:-0.71332194 6:-0.6423804 7:-0.16386372 8:-0.41103264 
-1 1:-1.0258009 2:-0.32586641 3:0.052789391 4:-0.16228691 5:-0.21716868 6:-0.25140882 7:0.088976303 8:-0.39583079 
-1 1:0.8978206 2:-0.68452646 3:-0.71747501 4:-0.56753764 5:-0.67656984 6:-0.58698177 7:-0.41009355 8:-0.33067999 
-1 1:-1.0258009 2:-0.10392703 3:0.18205706 4:0.64663771 5:-0.12528844 6:-0.47199469 7:-0.2035249 8:0.73127803 
-1 1:-1.0258009 2:-0.75959484 3:-0.79279212 4:-0.80643059 5:-1.0532788 6:-0.79232138 7:-0.63649279 8:-0.67597922 
-1 1:-1.0258009 2:-0.79618019 3:-0.98348865 4:-0.93179025 5:-1.1819111 6:-0.8021364 7:-0.94551948 8:-0.90617871 
