svm_type c_svc
kernel_type rbf
gamma 3.0000000000000001e-05
nr_class 2
total_sv 103
rho 505.48931372449442
label 1 0
probA -0.885838436776061
probB -0.085619892639962933
nr_sv 51 52
SV
1000000 1:0.69208973 2:-0.15408136 3:-0.017404417 4:0.73997679 5:0.33260048 6:-0.4548476 7:-0.083924966 8:0.58107015 
1000000 1:-0.21621497 2:-0.51229053 3:-0.59717682 4:0.15546252 5:-0.61832265 6:-0.55541976 7:-0.48242496 8:-0.43059341 
1000000 1:-0.21621497 2:-0.31411987 3:0.079978798 4:-0.28005559 5:0.33765859 6:-0.060944799 7:-0.506809 8:-0.15636114 
854457.59853646427 1:-1.1245197 2:-0.60318619 3:-0.79867837 4:-0.8497885 5:-0.14791919 6:-0.48553754 7:-0.32878846 8:-0.43715229 
1000000 1:-1.1245197 2:-0.6020856 3:-0.54119804 4:-0.63740986 5:-0.85605343 6:-0.60352203 7:-0.58797545 8:-0.60520154 
1000000 1:1.6003944 2:-0.22626701 3:0.40878516 4:-0.26846701 5:-0.21873261 6:-0.08802416 7:0.055217522 8:-0.30668368 
1000000 1:0.69208973 2:-0.13401181 3:-0.052073725 4:1.0060413 5:0.29719377 6:-0.28317027 7:-0.37516929 8:0.3477866 
1000000 1:-1.1245197 2:-0.58842535 3:-0.45993495 4:-0.70126535 5:-0.82570482 6:-0.5721915 7:-0.65618255 8:-0.74276084 
1000000 1:-0.21621497 2:-0.60875387 3:-0.64211443 4:-0.74312617 5:-0.80547242 6:-0.62192434 7:-0.6479977 8:-0.56194836 
1000000 1:-1.1245197 2:-0.4900198 3:-0.75009718 4:0.32846361 5:-0.29460414 6:-0.39154595 7:-0.61798657 8:0.3250964 
1000000 1:-1.1245197 2:-0.60532262 3:-0.6829668 4:-0.68896726 5:-0.89272467 6:-0.59298146 7:-0.53153407 8:-0.60520154 
1000000 1:0.69208973 2:0.41964892 3:0.58765229 4:0.86390375 5:0.35789099 6:0.036657373 7:-0.22715988 8:1.0362922 
1000000 1:0.69208973 2:-0.26200377 3:0.42600941 4:0.25656705 5:-0.087221964 6:-0.10799883 7:0.44740836 8:-0.069854781 
1000000 1:0.69208973 2:-0.54479026 3:-0.32501172 4:-0.59318402 5:-0.44634719 6:-0.51733395 7:-0.74758007 8:-0.76332383 
1000000 1:0.69208973 2:-0.41822259 3:-0.27201405 4:-0.16688947 5:-0.50198631 6:-0.52554511 7:-0.023732198 8:-0.19234637 
1000000 1:-1.1245197 2:-0.35697808 3:0.14158859 4:-0.31765939 5:-0.41094048 6:-0.42701118 7:-0.72780001 8:-0.42155278 
1000000 1:-0.21621497 2:0.16767891 3:-0.61230324 4:2.2814957 5:0.71195812 6:-0.019306641 7:-0.54977947 8:-0.18968737 
1000000 1:1.6003944 2:-0.27242699 3:0.39840645 4:0.099766342 5:0.12521831 6:-0.14538582 7:-0.055960054 8:-0.023765325 
1000000 1:0.69208973 2:0.66022461 3:0.4754739 4:-0.59909656 5:0.15556692 6:-0.35270308 7:0.12274255 8:-0.67894467 
1000000 1:0.69208973 2:-0.46846121 3:-0.50167061 4:0.15605378 5:-0.37047566 6:-0.47668579 7:-0.36220994 8:-0.1528158 
863641.59734970913 1:1.6003944 2:2.076164 3:0.61039713 4:2.1483452 5:0.61585418 6:0.87099288 7:0.74956582 8:2.3700501 
1000000 1:-0.21621497 2:-0.58408774 3:-0.51227014 4:-0.72278702 5:-0.78018191 6:-0.56345622 7:-0.64117699 8:-0.76899638 
1000000 1:-1.1245197 2:-0.63348474 3:-0.7942619 4:-0.87568545 5:-1.035616 6:-0.63048492 7:-0.74877369 8:-0.83866236 
683795.55901543447 1:-1.1245197 2:-0.46535367 3:-0.52331132 4:-0.5392616 5:-0.38059187 6:-0.36854305 7:-0.056642125 8:-0.051418999 
1000000 1:-1.1245197 2:-0.45221135 3:-0.81822126 4:0.67257377 5:-0.40082427 6:-0.40313475 7:-0.75729958 8:-0.12392126 
1000000 1:1.6003944 2:0.65938298 3:-0.14084482 4:1.4705309 5:0.72207432 6:0.68749381 7:0.036801605 8:1.9049011 
1000000 1:-1.1245197 2:-0.41064795 3:-0.8662504 4:0.72909771 5:-0.23896502 6:-0.35194602 7:-0.73257451 8:0.83988017 
1000000 1:-1.1245197 2:-0.60260352 3:-0.57034675 4:-0.75140374 5:-0.88134394 6:-0.60526908 7:-0.66982397 8:-0.77679613 
1000000 1:-1.1245197 2:-0.5574794 3:-0.62908584 4:-0.53240305 5:-0.58797404 6:-0.51127749 7:-0.40995491 8:-0.0074567487 
1000000 1:-1.1245197 2:-0.63516799 3:-0.87684994 4:-0.79397407 5:-0.96733167 6:-0.62902904 7:-0.73325658 8:-0.83706696 
1000000 1:-1.1245197 2:-0.54731514 3:-0.23022318 4:-0.83766778 5:-0.81305957 6:-0.47027992 7:-0.60281049 8:-0.71829797 
1000000 1:-0.21621497 2:-0.21577905 3:0.23830933 4:-0.18805638 5:0.024056275 6:-0.25347032 7:-0.12962372 8:-0.66901771 
1000000 1:1.6003944 2:0.13738036 3:0.17139978 4:0.5864871 5:0.69172571 6:0.53386939 7:0.40511996 8:0.33573243 
1000000 1:-1.1245197 2:-0.40404442 3:-0.42239493 4:0.0167542 5:-0.31989465 6:-0.24514269 7:-0.48020823 8:-0.11594424 
1000000 1:-0.21621497 2:-0.60338041 3:-0.47936742 4:-0.70836041 5:-0.84593723 6:-0.61085966 7:-0.54500498 8:-0.70092579 
1000000 1:-1.1245197 2:-0.62856446 3:-0.74915868 4:-0.82619744 5:-0.9736543 6:-0.63176609 7:-0.7497968 8:-0.78051874 
1000000 1:-1.1245197 2:-0.63944086 3:-0.88281217 4:-0.9011094 5:-1.0280289 6:-0.62926198 7:-0.80828439 8:-0.7526878 
1000000 1:-1.1245197 2:-0.5792322 3:-0.84455448 4:-0.14944746 5:-0.75362687 6:-0.57347267 7:-0.78543501 8:-0.38414942 
1000000 1:-1.1245197 2:-0.21869238 3:0.27364111 4:-0.71214444 5:-0.71948469 6:-0.59921262 7:-0.52863527 8:-0.67327212 
1000000 1:1.6003944 2:0.28401758 3:0.86213605 4:1.0746269 5:0.17579933 6:-0.23495153 7:-0.22033917 8:-0.018801846 
1000000 1:-1.1245197 2:-0.63477955 3:-0.8101612 4:-0.81005619 5:-1.033087 6:-0.62809727 7:-0.70051717 8:-0.81934024 
224224.33392522848 1:-0.21621497 2:3.7642725 3:3.0273116 4:3.7695652 5:2.5126423 6:2.9883078 7:0.95759748 8:0.98453016 
1000000 1:-0.21621497 2:-0.55482504 3:-0.74545988 4:-0.83110485 5:-0.45140529 6:-0.37250304 7:-0.60025273 8:-0.6647633 
1000000 1:-1.1245197 2:-0.63063616 3:-0.77770013 4:-0.98908808 5:-1.0103255 6:-0.61767318 7:-0.73189243 8:-0.76952818 
1000000 1:0.69208973 2:-0.5183114 3:-0.50376843 4:-0.16700772 5:-0.71442658 6:-0.47627814 7:-0.257171 8:-0.052837136 
1000000 1:-0.21621497 2:-0.53520867 3:-0.73618529 4:-0.43047076 5:-0.16815159 6:-0.37343481 7:-0.32674225 8:0.51158143 
1000000 1:-0.21621497 2:-0.61490422 3:-0.8624964 4:-0.88786529 5:-0.99768028 6:-0.56526151 7:-0.737349 8:-0.63001894 
1000000 1:-1.1245197 2:-0.38222687 3:0.132314 4:-0.57024334 5:-0.10745437 6:-0.39090536 7:-0.54295876 8:-0.34142804 
1000000 1:-1.1245197 2:-0.63859924 3:-0.88987853 4:-0.86185009 5:-0.96733167 6:-0.62629198 7:-0.77145255 8:-0.74701525 
810736.34438980441 1:0.69208973 2:-0.24018622 3:-0.32589501 4:-0.046864792 5:0.83335256 6:0.27932339 7:0.1193322 8:0.045014324 
1000000 1:1.6003944 2:1.9272609 3:2.2192076 4:0.47840577 5:0.74989388 6:-0.28747967 7:-0.77486291 8:0.13027982 
-1000000 1:-1.1245197 2:-0.47506474 3:-0.88060394 4:-0.29613772 5:-0.22884881 6:-0.31019139 7:-0.76940634 8:0.28538856 
-1000000 1:-0.21621497 2:-0.59684162 3:-0.79691179 4:-0.27083202 5:-0.61832265 6:-0.57516149 7:-0.71825101 8:-0.30668368 
-1000000 1:0.69208973 2:-0.5111252 3:-0.2117292 4:-0.25616891 5:-0.13780298 6:-0.47790873 7:-0.5279532 8:-0.46480597 
-1000000 1:1.6003944 2:-0.5418122 3:-0.38728398 4:-0.49669127 5:-0.50704441 6:-0.4129765 7:0.015657403 8:-0.4258072 
-1000000 1:-1.1245197 2:-0.62332048 3:-0.60545771 4:-0.73035508 5:-0.87628584 6:-0.61155848 7:-0.622079 8:-0.75623314 
-287618.78799574298 1:0.69208973 2:-0.34791441 3:0.23715001 4:-0.14530868 5:-0.23390692 6:-0.40645416 7:-0.48600583 8:0.21324084 
-1000000 1:1.6003944 2:-0.13058056 3:0.94560738 4:0.5344567 5:0.35789099 6:-0.20717335 7:0.16366681 8:-0.052128068 
-1000000 1:1.6003944 2:0.93304106 3:1.7205879 4:-0.55960076 5:0.45652398 6:-0.16972813 7:-0.36459719 8:-0.56159382 
-1000000 1:-1.1245197 2:-0.21047033 3:-0.71697364 4:1.9125529 5:0.14545072 6:-0.39282712 7:-0.69437853 8:-0.56053022 
-1000000 1:1.6003944 2:3.1577835 3:2.3761028 4:1.4672199 5:1.7589852 6:1.9039686 7:0.24619741 8:1.5914928 
-1000000 1:-1.1245197 2:-0.49351579 3:-0.72757317 4:-0.32333543 5:-0.72960089 6:-0.55367271 7:-0.59547823 8:-0.29250231 
-879593.44397577259 1:1.6003944 2:0.63445789 3:0.25663769 4:-0.79988661 5:-0.44634719 6:-0.26010913 7:0.20527315 8:-0.62221918 
-1000000 1:0.69208973 2:-0.32868648 3:-0.66375514 4:-0.0085514958 5:-0.35024326 6:-0.30436788 7:-0.42632462 8:0.33785964 
-1000000 1:-0.21621497 2:-0.45972125 3:-0.13289517 4:0.031180811 5:-0.4615215 6:-0.5619421 7:-0.56751332 8:-0.62080105 
-1000000 1:-0.21621497 2:-0.43265972 3:0.283799 4:-0.09061763 5:-0.29460414 6:-0.52269159 7:-0.25376065 8:-0.37971774 
-236466.02949189488 1:-0.21621497 2:3.0612554 3:-0.73243129 4:3.7189538 5:2.0776456 6:3.2002256 7:-0.71552273 8:4.9489324 
-1000000 1:-1.1245197 2:0.12495018 3:-0.050307136 4:-0.52554449 5:-0.58291594 6:-0.21852921 7:0.21618628 8:-0.57754787 
-1000000 1:-1.1245197 2:-0.51882932 3:-0.52176556 4:-0.43118026 5:-0.57279973 6:-0.50038751 7:-0.42564255 8:-0.41375303 
-1000000 1:-1.1245197 2:-0.61477474 3:-0.61826548 4:-0.73886914 5:-0.93698306 6:-0.61976964 7:-0.76940634 8:-0.68603535 
-1000000 1:-0.21621497 2:-0.58622418 3:-0.40759975 4:-0.67548665 5:-0.78524001 6:-0.59210793 7:-0.48157237 8:-0.74488804 
-1000000 1:0.69208973 2:-0.41336705 3:-0.52353215 4:0.90174404 5:0.13533451 6:-0.41268532 7:-0.44064811 8:-0.3151925 
-1000000 1:-1.1245197 2:-0.55981005 3:-0.80165949 4:-0.48238291 5:-0.91675066 6:-0.61744024 7:-0.80350989 8:-0.6296644 
-1000000 1:-1.1245197 2:-0.62196093 3:-0.8700044 4:-0.75069423 5:-0.89651825 6:-0.61021907 7:-0.77008841 8:-0.53925816 
-1000000 1:-0.21621497 2:-0.51345586 3:-0.56791769 4:-0.79231855 5:-0.7498333 6:-0.48245107 7:-0.23193438 8:-0.70021673 
-1000000 1:0.69208973 2:-0.42281916 3:-0.012104651 4:0.14777621 5:-0.30977844 6:-0.37529833 7:-0.045046918 8:-0.14997953 
-1000000 1:-1.1245197 2:-0.62571588 3:-0.83776415 4:-0.78049346 5:-1.0179127 6:-0.62867963 7:-0.77690912 8:-0.69312604 
-1000000 1:-1.1245197 2:-0.59082075 3:-0.76224248 4:-0.80414365 5:-1.0381451 6:-0.63491079 7:-0.76531391 8:-0.83848509 
-1000000 1:-0.21621497 2:-0.20904604 3:0.51146815 4:0.26626363 5:-0.13274488 6:-0.45548818 7:-0.15486035 8:-0.57400252 
-1000000 1:-1.1245197 2:-0.6358154 3:-0.883033 4:-0.75093074 5:-0.85605343 6:-0.63444491 7:-0.79123261 8:-0.75906942 
-1000000 1:-1.1245197 2:-0.61458051 3:-0.8512344 4:-0.61234066 5:-0.87628584 6:-0.60823908 7:-0.75371871 8:-0.49955032 
-1000000 1:-0.21621497 2:0.30136803 3:1.1564939 4:-0.062237411 5:0.31742618 6:0.034327965 7:0.16298474 8:-0.35277313 
-1000000 1:-1.1245197 2:-0.60111449 3:-0.59463735 4:-0.73768663 5:-0.7548914 6:-0.60072674 7:-0.81578717 8:-0.64774565 
-1000000 1:0.69208973 2:-0.0471948 3:-0.85587169 4:0.6375715 5:0.034172479 6:-0.35811895 7:-0.70392752 8:0.8866787 
-1000000 1:-1.1245197 2:-0.54504922 3:-0.64211443 4:-0.40445556 5:-0.66384557 6:-0.62891257 7:-0.70733788 8:-0.25421261 
-1000000 1:1.6003944 2:-0.082219409 3:-0.72492329 4:2.2578455 5:0.61585418 6:0.32410625 7:-0.7114303 8:2.0552237 
-1000000 1:-0.21621497 2:-0.58654788 3:-0.50216746 4:-0.61393705 5:-0.85352438 6:-0.62285611 7:-0.60485671 8:-0.56744364 
-1000000 1:-0.21621497 2:-0.60998394 3:-0.96473773 4:-0.59200151 5:-0.82570482 6:-0.61732376 7:-0.8198796 8:-0.29746579 
-1000000 1:-1.1245197 2:-0.62953557 3:-0.89341171 4:-0.84434896 5:-0.95721547 6:-0.61679965 7:-0.76736013 8:-0.56478463 
-1000000 1:-1.1245197 2:-0.59632369 3:-0.39567527 4:-0.63528134 5:-0.83582103 6:-0.62978609 7:-0.68823989 8:-0.62151012 
-1000000 1:1.6003944 2:-0.005955104 3:-0.094251036 4:1.0777014 5:1.0356766 6:0.72534668 7:0.36283155 8:0.33502336 
-33177.171753233488 1:-1.1245197 2:-0.60907757 3:-0.94740308 4:-0.4096586 5:-0.9091635 6:-0.63421197 7:-0.82328995 8:-0.78814123 
-1000000 1:-1.1245197 2:-0.62040716 3:-0.88435794 4:-0.54328213 5:-0.87628584 6:-0.62198258 7:-0.78304776 8:-0.74488804 
-1000000 1:0.69208973 2:-0.36358161 3:-0.48444637 4:-0.45270193 5:0.12521831 6:0.066532023 7:0.2605209 8:0.11663025 
-1000000 1:-0.21621497 2:-0.39789407 3:0.24824639 4:0.24545147 5:-0.056873353 6:-0.46672757 7:0.096141784 8:-0.59172924 
-1000000 1:-0.21621497 2:0.59697314 3:-0.33914443 4:1.4960731 5:0.6664352 6:0.77700129 7:-0.59888859 8:2.161584 
-1000000 1:-0.21621497 2:-0.31716267 3:0.75746566 4:0.3268081 5:0.054404886 6:-0.5503533 7:-0.33219882 8:-0.35773661 
-1000000 1:-1.1245197 2:-0.4617282 3:-0.67435468 4:-0.39144796 5:-0.38059187 6:-0.31007492 7:-0.42410789 8:0.5365761 
-1000000 1:-0.21621497 2:-0.48199198 3:-0.17098724 4:-0.71923949 5:-0.62843885 6:-0.60194968 7:-0.61048379 8:-0.5509578 
-1000000 1:1.6003944 2:0.27793197 3:0.26480817 4:-0.12467389 5:0.32754238 6:-0.24555034 7:0.55176522 8:0.66190397 
-1000000 1:-1.1245197 2:-0.3363906 3:0.51544297 4:0.14186367 5:0.16568312 6:-0.47354109 7:-0.14531136 8:-0.5158589 
-1000000 1:-1.1245197 2:-0.48658855 3:-0.55555157 4:-0.65703951 5:-0.97744788 6:-0.61348024 7:-0.66845983 8:-0.67398119 
-1000000 1:-0.21621497 2:-0.5707512 3:-0.53854815 4:-0.46287151 5:-0.59303214 6:-0.59135087 7:-0.27899728 8:-0.53358562 
