svm_type c_svc
kernel_type rbf
gamma 0.080000000000000002
nr_class 2
total_sv 135
rho 0.24334420063568937
label 1 0
probA -0.72136108847940883
probB -0.12731709602606928
nr_sv 71 64
SV
0.97296528868086363 1:-0.25609322 2:0.66380768 3:3.2837106 4:1.3543926 5:1.9835383 6:0.50934905 7:2.3425054 8:0.38511362 
29.400120482057545 1:-1.1638687 2:-0.43108046 3:-0.67585811 4:-0.0031061779 5:-0.36221274 6:-0.3815267 7:-0.60560671 8:-0.59108099 
20.100229945522116 1:-1.1638687 2:0.16407995 3:2.1152397 4:0.69805765 5:1.5767607 6:-0.011948994 7:1.1079319 8:0.28504712 
0.53611439250576287 1:-0.25609322 2:4.2452243 3:-0.44347083 4:3.2010466 5:2.3699771 6:0.75780714 7:-0.35043398 8:3.4015288 
11.109471925481753 1:1.5594577 2:-0.019229458 3:-0.10367081 4:0.69260883 5:0.58693508 6:0.18784408 7:0.25157548 8:1.3088716 
50 1:-1.1638687 2:-0.44991858 3:-0.62909476 4:-0.39752631 5:-0.53170342 6:-0.43009301 7:-0.62625175 8:-0.22227694 
50 1:-0.25609322 2:-0.42621567 3:0.04090756 4:-0.50712186 5:-0.34187386 6:-0.38744942 7:-0.052319555 8:-0.64133273 
50 1:0.65168226 2:-0.47683018 3:-0.52086519 4:-0.53473746 5:-0.76899038 6:-0.45190836 7:-0.58826487 8:-0.52203948 
1.0051419871409084 1:0.65168226 2:4.4103166 3:1.9998628 4:2.8346136 5:2.790314 6:3.5642879 7:1.2796986 8:5.1743227 
50 1:-1.1638687 2:-0.48500717 3:-0.61970125 4:-0.57758499 5:-0.68763485 6:-0.45437616 7:-0.56761983 8:-0.6094338 
50 1:-0.25609322 2:-0.47527759 3:-0.66503515 4:-0.47659609 5:-0.48085622 6:-0.43315308 7:-0.49226542 8:-0.39651938 
2.4097506756675062 1:-1.1638687 2:-0.15513304 3:1.4046002 4:0.22475349 5:1.5428625 6:0.097325184 7:2.1335776 8:-0.37172124 
50 1:-1.1638687 2:-0.45737103 3:-0.62138596 4:-0.78615708 5:-0.93848106 6:-0.4563504 7:-0.58186491 8:-0.67672743 
50 1:-1.1638687 2:-0.45902712 3:-0.12715459 4:-0.41337742 5:-0.53170342 6:-0.45161222 7:-0.4115433 8:-0.61729929 
50 1:-1.1638687 2:-0.47558811 3:-0.60765305 4:-0.4570918 5:-0.63339783 6:-0.4390758 7:-0.56101341 8:-0.3769649 
3.4928042132529038 1:-1.1638687 2:1.9094008 3:-0.5968301 4:1.9256516 5:1.2987959 6:1.1053721 7:-0.60890991 8:3.4613939 
50 1:0.65168226 2:-0.37301351 3:0.093184486 4:-0.36297585 5:-0.56560156 6:-0.38508034 7:-0.22573792 8:-0.56005601 
4.4327892455272018 1:0.65168226 2:0.93903056 3:0.77176349 4:0.051505841 5:-0.043570257 6:0.19060802 7:-0.30171167 8:0.42618895 
50 1:-1.1638687 2:-0.46565152 3:-0.66871087 4:-0.72742749 5:-0.76221075 6:-0.41587848 7:-0.22491211 8:-0.53689651 
50 1:-1.1638687 2:-0.49194208 3:-0.70751015 4:-0.72495075 5:-0.8978033 6:-0.4637538 7:-0.57340044 8:-0.67454257 
50 1:-1.1638687 2:-0.47672668 3:-0.66610723 4:-0.72752036 5:-0.93000653 6:-0.4538826 7:-0.59445838 8:-0.675635 
50 1:-0.25609322 2:-0.4417416 3:-0.3030787 4:-0.5072457 5:-0.65712653 6:-0.40916606 7:-0.28168598 8:-0.37161199 
50 1:-0.25609322 2:-0.45436935 3:-0.38976446 4:-0.53770954 5:-0.1045869 6:-0.38883139 7:-0.29180205 8:-0.59457677 
50 1:-1.1638687 2:-0.47600213 3:-0.44954598 4:-0.62207335 5:-0.77577 6:-0.45082252 7:-0.42021422 8:-0.63434119 
50 1:-0.25609322 2:-0.29207169 3:1.1501586 4:-0.10836744 5:0.051344525 6:-0.33305911 7:0.91221685 8:-0.43246029 
50 1:-1.1638687 2:-0.44370821 3:-0.47308081 4:-0.15827366 5:-0.49102566 6:-0.41637204 7:-0.3603436 8:-0.37084729 
50 1:-1.1638687 2:-0.48987196 3:-0.69015258 4:-0.64903881 5:-0.83000702 6:-0.45862077 7:-0.5560586 8:-0.61642535 
50 1:-1.1638687 2:-0.49163156 3:-0.66911928 4:-0.64742893 5:-0.81644777 6:-0.46326024 7:-0.6510258 8:-0.63652604 
24.721994761259761 1:0.65168226 2:-0.013433113 3:1.9457481 4:0.36122162 5:0.93269607 6:0.10097753 7:1.4266913 8:-0.094681226 
50 1:1.5594577 2:-0.23141708 3:1.0480552 4:0.047171553 5:0.22761483 6:-0.35497318 7:-0.33639535 8:-0.52903102 
50 1:-0.25609322 2:-0.34796502 3:-0.37674628 4:0.16590006 5:-0.13848504 6:-0.33967282 7:-0.64049683 8:-0.26968836 
50 1:0.65168226 2:-0.34692996 3:-0.61051195 4:-0.27604243 5:-0.45034789 6:-0.30374165 7:-0.20013806 8:0.052578213 
26.242152286649318 1:-1.1638687 2:-0.4098617 3:-0.65196592 4:-0.022796225 5:-0.36221274 6:-0.34875432 7:-0.34217596 8:0.074863766 
50 1:1.5594577 2:-0.34682645 3:-0.63481255 4:-0.096355271 5:0.21405558 6:-0.022017618 7:-0.22408631 8:0.53193609 
50 1:-0.25609322 2:-0.44484678 3:-0.43468994 4:-0.18824216 5:-0.45712752 6:-0.4053163 7:-0.28436984 8:-0.045303432 
50 1:-1.1638687 2:-0.12904949 3:-0.3756742 4:-0.27034594 5:-0.54526268 6:-0.30048416 7:-0.33969855 8:-0.090311509 
1.0519197904156734 1:0.65168226 2:1.1449043 3:4.4299231 4:0.065870907 5:3.5089544 6:2.7106265 7:9.6847085 8:0.35889532 
0.99129451682310388 1:0.65168226 2:0.79950425 3:-0.4363236 4:1.0466582 5:1.7326921 6:1.945115 7:-0.081222615 8:3.5020322 
50 1:-0.25609322 2:0.31747607 3:0.18017656 4:-0.4308384 5:-0.38255162 6:-0.10592281 7:-0.48834286 8:-0.64526548 
50 1:-0.25609322 2:-0.48759482 3:-0.68668106 4:-0.64792427 5:-0.85712553 6:-0.46523448 7:-0.68158047 8:-0.67235772 
50 1:1.5594577 2:-0.032581753 3:1.266148 4:-0.18811832 5:0.7903239 6:0.021020812 7:1.6471804 8:-0.38046067 
50 1:1.5594577 2:-0.41969478 3:-0.3772568 4:-0.49879384 5:-0.15882392 6:-0.3123296 7:-0.27900213 8:-0.17147899 
1.2430691038181338 1:1.5594577 2:6.904608 3:-0.53556807 4:6.592069 5:4.7699651 6:12.420531 7:-0.58661327 8:10.766686 
14.262933425040133 1:0.65168226 2:0.015548611 3:2.0192625 4:0.29113 5:0.52591844 6:-0.25320111 7:0.10458277 8:-0.21747025 
50 1:1.5594577 2:-0.4518852 3:-0.13123872 4:-0.52235378 5:-0.63339783 6:-0.44134617 7:-0.39502727 8:-0.56136692 
50 1:-0.25609322 2:-0.44546782 3:-0.66850666 4:-0.33845617 5:-0.46390715 6:-0.37935504 7:-0.66341283 8:-0.23582306 
1.0959879296766273 1:-1.1638687 2:1.9315511 3:2.89388 4:-0.028492717 5:1.5089644 6:2.8073643 7:6.3600308 8:0.15482957 
0.82700763903890673 1:-1.1638687 2:4.5729248 3:-0.49064259 4:3.6249399 5:3.061499 6:-0.05923204 7:-0.62542595 8:1.426417 
50 1:0.65168226 2:-0.28637885 3:0.061328234 4:-0.21759148 5:-0.077468393 6:-0.18824862 7:0.66943115 8:-0.40012439 
50 1:-0.25609322 2:-0.39754447 3:-0.31502479 4:-0.57684196 5:-0.73509224 6:-0.34727364 7:-0.24473136 8:-0.62560175 
50 1:-0.25609322 2:-0.48304055 3:-0.68566003 4:-0.62947259 5:-0.8232274 6:-0.45980532 7:-0.64029038 8:-0.62123204 
50 1:-1.1638687 2:-0.43118397 3:-0.68137169 4:-0.32471029 5:-0.59272007 6:-0.39100306 7:-0.58909067 8:-0.040059772 
1.8564843540338198 1:0.65168226 2:2.6797971 3:-0.3423885 4:5.2774178 5:2.8377713 6:4.9862342 7:-0.41319491 8:2.7928273 
0.63060912434592176 1:-0.25609322 2:1.9060886 3:1.0690885 4:0.79799393 5:4.153019 6:5.8004107 7:3.6935171 8:2.427519 
0.27787715680223446 1:-1.1638687 2:4.2882828 3:0.095634967 4:3.7206657 5:2.9259065 6:3.9761143 7:0.41508422 8:6.1028874 
36.701272177029793 1:-0.25609322 2:0.3498735 3:-0.1410917 4:0.38372895 5:0.21405558 6:0.12338515 7:-0.16070603 8:0.97950428 
50 1:-0.25609322 2:-0.3762222 3:-0.64951544 4:-0.20013049 5:-0.45034789 6:-0.45289548 7:-0.54697479 8:-0.606375 
50 1:-1.1638687 2:-0.46989527 3:-0.63910089 4:-0.46823711 5:-0.53848305 6:-0.45684396 7:-0.55771021 8:-0.59282888 
50 1:-1.1638687 2:-0.47382851 3:-0.56395281 4:-0.56557282 5:-0.7486515 6:-0.44667662 7:-0.55688441 8:-0.46741802 
50 1:-1.1638687 2:-0.4854212 3:-0.64951544 4:-0.63380688 5:-0.79610889 6:-0.45585684 7:-0.63698717 8:-0.51111519 
50 1:-1.1638687 2:-0.48417912 3:-0.60234368 4:-0.62600517 5:-0.76899038 6:-0.45496843 7:-0.58826487 8:-0.59763557 
50 1:-0.25609322 2:-0.47061981 3:-0.68423058 4:-0.46613189 5:-0.36221274 6:-0.41173257 7:-0.40576269 8:-0.18338647 
50 1:-1.1638687 2:-0.48117744 3:-0.65992998 4:-0.49028006 5:-0.6740756 6:-0.4498354 7:-0.62625175 8:-0.38264553 
50 1:-1.1638687 2:-0.48707729 3:-0.66176784 4:-0.554056 5:-0.71475336 6:-0.45171093 7:-0.63616137 8:-0.53951834 
50 1:-1.1638687 2:-0.47589863 3:-0.50856173 4:-0.59569611 5:-0.79102417 6:-0.45585684 7:-0.49556863 8:-0.58004746 
12.881531703765923 1:-1.1638687 2:-0.40603197 3:-0.47757336 4:-0.55356065 5:-0.64017746 6:-0.32279307 7:-0.0093778653 8:-0.4154184 
50 1:-1.1638687 2:-0.48262653 3:-0.54516579 4:-0.64656207 5:-0.77577 6:-0.45398131 7:-0.59817449 8:-0.59457677 
22.455440154045235 1:-0.25609322 2:0.68337034 3:-0.47839019 4:2.9054482 5:0.93269607 6:0.40747827 7:-0.49660088 8:0.77882506 
50 1:-1.1638687 2:-0.44898703 3:-0.57110005 4:-0.20037816 5:-0.63339783 6:-0.4292046 7:-0.66341283 8:-0.55656024 
50 1:-0.25609322 2:-0.46047621 3:-0.64257241 4:-0.59417911 5:-0.49102566 6:-0.39998585 7:-0.39337567 8:-0.3892001 
0.9378719167651054 1:1.5594577 2:2.2037723 3:2.076032 4:0.63886367 5:4.7428466 6:6.390511 7:6.9372662 8:1.2380822 
-50 1:-0.25609322 2:-0.48024589 3:-0.67606231 4:-0.55727575 5:-0.72831261 6:-0.46158213 7:-0.49494928 8:-0.43988881 
-10.019655332916427 1:0.65168226 2:1.3776897 3:-0.33973381 4:4.296259 5:1.7598106 6:1.0083382 7:-0.23564754 8:0.54941495 
-50 1:-1.1638687 2:-0.46057972 3:-0.61541291 4:-0.54774032 5:-0.78254963 6:-0.44924313 7:-0.62872916 8:-0.42546875 
-0.69159403784581941 1:-0.25609322 2:4.4195286 3:2.3129118 4:5.6889274 5:2.8784491 6:1.8819393 7:1.357324 8:1.719625 
-50 1:-0.25609322 2:-0.44950456 3:0.1421941 4:-0.48879402 5:-0.53170342 6:-0.44855215 7:-0.42640773 8:-0.52946799 
-50 1:0.65168226 2:-0.34009855 3:-0.67483707 4:-0.15406321 5:-0.28763684 6:-0.45674524 7:-0.51146531 8:-0.41891417 
-50 1:0.65168226 2:-0.055456614 3:-0.13675231 4:-0.54947404 5:0.010666761 6:0.067020602 7:0.56455433 8:-0.33151985 
-0.30468810458030143 1:0.65168226 2:-0.37829232 3:-0.5210694 4:0.11751084 5:-0.23339982 6:-0.24777195 7:-0.58661327 8:0.090157773 
-9.1502708434864992 1:1.5594577 2:-0.054111034 3:-0.60765305 4:0.41744352 5:0.30897036 6:-0.079270575 7:-0.61716793 8:1.2319646 
-50 1:-0.25609322 2:-0.43366812 3:-0.39461437 4:-0.56554186 5:-0.39611088 6:-0.31864716 7:-0.14171259 8:-0.45780465 
-50 1:-0.25609322 2:-0.47496707 3:-0.57906411 4:-0.58699658 5:-0.77746491 6:-0.45990403 7:-0.55337475 8:-0.64155122 
-50 1:-0.25609322 2:0.0048874766 3:2.1215701 4:0.47230321 5:1.3055756 6:-0.22072486 7:1.074074 8:-0.67847532 
-50 1:0.65168226 2:-0.3208464 3:-0.26611728 4:-0.41176754 5:-0.53339833 6:-0.18291817 7:-0.065738833 8:-0.31709978 
-49.535102292418408 1:-0.25609322 2:-0.30004167 3:1.7358235 4:-0.42836167 5:0.2682926 6:-0.20048891 7:0.57694136 8:-0.054042864 
-50 1:-1.1638687 2:-0.43625577 3:-0.59948479 4:-0.46452201 5:-0.68085522 6:-0.42505869 7:-0.66589023 8:-0.26378925 
-50 1:1.5594577 2:-0.15068228 3:1.5085414 4:0.089895241 5:0.37676664 6:-0.06268696 7:1.5918517 8:-0.22708363 
-50 1:-0.25609322 2:-0.47413902 3:-0.49258256 4:-0.57040245 5:-0.73678715 6:-0.44371526 7:-0.52343944 8:-0.55677872 
-9.402000712422085 1:0.65168226 2:-0.45126416 3:-0.75774501 4:-0.36012761 5:-0.36899237 6:-0.36356112 7:-0.61056152 8:-0.29350332 
-20.125344116964168 1:1.5594577 2:-0.3073906 3:-0.050526009 4:-0.5185458 5:-0.046960071 6:-0.22881925 7:0.40249074 8:-0.5363503 
-50 1:-1.1638687 2:-0.49328766 3:-0.64073455 4:-0.71269091 5:-0.8978033 6:-0.46227312 7:-0.5519296 8:-0.69464327 
-50 1:-1.1638687 2:-0.48811236 3:-0.61602553 4:-0.65634518 5:-0.83678665 6:-0.45625168 7:-0.60973572 8:-0.66230737 
-50 1:1.5594577 2:-0.25770765 3:0.2874872 4:-0.28619705 5:-0.27068777 6:-0.24767324 7:-0.23606044 8:-0.2183442 
-50 1:1.5594577 2:-0.43066644 3:0.22775673 4:-0.37573104 5:-0.38255162 6:-0.42111021 7:-0.47843324 8:-0.45343493 
-50 1:-1.1638687 2:0.37357641 3:-0.34892311 4:0.66821299 5:0.2682926 6:0.1188444 7:-0.17784142 8:1.1205369 
-5.3420232705254778 1:1.5594577 2:0.17308498 3:2.4166488 4:-0.40334664 5:1.7733699 6:0.65840417 7:3.8008713 8:-0.51417399 
-50 1:-1.1638687 2:-0.4333576 3:-0.47634812 4:-0.65114403 5:-0.80288851 6:-0.36198173 7:-0.33474374 8:-0.64045879 
-50 1:-0.25609322 2:-0.38263958 3:-0.55578454 4:-0.53956709 5:-0.72153299 6:-0.45013154 7:-0.56266502 8:-0.41017474 
-50 1:-1.1638687 2:-0.4469169 3:-0.062421052 4:-0.41944542 5:-0.55882193 6:-0.44855215 7:-0.22821532 8:-0.57971973 
-50 1:-0.25609322 2:-0.40013212 3:-0.30215977 4:-0.097717475 5:-0.42322939 6:-0.41765529 7:-0.554407 8:-0.21091568 
-18.643150477186936 1:0.65168226 2:-0.26629866 3:-0.047922373 4:-0.23554781 5:-0.54526268 6:0.035630187 7:0.015396186 8:-0.33720048 
-50 1:-0.25609322 2:-0.3376144 3:0.053772585 4:0.0079152952 5:-0.1045869 6:-0.3667199 7:0.24662067 8:-0.4123596 
-50 1:-1.1638687 2:-0.47724421 3:-0.61949705 4:-0.51777182 5:-0.66729597 6:-0.44845344 7:-0.52798135 8:-0.44688036 
-50 1:-1.1638687 2:-0.49442623 3:-0.80634622 4:-0.68334159 5:-0.8503459 6:-0.46266796 7:-0.62707755 8:-0.64701336 
-50 1:-1.1638687 2:-0.48148796 3:-0.62501063 4:-0.59591283 5:-0.71475336 6:-0.44756503 7:-0.59321968 8:-0.53034194 
-28.423356518051428 1:1.5594577 2:-0.084127819 3:0.069904917 4:-0.066015261 5:0.26151297 6:0.096338064 7:-0.5552328 8:0.90248803 
-50 1:-0.25609322 2:-0.44981508 3:-0.75468191 4:-0.49969165 5:-0.53170342 6:-0.37580141 7:-0.62212274 8:0.069620106 
-50 1:-0.25609322 2:-0.3762222 3:-0.3849656 4:-0.34873462 5:-0.6011946 6:-0.34421357 7:-0.37830478 8:-0.098504727 
-50 1:-1.1638687 2:-0.47693369 3:-0.6515575 4:-0.54811183 5:-0.7486515 6:-0.44450496 7:-0.58578747 8:-0.4123596 
-50 1:-1.1638687 2:-0.48511068 3:-0.63399572 4:-0.59640818 5:-0.80966814 6:-0.45625168 7:-0.65432901 8:-0.56136692 
-50 1:-0.25609322 2:-0.027509951 3:-0.58559873 4:0.42239699 5:-0.14526467 6:-0.42466385 7:-0.59404548 8:-0.36254483 
-39.001863645631495 1:1.5594577 2:-0.39205864 3:-0.64155137 4:-0.49325214 5:0.39710552 6:-0.1263562 7:-0.0027714515 8:-0.24499947 
-50 1:-0.25609322 2:-0.33989154 3:-0.21812869 4:-0.42483232 5:-0.48255112 6:-0.32832094 7:-0.49742668 8:-0.6618704 
-0.64758380675179528 1:-0.25609322 2:3.5120901 3:4.2585936 4:5.6156161 5:2.4581122 6:0.13384862 7:3.1740878 8:1.1196629 
-50 1:-1.1638687 2:-0.48707729 3:-0.61745498 4:-0.66067946 5:-0.81644777 6:-0.45664653 7:-0.62872916 8:-0.62297992 
-7.396726426404852 1:0.65168226 2:-0.43729083 3:-0.32217203 4:-0.67826428 5:-0.55882193 6:-0.45161222 7:-0.54697479 8:-0.53121588 
-50 1:-1.1638687 2:-0.48562821 3:-0.65727529 4:-0.66154632 5:-0.81644777 6:-0.45457358 7:-0.63285816 8:-0.61030775 
-19.043822196213625 1:0.65168226 2:-0.011984027 3:-0.60356892 4:1.3568693 5:0.37676664 6:-0.10463956 7:-0.52385234 8:0.090594744 
-50 1:-1.1638687 2:-0.47444954 3:-0.65870474 4:-0.42093146 5:-0.66051634 6:-0.44805859 7:-0.59900029 8:-0.50980427 
-50 1:-0.25609322 2:-0.44909053 3:-0.17841048 4:-0.52470668 5:-0.070688766 6:-0.37116194 7:0.23588525 8:-0.60987077 
-0.13448208244284193 1:-1.1638687 2:-0.011984027 3:2.2739083 4:0.4685881 5:0.73608688 6:-0.22960894 7:0.52987066 8:-0.54388806 
-50 1:-1.1638687 2:-0.47082683 3:-0.75549874 4:-0.42142681 5:-0.61983858 6:-0.42742778 7:-0.48421385 8:-0.15192451 
-50 1:-1.1638687 2:-0.48283354 3:-0.64134717 4:-0.57535592 5:-0.78254963 6:-0.4597066 7:-0.59321968 8:-0.61161866 
-16.555247380258191 1:1.5594577 2:-0.41244935 3:-0.070180908 4:-0.31183126 5:-0.24695908 6:-0.36612763 7:-0.12767396 8:-0.22074754 
-5.3320891609777554 1:1.5594577 2:2.0721125 3:-0.36051184 4:2.0764539 5:1.1055766 6:1.429641 7:-0.40060143 8:3.293706 
-29.887833790268164 1:-1.1638687 2:-0.49504727 3:-0.68382217 4:-0.733867 5:-0.8978033 6:-0.46641902 7:-0.63781297 8:-0.68240806 
-50 1:-1.1638687 2:-0.44577834 3:-0.61561712 4:-0.54761649 5:-0.65373671 6:-0.44578821 7:-0.53458776 8:-0.47266168 
-50 1:-1.1638687 2:-0.48655976 3:-0.53684437 4:-0.62287829 5:-0.81305795 6:-0.46177956 7:-0.48607191 8:-0.65072762 
-50 1:-0.25609322 2:-0.43687681 3:-0.50820437 4:-0.18997587 5:-0.58594044 6:-0.44865086 7:-0.58743907 8:-0.5740391 
-50 1:-1.1638687 2:-0.448573 3:-0.59968899 4:-0.73807745 5:-0.83000702 6:-0.46069372 7:-0.59734869 8:-0.67891229 
-50 1:-1.1638687 2:-0.4703093 3:-0.69464513 4:-0.68445612 5:-0.80288851 6:-0.46029888 7:-0.58578747 8:-0.544762 
-50 1:-1.1638687 2:-0.47941784 3:-0.60438575 4:-0.63170166 5:-0.66729597 6:-0.46355637 7:-0.5552328 8:-0.58103065 
-50 1:-0.25609322 2:-0.48583522 3:-0.76979321 4:-0.56507747 5:-0.70797373 6:-0.44865086 7:-0.58578747 8:-0.44600641 
-50 1:-1.1638687 2:-0.46492698 3:-0.60173106 4:-0.39282051 5:-0.72153299 6:-0.45832464 7:-0.52302654 8:-0.59282888 
-50 1:-1.1638687 2:-0.34827554 3:-0.48308694 4:0.39936335 5:-0.17238318 6:-0.34006767 7:-0.44457537 8:0.10064509 
