svm_type c_svc
kernel_type rbf
gamma 4.0000000000000003e-05
nr_class 2
total_sv 123
rho 1769.3283975575125
label 1 0
probA -0.80042112445738001
probB -0.017151702751455666
nr_sv 63 60
SV
1000000 1:-0.12677389 2:-0.44646833 3:-0.6372845 4:-0.5772599 5:0.2693084 6:0.096547707 7:-0.26262503 8:-0.15476211 
1000000 1:1.7386062 2:-0.47889236 3:-0.18080191 4:-0.055679119 5:-0.42500305 6:-0.4070391 7:-0.35297443 8:-0.39443715 
1000000 1:-0.12677389 2:-0.66947678 3:-0.68492073 4:-0.67564338 5:-0.90800232 6:-0.68042071 7:-0.71070923 8:-0.82317263 
1000000 1:-1.0594639 2:-0.60210367 3:-0.86458807 4:-0.018599917 5:-0.59606529 6:-0.65772078 7:-0.74733736 8:-0.18900141 
449480.46187184757 1:0.80591614 2:1.6484109 3:2.2047604 4:3.2844154 5:1.6277438 6:1.2263216 7:0.25138981 8:1.1493083 
73884.37465270338 1:0.80591614 2:0.24057676 3:0.66577263 4:0.19794262 5:0.90324494 6:-0.29560779 7:0.16104041 8:0.14297085 
1000000 1:-0.12677389 2:0.45032866 3:0.056253966 4:-0.083364924 5:-0.31934696 6:-0.1005125 7:-0.077042477 8:-0.39294849 
1000000 1:-1.0594639 2:-0.51343973 3:-0.43511185 4:-0.43734771 5:-0.6564402 6:-0.48113705 7:-0.46407978 8:-0.64751018 
1000000 1:0.80591614 2:-0.32337179 3:-0.13991727 4:0.10895254 5:-0.20865962 6:-0.38661434 7:-0.41768414 8:-0.15773944 
198394.5849274495 1:1.7386062 2:4.4181116 3:3.4234226 4:3.6309824 5:2.0503682 6:0.20984052 7:0.699474 8:1.4068473 
1000000 1:-1.0594639 2:-0.1228593 3:0.66052139 4:0.16729048 5:0.037871252 6:-0.1073897 7:-0.37250944 8:-0.046089581 
1000000 1:-1.0594639 2:-0.48359814 3:-0.49512599 4:-0.45217939 5:-0.022503656 6:-0.073055408 7:0.2318548 8:-0.11010217 
1000000 1:1.7386062 2:-0.39659845 3:0.19053562 4:0.15888586 5:-0.31431571 6:-0.45419704 7:-0.49216135 8:-0.57754293 
1000000 1:-1.0594639 2:-0.24343078 3:-0.10090808 4:0.53214984 5:0.22905846 6:-0.16654395 7:0.78616059 8:0.97215717 
1000000 1:-1.0594639 2:-0.56646593 3:-0.44073817 4:-0.89268031 5:-0.7872525 6:-0.61666442 7:-0.68995328 8:-0.78446734 
1000000 1:0.80591614 2:0.026807719 3:-0.78469424 4:2.3332103 5:0.15358983 6:-0.57436705 7:-0.78030268 8:0.53002371 
1000000 1:-0.12677389 2:0.052402616 3:0.9999764 4:-0.37109953 5:0.74224519 6:-0.33237237 7:-0.35663725 8:0.23973407 
1000000 1:-1.0594639 2:0.30731861 3:0.17440681 4:-0.13527581 5:-0.48537796 6:-0.40688398 7:-0.5324523 8:-0.44356309 
1000000 1:0.80591614 2:-0.13772271 3:-0.41860796 4:0.81049105 5:0.22905846 6:-0.24038336 7:0.12074946 8:1.7715702 
221814.19811461528 1:1.7386062 2:3.6052154 3:4.1135853 4:1.9540136 5:3.0767417 6:3.6832916 7:5.297526 8:3.6279352 
1000000 1:-1.0594639 2:-0.34644163 3:-0.67629369 4:0.27308981 5:0.21899598 6:-0.25982567 7:-0.16495 8:1.0867844 
1000000 1:0.80591614 2:-0.33725961 3:0.30193687 4:-0.16197283 5:0.24918343 6:-0.11442202 7:0.80325372 8:-0.12647748 
1000000 1:0.80591614 2:-0.31602617 3:0.60913428 4:0.2132687 5:0.16868355 6:-0.57721101 7:-0.4066957 8:0.5389557 
1000000 1:-0.12677389 2:-0.2549657 3:0.29030913 4:0.0036476044 5:0.11333989 6:-0.1036667 7:0.03284193 8:-0.2738553 
1000000 1:-1.0594639 2:-0.66735344 3:-0.85896175 4:-0.7211272 5:-0.90800232 6:-0.64355271 7:-0.81693082 8:-0.74725072 
1000000 1:1.7386062 2:0.77491328 3:1.4467067 4:1.3093299 5:1.3359318 6:0.30219148 7:0.18057541 8:1.8355828 
1000000 1:-1.0594639 2:0.39271145 3:0.30765697 4:1.0553374 5:0.81897163 6:-0.24824302 7:1.1145929 8:2.5051098 
1000000 1:-0.12677389 2:-0.57668093 3:-0.59602477 4:-0.14219726 5:-0.67656517 6:-0.61123505 7:-0.51780104 8:-0.53288298 
1000000 1:-1.0594639 2:-0.40778904 3:0.3949588 4:-0.75622885 5:0.52590176 6:-0.60859793 7:0.30633201 8:-0.72492075 
1000000 1:-1.0594639 2:-0.53547659 3:-0.29520387 4:-0.27172727 5:-0.36462814 6:-0.47637989 7:-0.22965971 8:-0.083306202 
20541.912673351486 1:0.80591614 2:2.0854179 3:-0.26894768 4:4.4734219 5:1.839056 6:1.269498 7:-0.22843877 8:2.9639907 
1000000 1:-0.12677389 2:-0.43631071 3:-0.43248623 4:-0.10462367 5:-0.69669014 6:-0.56624886 7:-0.60326669 8:-0.57754293 
1000000 1:-0.12677389 2:-0.68405325 3:-0.91297448 4:-0.80715095 5:-1.0035959 6:-0.66754535 7:-0.84623333 8:-0.67281748 
1000000 1:-1.0594639 2:-0.67096886 3:-0.81620167 4:-0.81011729 5:-0.83756492 6:-0.63600331 7:-0.54588261 8:-0.69961345 
1000000 1:-1.0594639 2:-0.60835892 3:-0.57089385 4:-0.58863085 5:-0.84762741 6:-0.5634049 7:-0.59105732 8:-0.78000135 
1000000 1:-1.0594639 2:-0.67504338 3:-0.7959469 4:-0.82396019 5:-0.88787735 6:-0.6403468 7:-0.51291729 8:-0.78149001 
1000000 1:-1.0594639 2:-0.52405645 3:-0.57802053 4:-0.75425129 5:-0.29419075 6:-0.37048136 7:-0.15029875 8:-0.74129606 
239356.10545056683 1:0.80591614 2:0.90833959 3:1.5228496 4:-0.043813775 5:0.63155785 6:-0.060697132 7:-0.71193016 8:-0.7398074 
1000000 1:-1.0594639 2:-0.46517671 3:-0.48799931 4:-0.52188829 5:-0.97340847 6:-0.62555824 7:-0.65088327 8:-0.71301143 
742556.54500941269 1:-0.12677389 2:-0.23034639 3:1.0033522 4:-0.69195823 5:0.862995 6:0.11847201 7:1.5626771 8:-0.63411219 
1000000 1:-1.0594639 2:-0.68112648 3:-0.80644937 4:-0.94014169 5:-1.0639708 6:-0.67892117 7:-0.69239516 8:-0.88420789 
1000000 1:-1.0594639 2:-0.68732434 3:-0.90847342 4:-0.87241035 5:-1.0740333 6:-0.6753533 7:-0.80960519 8:-0.67281748 
1000000 1:-1.0594639 2:-0.21599948 3:-0.39385212 4:0.062974328 5:-0.46022174 6:-0.32332342 7:0.0096441109 8:0.35584993 
1000000 1:0.80591614 2:-0.55665264 3:-0.46624419 4:-0.42301042 5:-0.18350341 6:-0.38842413 7:-0.32367192 8:-0.45844974 
1000000 1:-1.0594639 2:-0.68548794 3:-0.78469424 4:-0.8931747 5:-1.0790646 6:-0.67297472 7:-0.84623333 8:-0.88420789 
1000000 1:-1.0594639 2:-0.31648527 3:-0.034892517 4:-0.37554904 5:-0.40487808 6:-0.4958222 7:-0.41524226 8:-0.59838424 
1000000 1:0.80591614 2:-0.28876703 3:-0.14441833 4:-0.51002295 5:0.027808767 6:-0.20904815 7:0.078016631 8:-0.065442224 
1000000 1:-1.0594639 2:-0.68324982 3:-0.84920945 4:-0.81506118 5:-1.0388146 6:-0.67007905 7:-0.70582547 8:-0.66537416 
1000000 1:-1.0594639 2:-0.32543775 3:-0.10887871 4:-0.3027502 5:-0.2891595 6:-0.51392009 7:-0.2464476 8:-0.15438995 
1000000 1:-0.12677389 2:-0.59647968 3:-0.54801346 4:-0.46355035 5:-0.55581535 6:-0.54510017 7:-0.51658011 8:-0.22472936 
1000000 1:-0.12677389 2:-0.32394567 3:-0.61740481 4:0.22908915 5:-0.11809726 6:-0.096686086 7:-0.14053125 8:0.78011941 
1000000 1:-0.12677389 2:-0.22948558 3:0.79517813 4:-0.56984406 5:0.85293252 6:-0.074296406 7:-0.71193016 8:-0.45398375 
1000000 1:-0.12677389 2:-0.50374121 3:-0.72655554 4:-0.10660122 5:-0.44512802 6:-0.18283206 7:-0.33710224 8:-0.47482506 
479867.53258956788 1:-1.0594639 2:1.0491689 3:-0.13954218 4:2.3025582 5:1.4667441 6:0.72320019 7:0.20011042 8:4.0432727 
408250.25998793461 1:1.7386062 2:0.61870406 3:0.91633168 4:0.40657494 5:0.047933737 6:-0.01989931 7:0.45040268 8:-0.39443715 
1000000 1:-1.0594639 2:-0.66218855 3:-0.7213043 4:-0.8422526 5:-0.77719001 6:-0.61159701 7:-0.73146517 8:-0.87229857 
1000000 1:0.80591614 2:-0.64370972 3:-0.60727743 4:-0.74732984 5:-0.95831474 6:-0.61325167 7:-0.53855699 8:-0.59094091 
1000000 1:0.80591614 2:-0.39321258 3:-0.080653303 4:-0.15801772 5:0.16868355 6:-0.26572041 7:0.37714641 8:-0.39145982 
1000000 1:-1.0594639 2:-0.39872179 3:-0.55739067 4:0.5662627 5:-0.09294105 6:-0.5227622 7:-0.42867258 8:0.45559047 
1000000 1:0.80591614 2:-0.28830793 3:0.072570312 4:-0.65438464 5:-0.67404954 6:-0.59349911 7:-0.8654631 8:-0.6791443 
1000000 1:-0.12677389 2:-0.28279872 3:0.52736501 4:-0.27321044 5:-0.28412826 6:-0.46495236 7:0.12563321 8:-0.47631372 
1000000 1:-1.0594639 2:-0.67280527 3:-0.9156001 4:-0.76117274 5:-0.92812729 6:-0.65927203 7:-0.75588393 8:-0.75320538 
1000000 1:-1.0594639 2:-0.33955511 3:-0.80307358 4:0.8732785 5:-0.19859714 6:-0.43837431 7:-0.70460454 8:0.89772393 
-1000000 1:-1.0594639 2:-0.45346962 3:-0.14704395 4:-0.53721436 5:-0.54575286 6:-0.65446316 7:-0.40425382 8:-0.34233388 
-1000000 1:-1.0594639 2:-0.67154274 3:-0.93285416 4:-0.63263151 5:-0.86775238 6:-0.6666146 7:-0.83524489 8:-0.17560342 
-1000000 1:-1.0594639 2:-0.68606182 3:-0.98949251 4:-0.70629552 5:-1.089127 6:-0.67240593 7:-0.90483835 8:-0.7100341 
-1000000 1:1.7386062 2:-0.25605607 3:-0.75093629 4:1.1150349 5:-0.13319099 6:-0.46505578 7:-0.67408109 8:0.20102878 
-924665.83028313029 1:1.7386062 2:-0.34385919 3:0.52136359 4:-0.01612797 5:-0.082878565 6:-0.43821919 7:-0.69849985 8:-0.36466386 
-1000000 1:-1.0594639 2:-0.62861677 3:-0.78628837 4:-0.52522542 5:-0.68285422 6:-0.59505036 7:-0.71131969 8:-0.24557067 
-1000000 1:-0.12677389 2:-0.48669708 3:-0.34734116 4:-0.7725437 5:-0.86775238 6:-0.55352862 7:-0.50070791 8:-0.790422 
-1000000 1:-1.0594639 2:-0.50643843 3:-0.43436167 4:-0.57577673 5:-0.43506553 6:-0.56785181 7:-0.46285884 8:-0.53586031 
-1000000 1:-0.12677389 2:-0.23769201 3:0.46435015 4:0.043198754 5:-0.31431571 6:-0.040220658 7:-0.39570726 8:0.32458796 
-1000000 1:-1.0594639 2:-0.6656892 3:-0.62406263 4:-0.92864714 5:-0.98598657 6:-0.64701717 7:-0.57640606 8:-0.92551834 
-1000000 1:-1.0594639 2:-0.30827884 3:-0.72805589 4:0.96325736 5:-0.0023786869 6:-0.55968191 7:-0.7229186 8:1.2847768 
-1000000 1:-1.0594639 2:-0.45742937 3:-0.24719256 4:-0.9166582 5:-0.65895582 6:-0.62752315 7:-0.67224968 8:-0.81424064 
-1000000 1:-1.0594639 2:-0.6684438 3:-0.84508348 4:-0.6563622 5:-0.96837722 6:-0.66092669 7:-0.77053518 8:-0.45844974 
-1000000 1:0.80591614 2:-0.099961626 3:-0.72317974 4:1.0606521 5:0.5661517 6:0.093858877 7:-0.74489549 8:2.4161621 
-1000000 1:-0.12677389 2:0.92027623 3:0.75879455 4:1.8403041 5:1.0239948 6:0.15037601 7:0.30877389 8:1.3071068 
-1000000 1:-1.0594639 2:-0.31872339 3:-0.084404187 4:0.53214984 5:0.1384961 6:-0.35719233 7:0.267262 8:0.75034611 
-1000000 1:-0.12677389 2:-0.46873474 3:-0.66691648 4:-0.2564012 5:0.017746283 6:-0.16101117 7:-0.59105732 8:0.74141412 
-642641.24243069824 1:-1.0594639 2:-0.65754015 3:-0.8863432 4:-0.46651668 5:-0.90297107 6:-0.64887867 7:-0.85111708 8:-0.36764119 
-1000000 1:-1.0594639 2:-0.63831528 3:-0.7828188 4:-0.34687446 5:-0.68662765 6:-0.66651118 7:-0.66431359 8:-0.069908219 
-1000000 1:-0.12677389 2:-0.66477099 3:-0.71305236 4:-0.94113047 5:-0.67656517 6:-0.62012887 7:-0.47995197 8:-0.87676456 
-1000000 1:-1.0594639 2:-0.33387374 3:0.91220571 4:-0.62422689 5:0.48062058 6:-0.36748228 7:0.2574945 8:-0.6594195 
-20742.377562909795 1:-0.12677389 2:3.1624696 3:-0.63690941 4:6.5543067 5:1.8239623 6:0.29748603 7:-0.23698534 8:1.8668447 
-1000000 1:-0.12677389 2:1.8085798 3:1.0299835 4:-0.98513113 5:1.5774314 6:2.3134362 7:2.3123329 8:-0.88569655 
-1000000 1:-1.0594639 2:-0.38816246 3:0.4335929 4:0.012546613 5:-0.43506553 6:-0.53310386 7:-0.19303157 8:-0.60285023 
-1000000 1:1.7386062 2:-0.28899658 3:0.9482142 4:-0.83384798 5:0.63155785 6:-0.056301929 7:0.19766854 8:-0.72640941 
-1000000 1:-0.12677389 2:-0.31958421 3:-0.81470132 4:1.0913042 5:-0.042628626 6:-0.15863259 7:-0.8193727 8:0.91112191 
-1000000 1:-1.0594639 2:-0.61254822 3:-0.44983407 4:-0.87376992 5:-0.36211252 6:-0.54447968 7:-0.28124433 8:-0.93817199 
-1000000 1:-1.0594639 2:-0.34512172 3:0.54199345 4:-0.90355688 5:0.58124543 6:-0.12005822 7:0.74342776 8:-0.9303565 
-454960.90506797296 1:-1.0594639 2:-0.67378086 3:-0.97448898 4:-0.61631666 5:-1.0237209 6:-0.67700796 7:-0.83402395 8:-0.64006685 
-1000000 1:-1.0594639 2:-0.4600692 3:0.31168917 4:-0.58517013 5:0.022777525 6:-0.3651037 7:0.53586833 8:-0.76362603 
-1000000 1:0.80591614 2:0.18726362 3:-0.34246501 4:1.5397154 5:0.56112046 6:-0.33868077 7:-0.36762569 8:2.5650285 
-1000000 1:1.7386062 2:-0.28119186 3:-0.23068867 4:-0.33402033 5:0.22905846 6:0.3773236 7:0.4381933 8:0.13403886 
-1000000 1:-1.0594639 2:-0.33794826 3:0.39195809 4:0.07731162 5:-0.22375335 6:-0.15232418 7:-0.37739319 8:-0.36615252 
-1000000 1:-1.0594639 2:-0.54735584 3:-0.87133967 4:0.41844028 5:-0.54072162 6:-0.65611782 7:-0.8645474 8:-0.38103917 
-1000000 1:0.80591614 2:-0.39809053 3:0.14477483 4:-0.19707448 5:-0.052691111 6:-0.54075668 7:-0.17838032 8:-0.89760587 
-624210.95184046624 1:-1.0594639 2:1.331631 3:1.8367986 4:3.8485137 5:0.80262009 6:-0.23102416 7:0.6445318 8:1.4202453 
-1000000 1:-1.0594639 2:-0.69317789 3:-0.91119281 4:-0.97734449 5:-1.1696269 6:-0.68983161 7:-0.79190159 8:-0.8994667 
-1000000 1:1.7386062 2:-0.3731269 3:0.46172453 4:-0.80270145 5:0.3397458 6:-0.14079324 7:1.0498832 8:-0.61178222 
-1000000 1:0.80591614 2:-0.57805824 3:-0.54107432 4:-0.088308817 5:-0.49292482 6:-0.57974471 7:-0.1738018 8:0.17758231 
-1000000 1:-0.12677389 2:-0.45019853 3:0.44747117 4:-0.38049293 5:-0.012441172 6:-0.25786075 7:0.19278479 8:-0.59540691 
-1000000 1:-1.0594639 2:-0.45553558 3:-0.56451735 4:-0.12934313 5:-0.59606529 6:-0.54592751 7:-0.63012733 8:-0.43314244 
-1000000 1:-0.12677389 2:-0.61702446 3:-0.83083012 4:-0.21091738 5:-0.66524487 6:-0.58858683 7:-0.86393693 8:-0.37620101 
-1000000 1:-0.12677389 2:-0.25410489 3:1.2884194 4:-0.31127842 5:0.25924592 6:-0.39173346 7:0.035283806 8:-0.40336914 
-1000000 1:0.80591614 2:0.51563582 3:-0.20218195 4:0.16729048 5:0.37999573 6:-0.27844064 7:-0.47140541 8:2.1005651 
-1000000 1:-1.0594639 2:-0.6568515 3:-0.77822397 4:-0.66489041 5:-0.79479936 6:-0.63977801 7:-0.71040399 8:-0.48189621 
-1000000 1:0.80591614 2:-0.21668813 3:-0.31433338 4:1.1269002 5:-0.022503656 6:-0.36546566 7:0.56761271 8:1.0153285 
-1000000 1:-1.0594639 2:-0.68083954 3:-0.84208277 4:-0.87809583 5:-1.1344082 6:-0.67550842 7:-0.88194576 8:-0.78558384 
-1000000 1:-1.0594639 2:-0.67131319 3:-0.76697132 4:-0.94941149 5:-0.97843971 6:-0.66289161 7:-0.81387847 8:-0.88979038 
-1000000 1:-1.0594639 2:-0.34667118 3:-0.46624419 4:-0.4052124 5:-0.81743995 6:-0.56909281 7:-0.63379014 8:-0.6296462 
-1000000 1:0.80591614 2:-0.53771471 3:-0.62265605 4:-0.57577673 5:0.19887101 6:-0.31417106 7:-0.29925317 8:-0.55074696 
-1000000 1:-1.0594639 2:-0.65725321 3:-0.80569919 4:-0.89712982 5:-1.1394395 6:-0.66873464 7:-0.75710486 8:-0.80828598 
-1000000 1:-1.0594639 2:-0.25743337 3:-0.80569919 4:1.5995365 5:-0.17344093 6:-0.66082328 7:-0.77908175 8:-0.080328873 
-1000000 1:-1.0594639 2:-0.22432069 3:-0.37322226 4:-0.20152398 5:-0.55078411 6:-0.3651037 7:-0.046519031 8:0.12510688 
-1000000 1:-1.0594639 2:-0.65478554 3:-0.8150764 4:-0.82247702 5:-1.0186896 6:-0.66004765 7:-0.7583258 8:-0.6802608 
-1000000 1:1.7386062 2:-0.34351486 3:-0.36084434 4:-0.23464807 5:-0.31431571 6:-0.10532137 7:0.28191325 8:-0.28129863 
-1000000 1:-1.0594639 2:-0.37129049 3:-0.34208992 4:-0.36714442 5:-0.61619026 6:-0.53729223 7:-0.66553452 8:-0.59540691 
-1000000 1:0.80591614 2:-0.56319483 3:-0.49887688 4:-0.33649228 5:-0.54575286 6:-0.45450729 7:-0.58495263 8:0.10575423 
-166924.66809226305 1:-1.0594639 2:-0.66161467 3:-0.68229511 4:-0.8096229 5:-0.99353344 6:-0.66216769 7:-0.70094172 8:-0.66686282 
-1000000 1:-1.0594639 2:2.3282825 3:3.6349725 4:2.2931648 5:2.0201808 6:0.14199927 7:1.760469 8:2.3179102 
-1000000 1:1.7386062 2:-0.36187891 3:-0.30870705 4:-1.0143001 5:0.068058706 6:-0.078795025 7:0.19888948 8:-0.93333383 
