svm_type c_svc
kernel_type rbf
gamma 0.20000000000000001
nr_class 2
total_sv 125
rho 0.38838144726870677
label 0 1
probA -1.3625267602255515
probB 0.18377147946642977
nr_sv 56 69
SV
5 1:0.47615772 2:-0.40136653 3:-0.58864657 4:-0.26222537 5:-0.38327477 6:-0.3749329 7:-0.53682757 8:-0.36116166 
5 1:-1.327085 2:-0.46725099 3:-0.62642266 4:-0.68998957 5:-0.78117834 6:-0.44120106 7:-0.55571203 8:-0.63599505 
5 1:1.3777791 2:-0.27916866 3:-0.54864108 4:0.79158635 5:0.26593632 6:-0.28074572 7:-0.52241574 8:0.59935584 
5 1:0.47615772 2:-0.44465885 3:-0.58282534 4:-0.3180663 5:-0.54383235 6:-0.43024416 7:-0.44985963 8:-0.44568273 
5 1:-0.42546364 2:-0.31244477 3:-0.42435157 4:-0.31312888 5:-0.62062076 6:-0.35660117 7:-0.52080062 8:-0.25907869 
3.033211345660173 1:-1.327085 2:-0.4761543 3:-0.76675153 4:-0.8519632 5:-0.887635 6:-0.44615273 7:-0.64504053 8:-0.67321791 
5 1:-1.327085 2:-0.20716318 3:-0.57220469 4:-0.20618783 5:-0.58222656 6:-0.14694514 7:-0.38910631 8:0.35118017 
5 1:-1.327085 2:-0.46035093 3:-0.61601875 4:-0.74163587 5:-0.82306293 6:-0.42276397 7:-0.50204039 8:-0.58736746 
5 1:0.47615772 2:-0.37309854 3:-0.57440313 4:0.19892103 5:0.098397975 6:-0.25872657 7:-0.61385631 8:0.66400606 
5 1:1.3777791 2:0.52479982 3:0.95360856 4:0.17471456 5:0.14028256 6:0.49487621 7:0.62705191 8:-0.35864282 
3.6188162016323613 1:0.47615772 2:-0.45790252 3:-0.6848827 4:-0.43743829 5:-0.54383235 6:-0.41865513 7:-0.5154583 8:-0.33765249 
2.750737264517408 1:1.3777791 2:-0.12247049 3:-0.57650868 4:0.97938314 5:0.30084014 6:-0.014830243 7:-0.59199009 8:1.8067196 
2.5522482359601621 1:-0.42546364 2:0.45668953 3:0.53934114 4:-0.29921234 5:-0.3972363 6:-0.079623436 7:-0.26884208 8:-0.25285156 
2.1179938858475622 1:1.3777791 2:-0.43920558 3:-0.47383205 4:-0.2700029 5:-0.48798624 6:-0.42624068 7:-0.32114708 8:-0.50893359 
5 1:0.47615772 2:-0.22174234 3:-0.32873472 4:0.78262909 5:0.3479603 6:-0.098271233 7:-0.62603182 8:1.1143886 
5 1:-1.327085 2:-0.44755243 3:-0.52077348 4:-0.67294891 5:-0.76023605 6:-0.43372087 7:-0.59000225 8:-0.55035451 
5 1:-1.327085 2:-0.40136653 3:-0.58864657 4:-0.26222537 5:-0.38327477 6:-0.3749329 7:-0.53682757 8:-0.36116166 
3.3359068636414668 1:0.47615772 2:-0.12970442 3:-0.30015495 4:-0.0038846387 5:-0.41119783 6:0.026784897 7:-0.30238686 8:0.48775725 
5 1:-1.327085 2:0.071844154 3:0.17220094 4:-0.31758566 5:-0.51939968 6:0.25382446 7:0.30427662 8:-0.29245332 
5 1:1.3777791 2:-0.12736731 3:-0.011384641 4:-0.086903226 5:-0.34139018 6:-0.2824314 7:0.3353366 8:0.092089531 
5 1:-1.327085 2:-0.28840584 3:-0.18577391 4:-0.72833105 5:-0.61364 6:-0.36186891 7:-0.19156486 8:-0.53349227 
5 1:-0.42546364 2:-0.37510178 3:-0.5635038 4:-0.41821293 5:-0.34837095 6:-0.35765471 7:-0.56266947 8:-0.22934239 
5 1:1.3777791 2:-0.3723195 3:0.2525835 4:-0.6570443 5:-0.15989031 6:-0.29328294 7:0.73240735 8:-0.57414355 
2.0765159185339885 1:1.3777791 2:-0.43987333 3:-0.447203 4:-0.3973272 5:-0.31346713 6:-0.42624068 7:-0.55223332 8:-0.56322858 
5 1:-1.327085 2:-0.46179772 3:-0.46680322 4:-0.633384 5:-0.75325528 6:-0.4410957 7:-0.53073981 8:-0.65355696 
5 1:-0.42546364 2:-0.45534282 3:-0.59713071 4:-0.5581211 5:-0.74452933 6:-0.4387779 7:-0.60863824 8:-0.57379371 
5 1:-1.327085 2:-0.47125748 3:-0.80774787 4:-0.64961632 5:-0.82306293 6:-0.44099035 7:-0.62727422 8:-0.64886912 
5 1:-1.327085 2:-0.46569291 3:-0.62233541 4:-0.71681768 5:-0.79513987 6:-0.44299209 7:-0.56863299 8:-0.63151712 
5 1:-0.42546364 2:-0.42217801 3:-0.52993882 4:-0.61509806 5:-0.66948611 6:-0.43456371 7:-0.51893702 8:-0.61388524 
5 1:-1.327085 2:-0.47426234 3:-0.67763712 4:-0.77104192 5:-0.83702446 6:-0.44604738 7:-0.55235756 8:-0.65005857 
5 1:1.3777791 2:0.38479534 3:-0.62753736 4:0.96627494 5:0.57308996 6:-0.049913387 7:-0.54974852 8:0.8299696 
3.4617053205037047 1:0.47615772 2:-0.13627061 3:0.21319728 4:-0.2889661 5:-0.30474117 6:-0.23038613 7:-0.21641284 8:-0.20366422 
5 1:0.47615772 2:-0.40937951 3:-0.55186134 4:-0.21669623 5:-0.36233248 6:-0.36071 7:-0.55571203 8:-0.24893337 
5 1:0.47615772 2:-0.41861669 3:-0.50454834 4:-0.14521286 5:-0.32044789 6:-0.39695205 7:-0.36587345 8:-0.19463838 
2.7492643769088239 1:1.3777791 2:0.29320259 3:-0.20398075 4:-0.22292263 5:-0.47751509 6:0.31261243 7:0.86323198 8:0.58291342 
5 1:-0.42546364 2:-0.4684752 3:-0.78855019 4:-0.56616079 5:-0.68344764 6:-0.43614403 7:-0.60938368 8:-0.4672328 
5 1:1.3777791 2:-0.035997133 3:0.29234128 4:0.7592528 5:0.99891658 6:0.23370169 7:-0.37432177 8:1.0703789 
5 1:0.47615772 2:-0.38433896 3:0.37433396 4:0.18022 5:-0.18781337 6:-0.41970868 7:-0.2654876 8:-0.43644698 
2.0785706791808005 1:1.3777791 2:1.3125198 3:1.3100352 4:-0.92456077 5:0.86453687 6:0.92503979 7:0.78558204 8:-0.63004779 
5 1:0.47615772 2:-0.28996392 3:-0.60301387 4:0.44858851 5:-0.20875566 6:-0.24629471 7:-0.58851137 8:-0.054702844 
5 1:-0.42546364 2:0.067169919 3:-0.32960171 4:0.066091291 5:-0.40770745 6:-0.27769043 7:-0.53247917 8:-0.19058025 
4.6378062637998481 1:-0.42546364 2:-0.25679911 3:-0.23082654 4:-0.69365986 5:-0.68344764 6:-0.27790114 7:-0.12286019 8:-0.6432717 
5 1:-1.327085 2:-0.46658324 3:-0.63657885 4:-0.7043212 5:-0.83004369 6:-0.44383493 7:-0.60938368 8:-0.6326366 
5 1:0.47615772 2:-0.41639086 3:-0.61019752 4:-0.019111995 5:-0.48100547 6:-0.36892768 7:-0.38525488 8:0.17451156 
5 1:-1.327085 2:-0.36508556 3:-0.46767021 4:-0.78238052 5:-0.78117834 6:-0.38041135 7:-0.29418702 8:-0.65663554 
5 1:-1.327085 2:-0.3953568 3:-0.018908894 4:-0.39610377 5:-0.58571694 6:-0.43540655 7:-0.47967721 8:-0.63039763 
5 1:-0.42546364 2:-0.13371091 3:-0.49724083 4:-0.10615043 5:0.30084014 6:-0.032424492 7:-0.13925986 8:0.22292926 
5 1:-1.327085 2:-0.47125748 3:-0.67807062 4:-0.74023766 5:-0.82306293 6:-0.44394028 7:-0.58403873 8:-0.59625336 
4.6693569726203279 1:1.3777791 2:0.41016976 3:-0.15923776 4:0.22146713 5:-0.17385184 6:-0.058341769 7:0.27570144 8:0.67827948 
5 1:-0.42546364 2:-0.19558888 3:-0.28693332 4:-0.4555276 5:-0.52987082 6:-0.41739088 7:-0.44389612 8:-0.13894404 
5 1:1.3777791 2:-0.42106509 3:-0.50442448 4:-0.18951857 5:-0.41817859 6:-0.40885714 7:-0.41805421 8:-0.1683305 
2.911537831744063 1:1.3777791 2:-0.36931463 3:0.076584096 4:-0.56812702 5:-0.37629401 6:-0.33700518 7:0.53722646 8:-0.61381527 
5 1:1.3777791 2:-0.15352076 3:0.33259448 4:-0.19126633 5:-0.25064025 6:-0.39853237 7:0.097292934 8:-0.28391725 
4.4672499528425487 1:-0.42546364 2:-0.4581251 3:-0.45909318 4:-0.62051612 5:-0.73231299 6:-0.43930467 7:-0.58515689 8:-0.59926198 
5 1:0.47615772 2:-0.39936329 3:-0.25398761 4:-0.34594306 5:0.00066727295 6:-0.39178966 7:-0.014026026 8:-0.27160292 
5 1:-0.42546364 2:-0.40893434 3:-0.64599191 4:-0.0059164094 5:-0.42515936 6:-0.40221979 7:-0.47371369 8:-0.18120457 
-0.65725624549212536 1:0.47615772 2:0.20183241 3:-0.29708951 4:1.0379331 5:1.9762236 6:0.51067942 7:-0.30077174 8:0.7893883 
-5 1:1.3777791 2:-0.22675045 3:-0.58678873 4:0.51491599 5:0.1333018 6:-0.20141357 7:-0.60689888 8:0.9673863 
-0.31184391375598097 1:-0.42546364 2:2.5397291 3:0.65619929 4:-0.31301964 5:0.3689026 6:2.4682767 7:2.706331 8:0.41911888 
-5 1:0.47615772 2:-0.055361822 3:0.3319752 4:-0.68229942 5:-0.52289006 6:-0.17791945 7:-0.065212869 8:-0.49466016 
-0.66035658607547576 1:-1.327085 2:-0.37677115 3:0.038684154 4:-0.55244088 5:-0.51590929 6:-0.31393248 7:0.12015308 8:-0.41489691 
-5 1:-1.327085 2:-0.46268805 3:-0.47054986 4:-0.67312369 5:-0.76721681 6:-0.44257067 7:-0.60006568 8:-0.6280887 
-0.010647169899854382 1:-0.42546364 2:0.078966799 3:2.2316788 4:-0.19152849 5:2.6533578 6:0.52132026 7:1.2845295 8:-0.49270107 
-5 1:1.3777791 2:-0.37131787 3:-0.56771491 4:-0.015529088 5:-0.42515936 6:-0.40738217 7:-0.39469711 8:-0.30350822 
-5 1:-1.327085 2:-0.46157513 3:-0.49036682 4:-0.63860543 5:-0.7497649 6:-0.44183319 7:-0.48998912 8:-0.60926737 
-5 1:-0.42546364 2:-0.45790252 3:-0.45587292 4:-0.51669919 5:-0.64156305 6:-0.43498513 7:-0.33903763 8:-0.62843853 
-5 1:-1.327085 2:-0.46046222 3:-0.45255977 4:-0.60463335 5:-0.70438993 6:-0.44193854 7:-0.61410479 8:-0.62487018 
-5 1:-0.42546364 2:-0.43842654 3:-0.54653553 4:-0.36289633 5:-0.34837095 6:-0.39084147 7:-0.57807522 8:-0.42581188 
-5 1:-1.327085 2:-0.4594606 3:-0.41289489 4:-0.61570978 5:-0.7497649 6:-0.44035822 7:-0.47868329 8:-0.62109192 
-0.22544718891835561 1:1.3777791 2:0.06049244 3:0.84201428 4:-0.051358162 5:3.4910495 6:0.52553445 7:2.3559745 8:0.73537318 
-5 1:1.3777791 2:-0.2761638 3:-0.2968418 4:0.75077617 5:0.43347467 6:-0.096269492 7:-0.20137981 8:0.30521135 
-3.5726177535303547 1:0.47615772 2:0.85678182 3:0.56792092 4:-0.12922086 5:0.34970549 6:0.0096120669 7:0.81639353 8:-0.27692047 
-0.68460445319090424 1:1.3777791 2:2.8185139 3:-0.58319691 4:1.4084582 5:1.9203775 6:2.219218 7:-0.40761806 8:2.7272156 
-5 1:-1.327085 2:-0.33403528 3:-0.37388024 4:-0.83251937 5:-0.58571694 6:-0.32257157 7:-0.19790109 8:-0.64495093 
-0.50230914999287224 1:0.47615772 2:0.6852819 3:4.0710645 4:2.3959424 5:1.7388776 6:-0.053811514 7:1.0827639 8:0.023661055 
-5 1:0.47615772 2:-0.43553297 3:-0.53551234 4:-0.29062647 5:-0.35535171 6:-0.39547708 7:-0.62031679 8:-0.18456302 
-5 1:0.47615772 2:-0.43208293 3:-0.71287416 4:-0.15867061 5:-0.48100547 6:-0.43150842 7:-0.54030629 8:-0.4140573 
-0.27533689799062505 1:0.47615772 2:-0.16375957 3:0.92583384 4:0.051344569 5:0.16646043 6:-0.13556683 7:0.59723433 8:0.25420485 
-5 1:-0.42546364 2:-0.39724875 3:-0.44048381 4:-0.2769284 5:-0.37280362 6:-0.36903303 7:-0.53707605 8:0.15953846 
-5 1:-1.327085 2:-0.46046222 3:-0.46701996 4:-0.63200764 5:-0.71311589 6:-0.4399368 7:-0.50266159 8:-0.60234056 
-5 1:0.47615772 2:-0.41104888 3:-0.50479605 4:-0.070233967 5:-0.48100547 6:-0.42097294 7:-0.47321673 8:-0.2746815 
-5 1:0.47615772 2:-0.34527571 3:-0.57031588 4:0.19918319 5:-0.26460177 6:-0.35986716 7:-0.55322724 8:-0.0046059227 
-0.035976438130401418 1:-0.42546364 2:0.26983141 3:3.3295385 4:1.0364475 5:0.88024359 6:0.13129684 7:0.64891814 8:-0.23158136 
-4.2862484146610269 1:0.47615772 2:0.0075177725 3:0.7909856 4:0.63367626 5:0.44045543 6:0.19134907 7:0.1161774 8:0.88832272 
-2.3225744489574551 1:0.47615772 2:-0.10299451 3:-0.45859776 4:1.3544524 5:0.18216715 6:0.080515837 7:-0.33307412 8:0.64945276 
-5 1:1.3777791 2:-0.18790978 3:-0.463552 4:0.37133753 5:0.25197479 6:0.068821456 7:-0.24113658 8:0.22964616 
-0.60951361395572623 1:1.3777791 2:5.5063105 3:4.4548943 4:0.80521888 5:4.5242026 6:5.3751206 7:4.4417141 8:1.178689 
-5 1:1.3777791 2:-0.3247981 3:-0.0081334202 4:-0.56048057 5:-0.55255831 6:-0.22606659 7:-0.086954853 8:-0.55854074 
-5 1:-1.327085 2:-0.4453266 3:-0.31690647 4:-0.73953856 5:-0.57873617 6:-0.42634603 7:-0.19690717 8:-0.66706074 
-0.10271354934447996 1:1.3777791 2:0.50754967 3:2.1754482 4:1.2613842 5:2.1018774 6:-0.1260849 7:1.2571967 8:1.5970962 
-0.11766031978616212 1:1.3777791 2:0.070063493 3:1.3899533 4:1.1296031 5:1.4456855 6:0.18450101 7:2.9637561 8:1.8733289 
-5 1:-0.42546364 2:-0.45489765 3:-0.745696 4:-0.39557944 5:-0.56477464 6:-0.41001604 7:-0.51446438 8:-0.26768473 
-5 1:-1.327085 2:-0.43920558 3:-0.46132259 4:-0.58687174 5:-0.7113707 6:-0.44046357 7:-0.53496397 8:-0.58211987 
-5 1:0.47615772 2:-0.331253 3:-0.64958373 4:0.41048735 5:0.16820562 6:-0.21869175 7:-0.41109678 8:0.66428593 
-5 1:-0.42546364 2:-0.43864912 3:-0.59793578 4:-0.4482744 5:-0.54383235 6:-0.43077093 7:-0.53235493 8:-0.40034361 
-0.18914444526827498 1:-0.42546364 2:0.5071045 3:-0.47259349 4:1.4789803 5:1.1873972 6:0.76511123 7:-0.49806472 8:1.6175268 
-5 1:-0.42546364 2:-0.399252 3:-0.066624424 4:-0.37113265 5:-0.57175541 6:-0.40664469 7:-0.19839805 8:-0.57743203 
-5 1:1.3777791 2:-0.34160309 3:0.0776988 4:-0.01631558 5:-0.2785633 6:-0.39537173 7:0.29110719 8:-0.082969822 
-5 1:-1.327085 2:-0.43697975 3:-0.67881375 4:-0.70952078 5:-0.77419758 6:-0.41939262 7:-0.48154081 8:-0.45624786 
-5 1:-0.42546364 2:-0.4069311 3:-0.53229209 4:-0.037026533 5:-0.36931324 6:-0.42529249 7:-0.63572254 8:-0.16665127 
-5 1:-1.327085 2:-0.27816704 3:-0.21571611 4:-0.56624818 5:-0.56477464 6:-0.39526637 7:-0.53583365 8:-0.53999928 
-0.60221231991079527 1:1.3777791 2:4.2646333 3:4.8201457 4:2.5128675 5:2.2484734 6:1.2033871 7:2.9463626 8:1.9824787 
-5 1:-1.327085 2:-0.46524775 3:-0.80861486 4:-0.58224018 5:-0.68344764 6:-0.4289799 7:-0.6262803 8:-0.53580121 
-5 1:-0.42546364 2:-0.32023516 3:-0.46887781 4:-0.36647924 5:-0.59967847 6:-0.40211443 7:-0.45035659 8:-0.48738352 
-5 1:-1.327085 2:-0.34215955 3:-0.34595071 4:-0.40558537 5:-0.57524579 6:-0.25651412 7:-0.34338603 8:-0.18463299 
-2.4361373770334236 1:-1.327085 2:1.1290004 3:0.6720219 4:0.19756652 5:-0.20875566 6:0.57663152 7:0.84745351 8:-0.43175914 
-4.5515577344381892 1:1.3777791 2:-0.068494198 3:0.7589069 4:-0.10352879 5:0.78251289 6:-0.15853417 7:0.65388773 8:-0.50081733 
-0.12176257592609094 1:1.3777791 2:-0.30343017 3:-0.062134644 4:-0.33799076 5:0.58705148 6:0.062289459 7:0.81887833 8:0.52798872 
-1.3365257192625906 1:0.47615772 2:-0.20805351 3:-0.5294434 4:0.75654377 5:0.27989785 6:-0.034742298 7:-0.52589446 8:0.3762986 
-5 1:1.3777791 2:-0.3363724 3:0.035309078 4:0.16861925 5:-0.39898149 6:-0.36313316 7:-0.026325777 8:-0.38306158 
-5 1:0.47615772 2:-0.40392623 3:-0.70915848 4:-0.014305656 5:-0.20875566 6:-0.34164079 7:-0.50949479 8:0.22488835 
-5 1:0.47615772 2:-0.42050864 3:-0.54826951 4:-0.28879132 5:-0.39025553 6:-0.41401952 7:-0.56117859 8:-0.42777098 
-5 1:0.47615772 2:-0.16743218 3:-0.57935737 4:0.96391546 5:0.4474362 6:-0.0099839231 7:-0.62180767 8:1.6505516 
-5 1:1.3777791 2:0.45624437 3:0.011559687 4:-0.085657947 5:0.26419113 6:0.30850359 7:0.49461217 8:0.96248856 
-5 1:-0.42546364 2:-0.42974582 3:-0.58319691 4:-0.3559053 5:-0.52289006 6:-0.42803171 7:-0.61087455 8:-0.29259325 
-5 1:-1.327085 2:-0.17377578 3:-0.14462275 4:-0.58529876 5:-0.63458229 6:-0.31351106 7:-0.4071211 8:-0.59905207 
-5 1:0.47615772 2:-0.076729755 3:-0.23983706 4:-0.20133779 5:-0.41817859 6:-0.18392467 7:0.52517518 8:-0.032453094 
-4.7971868311910235 1:-1.327085 2:-0.42496029 3:-0.5953348 4:-0.4242427 5:-0.45308241 6:-0.43856719 7:-0.43594476 8:-0.48766339 
-5 1:-1.327085 2:-0.45767994 3:-0.62097299 4:-0.56345176 5:-0.55081312 6:-0.43593332 7:-0.60640192 8:-0.53440186 
-5 1:-0.42546364 2:-0.45155892 3:-0.88695379 4:-0.69964594 5:-0.34662576 6:-0.37314187 7:-0.42861461 8:0.056895745 
-0.5057004593352239 1:-0.42546364 2:2.6106217 3:2.0478765 4:-0.088934997 5:1.3339933 6:2.8034103 7:4.5316638 8:0.4885269 
-5 1:0.47615772 2:-0.12313824 3:-0.060369696 4:0.11216661 5:-0.084847091 6:-0.37946315 7:-0.33754675 8:0.12007664 
-5 1:1.3777791 2:0.14763354 3:-0.023553494 4:-0.64179509 5:-0.3570969 6:-0.22153633 7:0.49771816 8:-0.51418117 
-5 1:-0.42546364 2:-0.43564426 3:-0.62406939 4:-0.37390722 5:-0.48100547 6:-0.41096423 7:-0.59944448 8:-0.31218423 
-0.54558750734582673 1:1.3777791 2:1.8201195 3:0.39353164 4:1.0024536 5:3.0442806 6:3.9441919 7:2.3823134 8:2.3505091 
