svm_type c_svc
kernel_type rbf
gamma 0.029999999999999999
nr_class 2
total_sv 151
rho -0.54777632841456458
label 0 1
probA -0.78298997076033228
probB 0.041435359790558624
nr_sv 72 79
SV
5 1:0.75243718 2:2.4067741 3:1.5103871 4:2.2617293 5:1.375857 6:1.2282652 7:1.431858 8:1.1827131 
5 1:0.75243718 2:-0.63808982 3:-0.97488274 4:-0.44841566 5:-0.79122973 6:-0.64012336 7:-0.88384725 8:-0.3077579 
5 1:-1.0963231 2:0.64333399 3:0.82568755 4:-0.095995031 5:0.1163536 6:-0.53168429 7:-0.1721765 8:-0.023699534 
5 1:0.75243718 2:1.626331 3:-0.23002526 4:3.4044295 5:0.88502111 6:0.28866912 7:-0.49742397 8:0.67697777 
5 1:1.6768173 2:-0.33425893 3:0.074460403 4:0.3462679 5:-0.092020122 6:-0.41432444 7:-0.2017015 8:-0.02258558 
5 1:0.75243718 2:1.0916247 3:0.5557239 4:0.034657993 5:1.9129981 6:3.3522184 7:2.6279751 8:1.15932 
5 1:0.75243718 2:-0.43973909 3:-0.41702601 4:-0.46896782 5:-0.40689597 6:-0.38222755 7:0.037805347 8:0.35226007 
5 1:-0.17194296 2:-0.70644177 3:-0.91543255 4:-0.89038499 5:-0.81901289 6:-0.67235473 7:-0.81771123 8:-0.64194421 
5 1:-0.17194296 2:-0.52835643 3:-0.37872939 4:-1.1357386 5:-0.43467913 6:-0.47286988 7:-0.13391209 8:-0.97835844 
5 1:-0.17194296 2:-0.48122061 3:-0.15862211 4:-0.30474627 5:-0.2587191 6:-0.43171773 7:-0.63819919 8:-0.40912775 
5 1:-1.0963231 2:-0.72625683 3:-0.85519597 4:-0.95576044 5:-1.0968445 6:-0.73484504 7:-0.81723883 8:-0.98002937 
5 1:0.75243718 2:-0.18619641 3:0.21663759 4:-0.43667157 5:-0.27261068 6:-0.62044384 7:0.00048573888 8:-0.3077579 
5 1:-1.0963231 2:-0.66846291 3:-0.78615196 4:-0.67468517 5:-1.013495 6:-0.69414116 7:-0.6873288 8:-0.36122771 
5 1:-0.17194296 2:-0.55827917 3:-0.48544092 4:-0.31453301 5:-0.48098441 6:-0.53719814 7:-0.43223275 8:-0.232009 
5 1:1.6768173 2:-0.23898653 3:-0.15075833 4:0.23587344 5:0.27379153 6:-0.33036149 7:0.20361778 8:-0.81237923 
5 1:1.6768173 2:-0.023122481 3:0.40694113 4:-0.54589162 5:0.11172307 6:0.070580634 7:0.99063635 8:-0.4102417 
5 1:-1.0963231 2:-0.72435538 3:-0.93808024 4:-0.83792805 5:-1.1199972 6:-0.72735875 7:-0.86306164 8:-0.85916532 
5 1:-1.0963231 2:-0.70594139 3:-0.86832849 4:-0.8317624 5:-0.75650077 6:-0.67419268 7:-0.88408345 8:-0.55979008 
5 1:-1.0963231 2:-0.53696297 3:-0.76484111 4:-0.29114269 5:-0.50182178 6:-0.46076631 7:-0.6448128 8:0.12501337 
5 1:-0.17194296 2:0.94501325 3:0.87436436 4:1.0426926 5:0.75536635 6:1.0690807 7:0.99347075 8:1.8555415 
5 1:1.6768173 2:-0.42097483 3:-0.079040633 4:-0.44058626 5:0.023743058 6:-0.11778685 7:0.56925546 8:-0.0003064925 
5 1:1.6768173 2:0.79459895 3:0.018470271 4:0.54748334 5:1.5888612 6:2.4765024 7:0.47099624 8:3.2992264 
5 1:-1.0963231 2:0.083308401 3:1.5081852 4:-0.84771479 5:0.75073583 6:0.63841761 7:0.85647472 8:-0.69095821 
5 1:-1.0963231 2:-0.5393648 3:-0.82358357 4:-0.87550914 5:-0.14295592 6:-0.06255869 7:-0.56733918 8:-0.42472311 
5 1:-1.0963231 2:1.3102408 3:1.065297 4:1.2043696 5:1.042459 6:0.81530912 7:0.95189954 8:1.6873344 
5 1:1.6768173 2:1.4839228 3:1.1247472 4:2.9679407 5:1.2230496 6:0.59179643 7:0.93961714 8:-0.11170193 
5 1:1.6768173 2:-0.4256784 3:-0.084388005 4:-0.088654974 5:-0.43930966 6:-0.56768122 7:-0.049588672 8:-0.25317414 
5 1:0.75243718 2:-0.6417426 3:-0.92518364 4:-0.45702799 5:-0.69861918 6:-0.6267646 7:-0.83188324 8:-0.12172752 
1.4653569574348457 1:0.75243718 2:-0.51194396 3:-0.49511337 4:-0.18603307 5:-0.84216553 6:-0.6762996 7:-0.6578038 8:-0.53027029 
5 1:1.6768173 2:-0.22812827 3:0.26853856 4:-0.5552869 5:0.24600836 6:-0.045658513 7:0.2943186 8:-0.79232805 
5 1:0.75243718 2:-0.56233225 3:-0.64869304 4:0.0076465809 5:-0.35596017 6:-0.45341451 7:-0.52860237 8:0.61905214 
5 1:-1.0963231 2:-0.37754182 3:-0.14604006 4:-0.3509397 5:-0.75418551 6:-0.61268859 7:-0.63253039 8:-0.35454398 
5 1:0.75243718 2:0.99900428 3:0.93412911 4:1.7395087 5:0.92206533 6:0.70852869 7:0.19794898 8:0.9788594 
5 1:-1.0963231 2:0.19164073 3:0.9555186 4:-0.051073879 5:0.82945479 6:0.13777789 7:0.057173751 8:-0.573993 
5 1:1.6768173 2:-0.20441025 3:0.02067213 4:0.34587643 5:-0.14295592 6:-0.29109212 7:-0.11572469 8:0.18906575 
5 1:1.6768173 2:-0.48792571 3:-0.32093058 4:-0.55841865 5:-0.1059117 6:-0.33242358 7:-0.54938798 8:0.055391226 
5 1:-1.0963231 2:-0.45164814 3:-0.087533518 4:-0.025236877 5:-0.17073908 6:-0.51187029 7:-0.39066154 8:-0.31109976 
5 1:-0.17194296 2:1.6033636 3:1.5487624 4:0.51890605 5:1.5286644 6:1.1449298 7:2.2037598 8:-0.10613216 
5 1:-1.0963231 2:-0.7110953 3:-0.82987459 4:-0.86063329 5:-1.0320171 6:-0.71825866 7:-0.87439924 8:-0.82240482 
5 1:1.6768173 2:1.1628288 3:3.2577196 4:-0.11253463 5:1.4869896 6:1.4829782 7:0.93867234 8:0.28820769 
5 1:-0.17194296 2:-0.68997926 3:-0.70185221 4:-0.75845969 5:-1.0273866 6:-0.70678267 7:-0.77236082 8:-0.67313494 
4.4810944598095146 1:1.6768173 2:-0.59405636 3:-0.10609205 4:-0.88842764 5:-0.55044231 6:-0.50496677 7:0.46438264 8:-0.56285345 
5 1:-1.0963231 2:-0.55802898 3:-0.23663084 4:-0.98120597 5:-0.79586025 6:-0.60179537 7:-0.21965271 8:-0.91597699 
5 1:-1.0963231 2:-0.72655706 3:-0.91983626 4:-0.89508263 5:-1.0505392 6:-0.71763106 7:-0.85266884 8:-0.68427448 
5 1:-1.0963231 2:-0.71810063 3:-0.93839479 4:-0.95262868 5:-1.0412782 6:-0.70548266 7:-0.85833764 8:-0.69875589 
5 1:-0.17194296 2:-0.69223097 3:-0.74903491 4:-0.59639122 5:-0.95792871 6:-0.69485841 7:-0.82054563 8:-0.52720691 
5 1:-0.17194296 2:-0.55272495 3:-0.71003055 4:0.20298998 5:-0.31891595 6:-0.44247646 7:-0.71850721 8:0.45195898 
5 1:0.75243718 2:-0.35612555 3:-0.24072 4:-0.38656344 5:-0.4589894 6:-0.33475464 7:0.54185625 8:-0.080511208 
5 1:0.75243718 2:-0.59405636 3:-0.9648171 4:0.25622986 5:-0.5133981 6:-0.47322851 7:-0.90557765 8:0.32831005 
5 1:-0.17194296 2:-0.69443264 3:-0.57414438 4:-0.77803318 5:-1.0227561 6:-0.69553083 7:-0.56544958 8:-0.60963954 
5 1:-1.0963231 2:-0.69108009 3:-0.70145902 4:-0.71608309 5:-0.95329818 6:-0.70871028 7:-0.60347779 8:-0.66756516 
5 1:0.75243718 2:1.2001571 3:2.8239533 4:0.89784876 5:1.9500424 6:1.3319525 7:0.50500904 8:-0.40912775 
5 1:-0.17194296 2:-0.23243154 3:0.14334714 4:0.14309511 5:-0.059606432 6:-0.49864601 7:-0.26311352 8:-0.4859906 
5 1:-0.17194296 2:-0.42262608 3:-0.28798134 4:-0.37961485 5:-0.29807858 6:-0.44516614 7:-0.14832029 8:-0.62412094 
5 1:-1.0963231 2:-0.72010215 3:-0.82106716 4:-0.95928366 5:-1.1338887 6:-0.73197604 7:-0.83471764 8:-0.82017691 
2.7337093851705609 1:0.75243718 2:-0.69513317 3:-0.71726523 4:-0.83323041 5:-0.61526969 6:-0.63425088 7:-0.6703224 8:-0.62412094 
5 1:0.75243718 2:-0.31549467 3:0.31194664 4:0.46566617 5:0.088570438 6:-0.24491922 7:0.15732257 8:0.25701697 
5 1:-1.0963231 2:-0.72865865 3:-0.87241766 4:-0.91886441 5:-1.1223124 6:-0.73677264 7:-0.88054045 8:-0.86083625 
5 1:-0.17194296 2:-0.69308162 3:-0.6980776 4:-0.73340563 5:-0.9394066 6:-0.71534483 7:-0.58812478 8:-0.77561874 
5 1:1.6768173 2:-0.50398791 3:-0.34546559 4:0.046010615 5:0.042265166 6:-0.29593355 7:-0.643868 8:-0.027041398 
5 1:-1.0963231 2:-0.71289667 3:-0.86903623 4:-0.63358084 5:-0.9868695 6:-0.71274481 7:-0.79834283 8:-0.58791743 
5 1:0.75243718 2:-0.40736449 3:1.0234617 4:-0.90134614 5:-0.059606432 6:-0.32399591 7:0.66373548 8:-0.77673269 
5 1:0.75243718 2:-0.34416646 3:-0.84686036 4:1.1311647 5:0.083939911 6:-0.27311607 7:-0.72890001 8:1.4366947 
5 1:-1.0963231 2:-0.23838607 3:0.1713422 4:0.73225706 5:0.037634639 6:-0.33551672 7:-0.36987594 8:0.26927047 
5 1:-1.0963231 2:-0.56663552 3:-0.091544047 4:-0.66049439 5:-0.57127969 6:-0.64527858 7:-0.69583201 8:-0.5617395 
5 1:0.75243718 2:1.0613517 3:3.9173337 4:-0.28595572 5:1.3990096 6:0.62138295 7:-0.011796664 8:-0.42695102 
5 1:0.75243718 2:-0.27411322 3:0.64568557 4:-0.19630915 5:0.22285573 6:-0.26849878 7:-0.55033278 8:-0.50604178 
5 1:-0.17194296 2:-0.61767431 3:-0.63233637 4:-0.58895329 5:-0.50413704 6:-0.54701548 7:-0.58340078 8:-0.34340444 
5 1:-1.0963231 2:-0.39115216 3:0.070056684 4:-0.032674802 5:-0.23093594 6:-0.46269391 7:-0.55411198 8:-0.18410896 
5 1:0.75243718 2:-0.47876875 3:-0.11615769 4:-0.68956102 5:-0.23556646 6:-0.54078439 7:-0.15257189 8:-0.87364672 
5 1:-1.0963231 2:-0.72655706 3:-0.8656548 4:-0.93413173 5:-1.1153666 6:-0.72982429 7:-0.86164444 8:-0.89314093 
5 1:1.6768173 2:-0.22002211 3:-0.038227602 4:-0.17800794 5:-0.15221698 6:-0.30386811 7:0.72207689 8:-0.13036067 
-5 1:-1.0963231 2:-0.67957135 3:-0.7704244 4:-0.61439883 5:-0.88384027 6:-0.70552749 7:-0.76385762 8:-0.7032117 
-5 1:-0.17194296 2:-0.59020343 3:-0.5062013 4:-0.53219018 5:-0.76344656 6:-0.62994739 7:-0.52860237 8:-0.23869273 
-5 1:-0.17194296 2:-0.64509515 3:-0.66630791 4:-0.63358084 5:-0.21704436 6:-0.4613939 7:-0.48797596 8:-0.013673945 
-5 1:-0.17194296 2:0.025664595 3:0.82214885 4:-0.17556125 5:0.13487571 6:-0.32955459 7:0.54846985 8:-0.19747642 
-5 1:-1.0963231 2:-0.72340466 3:-0.74463119 4:-1.0622402 5:-1.0598003 6:-0.72094834 7:-0.653316 8:-0.89926767 
-0.54181766024217948 1:0.75243718 2:2.8187872 3:0.50759755 4:2.4418054 5:2.0241308 6:2.7014047 7:0.97646434 8:4.4621947 
-5 1:-1.0963231 2:-0.72715751 3:-0.93084556 4:-0.9213111 5:-1.0736919 6:-0.72785186 7:-0.83471764 8:-0.78675828 
-5 1:0.75243718 2:0.10622582 3:1.6575971 4:-0.50048113 5:0.66738634 6:0.3517422 7:1.9439397 8:0.028656321 
-3.5825940038543136 1:-1.0963231 2:-0.34061376 3:-0.069918645 4:-0.083957337 5:-0.041084323 6:-0.41028992 7:0.10157936 8:-0.18522292 
-5 1:-1.0963231 2:-0.53285986 3:-0.050416464 4:-0.88960205 5:-0.53307784 6:-0.66849951 7:-0.23382471 8:-0.80402458 
-5 1:-1.0963231 2:0.90813523 3:2.9158023 4:-0.058120334 5:0.99152324 6:0.69274922 7:-0.34342153 8:0.47535203 
-5 1:-1.0963231 2:0.91078724 3:0.54911832 4:1.5273321 5:0.82019373 6:1.1478436 7:-0.14879269 8:0.41965431 
-4.481347562854479 1:0.75243718 2:0.30472667 3:0.81868878 4:0.59680853 5:0.97763166 6:0.49976444 7:0.084572956 8:0.60011492 
-3.816169540709764 1:-0.17194296 2:1.5611315 3:0.12541771 4:3.4318323 5:1.8759539 6:0.46354337 7:0.61555067 8:0.83850115 
-5 1:0.75243718 2:-0.57479172 3:-0.57320073 4:-0.6406273 5:-0.1059117 6:-0.24258816 7:-0.38121354 8:-0.23646482 
-5 1:-1.0963231 2:-0.16678165 3:-0.32061603 4:0.409686 5:-0.068867486 6:-0.46856639 7:-0.2092599 8:-0.43029288 
-5 1:-0.17194296 2:-0.72850854 3:-0.98557749 4:-0.89860585 5:-1.0968445 6:-0.73000361 7:-0.90746725 8:-0.90706536 
-5 1:1.6768173 2:1.7492745 3:1.2999523 4:2.3607712 5:1.2600938 6:0.76658102 7:1.3175372 8:0.18906575 
-5 1:-1.0963231 2:-0.61327096 3:-0.70373952 4:-0.34115295 5:-0.68935813 6:-0.60533678 7:-0.672212 8:-0.12284147 
-5 1:1.6768173 2:0.40550325 3:1.1348128 4:0.40772865 5:0.58866737 6:0.14840214 7:0.54752505 8:0.94098496 
-3.2469135303871708 1:-0.17194296 2:1.6100186 3:1.4160217 4:-0.025236877 5:1.4962507 6:1.7191772 7:2.4068918 8:0.43970549 
-5 1:-1.0963231 2:-0.46075506 3:-0.470657 4:-0.25228932 5:-0.13369487 6:-0.19856701 7:-0.47947276 8:0.47535203 
-5 1:1.6768173 2:-0.12555032 3:0.33144882 4:0.44374386 5:0.25526942 6:-0.075155374 7:0.44265223 8:1.0089362 
-5 1:-1.0963231 2:-0.68892846 3:-0.58515368 4:-0.85436977 5:-0.89310132 6:-0.71144479 7:-0.60702079 8:-0.7789606 
-5 1:-0.17194296 2:-0.60491461 3:-0.69115747 4:-0.45233036 5:-0.64305286 6:-0.63958542 7:-0.86306164 8:-0.31221372 
-5 1:0.75243718 2:-0.17563839 3:0.67336608 4:-0.27616898 5:0.19044204 6:-0.29315421 7:-0.74968562 8:-0.031497215 
-0.69206404851395076 1:0.75243718 2:2.3020946 3:2.3260186 4:1.9035345 5:1.9963476 6:1.4770609 7:0.96512674 8:1.8354903 
-5 1:0.75243718 2:-0.55532693 3:-0.11835955 4:-0.40966016 5:-0.17073908 6:-0.50268054 7:0.21117618 8:-0.29216254 
-5 1:-1.0963231 2:-0.71800055 3:-0.9053669 4:-0.79564931 5:-1.0227561 6:-0.73009326 7:-0.89612965 8:-0.68984425 
-5 1:-1.0963231 2:-0.69848572 3:-0.77899592 4:-0.62780667 5:-0.91856922 6:-0.69902742 7:-0.61977559 8:-0.60629767 
-5 1:-0.17194296 2:-0.65210047 3:-0.6858101 4:-0.83871098 5:-0.5133981 6:-0.50675989 7:-0.24421751 8:-0.39353239 
-5 1:0.75243718 2:-0.70328937 3:-0.7949594 4:-0.79056021 5:-1.0551698 6:-0.70382402 7:-0.69961121 8:-0.69207216 
-1.9572970249889061 1:-1.0963231 2:2.7018484 3:2.2197003 4:1.3617404 5:2.1815687 6:3.0521394 7:2.7489095 8:1.1036223 
-5 1:1.6768173 2:0.4326739 3:0.89166469 4:0.23665638 5:0.81093268 6:0.48075734 7:1.0388212 8:0.65804054 
-5 1:-1.0963231 2:-0.72585652 3:-0.8808319 4:-0.97729127 5:-1.1616719 6:-0.72960015 7:-0.77236082 8:-0.84802577 
-5 1:0.75243718 2:-0.40015901 3:-0.1677441 4:-0.076519412 5:-0.34206859 6:-0.46314219 7:-0.44357035 8:-0.37013935 
-5 1:1.6768173 2:-0.14406439 3:0.1216431 4:-0.29965716 5:-0.15221698 6:-0.42333488 7:-0.025968667 8:0.12891222 
-5 1:-0.17194296 2:-0.66996405 3:-0.96576075 4:-0.33997854 5:-0.74492445 6:-0.63344398 7:-0.88006805 8:0.1244564 
-5 1:1.6768173 2:0.01565699 3:0.80453398 4:0.55805303 5:0.68590844 6:-0.034944608 7:1.3619428 8:-0.12172752 
-3.2240219953528264 1:-1.0963231 2:-0.48772556 3:-0.56344964 4:0.40655424 5:-0.01330116 6:-0.35093757 7:-0.61079999 8:0.25924488 
-5 1:-0.17194296 2:-0.61557271 3:-0.47034245 4:-0.39047814 5:-0.74492445 6:-0.66805123 7:-0.78180882 8:-0.57510695 
-1.7052726603045212 1:1.6768173 2:-0.26595702 3:-0.15988032 4:0.86183354 5:0.67201686 6:-0.12464555 7:-0.013686264 8:0.82624766 
-5 1:-0.17194296 2:-0.26375535 3:-0.2511002 4:-0.1129261 5:-0.2077833 6:-0.49402872 7:0.12519936 8:0.15230526 
-5 1:-0.17194296 2:-0.68247355 3:-0.68801195 4:-0.8618077 5:-0.84679605 6:-0.67647891 7:-0.44640475 8:-0.63191862 
-5 1:-1.0963231 2:-0.69918625 3:-0.69398843 4:-0.82461807 5:-0.97645081 6:-0.70844131 7:-0.79881523 8:-0.61966513 
-4.6069625725939343 1:1.6768173 2:1.6803221 3:2.1376024 4:2.1834354 5:1.6351665 6:2.4753817 7:2.4286222 8:1.7196391 
-0.42694916940578881 1:-1.0963231 2:2.9781583 3:1.8828158 4:2.9060885 5:2.139894 6:3.0199081 7:0.55035945 8:3.527587 
-5 1:-1.0963231 2:1.6743175 3:3.1351232 4:-0.58944263 5:0.85608032 6:0.044849331 7:0.31746621 8:-0.48069932 
-5 1:0.75243718 2:-0.54822153 3:-0.52601803 4:-0.33606385 5:-0.64305286 6:-0.53002565 7:-0.71378321 8:-0.42695102 
-5 1:0.75243718 2:-0.41812266 3:0.17260041 4:-0.14463515 5:0.005220949 6:-0.54593961 7:-0.055257473 8:-0.33115094 
-5 1:-0.17194296 2:-0.39660631 3:-0.33508539 4:-0.61831352 5:0.81093268 6:0.18435424 7:0.16015697 8:-0.37570912 
-5 1:-1.0963231 2:-0.67031431 3:-0.602454 4:-0.78351375 5:-0.68009707 6:-0.61690242 7:-0.72417601 8:-0.67870471 
-5 1:1.6768173 2:-0.39455475 3:0.34717638 4:-0.072213245 5:0.060787275 6:-0.69423082 7:-0.41995035 8:-0.7277187 
-5 1:0.75243718 2:-0.55237469 3:-0.41026315 4:-0.47151237 5:-0.44857071 6:-0.42553145 7:-0.23760391 8:0.28597978 
-5 1:-0.17194296 2:-0.69143036 3:-0.90631056 4:-0.72870799 5:-0.98571187 6:-0.67948239 7:-0.86022724 8:-0.67090703 
-5 1:0.75243718 2:-0.30473649 3:-0.17686609 4:-0.026019816 5:0.52383999 6:-0.27033673 7:-0.087380679 8:-0.072713527 
-5 1:-1.0963231 2:-0.64744694 3:-0.54080194 4:-0.41083456 5:-0.70788024 6:-0.6627167 7:-0.46907996 8:-0.34897421 
-5 1:-1.0963231 2:-0.69007933 3:-0.76885164 4:-0.92796608 5:-0.68935813 6:-0.65186831 7:-0.59379359 8:-0.72103497 
-5 1:-0.17194296 2:-0.67251599 3:-0.59364656 4:-0.59091064 5:-0.7865992 6:-0.6437096 7:-0.43601195 8:-0.57510695 
-5 1:1.6768173 2:0.54450889 3:0.50036287 4:0.71738121 5:0.7461053 6:1.1631748 7:0.62783307 8:1.1693456 
-5 1:0.75243718 2:-0.36858501 3:-0.050101913 4:-0.68094868 5:-0.26334963 6:-0.46775948 7:0.33966901 8:-0.39353239 
-5 1:-0.17194296 2:-0.32740372 3:-0.18598808 4:0.11843252 5:-0.40226544 6:-0.26796084 7:-0.26311352 8:-0.60741163 
-5 1:0.75243718 2:0.28781382 3:1.6028652 4:-0.41200897 5:0.83408531 6:0.59004814 7:1.3080892 8:-0.40467193 
-0.71817976623620172 1:-1.0963231 2:3.2218936 3:1.6594844 4:2.3885655 5:1.9593034 6:2.5397548 7:2.8632303 8:1.0679758 
-5 1:-1.0963231 2:-0.33310805 3:0.10497188 4:0.36075228 5:0.07004833 6:-0.42158659 7:-0.84983444 8:0.028656321 
-3.456820934260814 1:-0.17194296 2:3.5717594 3:5.5753336 4:-0.42571041 5:2.7418625 6:4.1904582 7:0.2820362 8:-0.4224952 
-5 1:-0.17194296 2:-0.72015219 3:-0.72607266 4:-1.0446241 5:-1.0505392 6:-0.71552414 7:-0.55222238 8:-0.866963 
-5 1:-0.17194296 2:-0.67316648 3:-0.68549554 4:-1.0356203 5:-0.78196867 6:-0.6242094 7:-0.50687197 8:-0.91263513 
-5 1:-1.0963231 2:-0.64804739 3:-0.46090591 4:-0.69347571 5:-0.85605711 6:-0.67818237 7:-0.1865847 8:-0.43363475 
-2.6779010665777929 1:1.6768173 2:-0.3385622 3:-0.21052308 4:0.55296392 5:0.3710326 6:0.1020051 7:0.17527378 8:1.0935967 
-5 1:-0.17194296 2:-0.48437301 3:-0.64303112 4:-0.51222523 5:0.35714101 6:-0.0047304987 7:-0.15918549 8:-0.22866714 
-5 1:0.75243718 2:-0.55167415 3:-0.83522196 4:-0.20961912 5:-0.42078755 6:-0.56315358 7:-0.59946239 8:-0.31778349 
-5 1:1.6768173 2:-0.45084753 3:0.170084 4:-0.59482534 5:-0.18926119 6:-0.61573689 7:-0.53899517 8:-0.51161155 
-5 1:0.75243718 2:0.59224517 3:0.52804338 4:0.79410928 5:-0.068867486 6:-6.8380909e-05 7:0.64294987 8:0.76943598 
-2.6247597867063837 1:1.6768173 2:2.7488341 3:0.10025361 4:3.9156889 5:2.1121108 6:2.825444 7:-0.27634072 8:3.8595454 
-5 1:1.6768173 2:-0.50638974 3:-0.31055039 4:0.14035482 5:-0.35596017 6:-0.57158126 7:-0.46624556 8:-0.22198341 
-5 1:1.6768173 2:0.36927572 3:-0.94657312 4:1.0266423 5:0.50531788 6:0.23362027 7:-0.83282804 8:1.916809 
-0.9210894794258947 1:-0.17194296 2:1.8669639 3:1.856079 4:-0.057728865 5:2.0889582 6:0.62837613 7:1.8532389 8:-0.13732288 
-5 1:-0.17194296 2:-0.37934319 3:-0.69052836 4:0.83169037 5:-0.36985175 6:-0.68625142 7:-0.46719036 8:-0.69652798 
