svm_type c_svc
kernel_type rbf
gamma 0.10000000000000001
nr_class 2
total_sv 81
rho 0.54700420852494447
label 0 1
probA -1.8467554262537715
probB 0.39424492153528651
nr_sv 36 45
SV
2.3269394954048734 1:0.42493086 2:0.26327968 3:-0.032998194 4:-0.60159391 5:-0.61901214 6:-0.087311821 7:0.058963467 8:-0.51542682 
10 1:1.3290526 2:-0.346118 3:0.47423812 4:-0.0055021711 5:-0.075312961 6:-0.36111378 7:-0.46381527 8:-0.21813638 
10 1:-0.47919091 2:-0.26560501 3:-0.37173263 4:-0.71611472 5:-0.6930067 6:-0.41657541 7:-0.32777981 8:-0.67910487 
10 1:-1.3833127 2:-0.54238511 3:-0.71094252 4:-0.77396909 5:-0.79702805 6:-0.52666993 7:-0.60261039 8:-0.65439442 
10 1:0.42493086 2:-0.52138754 3:-0.47608588 4:-0.38891242 5:-0.49997741 6:-0.51953004 7:-0.59735079 8:-0.49067812 
10 1:-1.3833127 2:-0.53095012 3:-0.69491012 4:-0.7298072 5:-0.78094227 6:-0.51672508 7:-0.62085668 8:-0.60321395 
10 1:-0.47919091 2:-0.42830276 3:-0.65840454 4:-0.53324615 5:-0.70694771 6:-0.42836897 7:-0.58163691 8:-0.31277052 
10 1:0.42493086 2:-0.47310649 3:-0.54284953 4:-0.23013593 5:-0.48496402 6:-0.46343092 7:-0.43625104 8:-0.50104427 
10 1:-1.3833127 2:-0.51610471 3:-0.62513208 4:-0.71290522 5:-0.76163934 6:-0.52067752 7:-0.59881179 8:-0.67218135 
10 1:1.3290526 2:-0.30907132 3:-0.32124863 4:-0.55300333 5:-0.41633138 6:-0.091264259 7:0.049970192 8:-0.38980899 
10 1:1.3290526 2:-0.48688197 3:-0.017831123 4:0.23557507 5:-0.36914644 6:-0.52424747 7:-0.5361186 8:-0.43892388 
7.0355138434665641 1:1.3290526 2:-0.52346054 3:-0.059633283 4:-0.72740008 5:-0.34769874 6:-0.51041393 7:-0.48066548 8:-0.6525201 
10 1:-0.47919091 2:-0.45230954 3:-0.55870125 4:-0.77680346 5:-0.74662595 6:-0.45437856 7:-0.32274748 8:-0.604438 
10 1:-1.3833127 2:-0.52794092 3:-0.67211672 4:-0.68994896 5:-0.72839541 6:-0.51780882 7:-0.58926658 8:-0.61166752 
10 1:-0.47919091 2:-0.51028691 3:-0.51158349 4:-0.47355778 5:-0.65225607 6:-0.50735398 7:-0.58494851 8:-0.6343124 
10 1:-1.3833127 2:-0.54144891 3:-0.61367357 4:-0.675402 5:-0.75520503 6:-0.52737117 7:-0.60264286 8:-0.6552742 
10 1:-0.47919091 2:-0.52901086 3:-0.41413386 4:-0.72014744 5:-0.66512469 6:-0.50722648 7:-0.18482895 8:-0.60401723 
1.4645680060542581 1:-0.47919091 2:-0.50172739 3:-0.56657482 4:-0.60088532 5:-0.74662595 6:-0.5125814 7:-0.53180053 8:-0.55842148 
10 1:-1.3833127 2:-0.5091501 3:-0.55893898 4:-0.61515093 5:-0.71659917 6:-0.52278124 7:-0.57001383 8:-0.64165668 
10 1:1.3290526 2:-0.47230404 3:-0.44722566 4:-0.41353595 5:-0.56217574 6:-0.36971989 7:-0.30508559 8:-0.58779861 
10 1:-0.47919091 2:-0.45431567 3:-0.48689777 4:-0.57171847 5:-0.65654561 6:-0.42894271 7:-0.33781202 8:-0.62054187 
10 1:1.3290526 2:-0.46768992 3:-0.61116316 4:-0.38802668 5:-0.42491046 6:-0.51959379 7:-0.59027305 8:-0.35813677 
10 1:-0.47919091 2:-0.5170409 3:-0.5323134 4:-0.21442189 5:-0.45493724 6:-0.52258999 7:-0.5693645 8:-0.55352529 
10 1:-1.3833127 2:-0.53904154 3:-0.6321308 4:-0.70123431 5:-0.75949457 6:-0.52705242 7:-0.62894088 8:-0.64127416 
10 1:1.3290526 2:-0.18255092 3:-0.48707844 4:-0.41883996 5:-0.6222293 6:-0.22156722 7:-0.24427547 8:0.0049461992 
5.0134829063076864 1:1.3290526 2:-0.4303089 3:-0.51915276 4:-0.60971145 5:-0.69515147 6:-0.28639995 7:-0.17567334 8:-0.23052986 
10 1:-0.47919091 2:-0.085052646 3:-0.55939542 4:-0.28038337 5:-0.68978955 6:-0.45297608 7:-0.47732141 8:-0.49063987 
10 1:1.3290526 2:-0.51235992 3:-0.77011787 4:-0.45144557 5:-0.27477657 6:-0.46744711 7:-0.52569679 8:0.21138939 
10 1:0.42493086 2:-0.33194129 3:-0.52478217 4:-0.087188123 5:-0.1653933 6:-0.14353844 7:-0.59076005 8:0.23981024 
6.28682369470752 1:1.3290526 2:-0.51717465 3:-0.58761854 4:-0.24418271 5:-0.51070126 6:-0.5158326 7:-0.62286961 8:-0.43815885 
5.0084923029431945 1:0.42493086 2:-0.11995944 3:-0.34378528 4:-0.49050144 5:-0.61579499 6:-0.34976645 7:-0.23755487 8:-0.48819177 
10 1:-1.3833127 2:-0.53964339 3:-0.70676801 4:-0.77004058 5:-0.79059374 6:-0.52654243 7:-0.60907127 8:-0.66816495 
5.0129778022252287 1:-1.3833127 2:-0.54372253 3:-0.73177703 4:-0.81061783 5:-0.8141862 6:-0.52794491 7:-0.62088914 8:-0.66839446 
10 1:0.42493086 2:-0.44388376 3:-0.65741559 4:0.17676202 5:-0.051720492 6:-0.49071549 7:-0.62027228 8:-0.054879103 
10 1:-1.3833127 2:-0.52814153 3:-0.65964073 4:-0.73586149 5:-0.77665273 6:-0.51819131 7:-0.58819518 8:-0.62991348 
10 1:0.42493086 2:-0.35521249 3:-0.0053456273 4:0.26515874 5:-0.28228326 6:-0.47216453 7:-0.40352461 8:-0.26870483 
-0.13811010497063259 1:0.42493086 2:2.1283188 3:1.4459672 4:-0.22659298 5:1.4882243 6:3.3474843 7:1.1047482 8:0.20599593 
-10 1:-1.3833127 2:-0.34645235 3:-0.41629244 4:-0.71669827 5:-0.70373055 6:-0.40331561 7:-0.26836576 8:-0.62593532 
-10 1:-1.3833127 2:-0.53991087 3:-0.64365587 4:-0.70579847 5:-0.75091549 6:-0.52443871 7:-0.5683905 8:-0.65408841 
-10 1:-0.47919091 2:-0.50781267 3:-0.68578134 4:-0.65521758 5:-0.72517825 6:-0.49205422 7:-0.49589236 8:-0.46967806 
-10 1:0.42493086 2:-0.48768443 3:-0.23517193 4:-0.22917725 5:-0.4860364 6:-0.51984879 7:-0.45248439 8:-0.60975495 
-0.98619360315915638 1:-0.47919091 2:-0.170046 3:-0.51499727 4:-0.087594521 5:-0.095688276 6:0.039867434 7:-0.56572823 8:0.26157532 
-10 1:1.3290526 2:-0.46367765 3:-0.45958753 4:-0.59564383 5:-0.48496402 6:-0.48765554 7:-0.50741804 8:-0.46646494 
-10 1:-0.47919091 2:-0.52225686 3:-0.59043324 4:-0.35605672 5:-0.60507114 6:-0.52552245 7:-0.57079303 8:-0.56928489 
-10 1:0.42493086 2:-0.50808016 3:-0.58894982 4:-0.29265867 5:-0.36914644 6:-0.48912177 7:-0.59962346 8:-0.43203861 
-10 1:-1.3833127 2:-0.5340262 3:-0.70882198 4:-0.77393783 5:-0.79059374 6:-0.51749007 7:-0.57942917 8:-0.63775503 
-10 1:-0.47919091 2:-0.50754519 3:-0.62401951 4:-0.36576858 5:-0.48496402 6:-0.47968692 7:-0.61364907 8:-0.087928374 
-1.6206438728727346 1:-1.3833127 2:-0.4877513 3:-0.47242487 4:-0.25764594 5:-0.5578862 6:-0.47726445 7:-0.57212417 8:-0.24475941 
-0.53002343254074191 1:-0.47919091 2:0.6372237 3:0.9826821 4:-0.76668519 5:0.54667032 6:0.18980508 7:-0.40858942 8:-0.53944875 
-0.17604465560400712 1:-0.47919091 2:3.8097294 3:0.20780165 4:1.5092048 5:2.1316553 6:3.413337 7:-0.14314171 8:2.0717497 
-0.16599236075846635 1:0.42493086 2:3.7278121 3:4.2003454 4:2.212794 5:2.852298 6:2.7164329 7:2.3422488 8:4.2560618 
-10 1:-0.47919091 2:-0.43559172 3:-0.52957477 4:-0.32462862 5:-0.6222293 6:-0.4680846 7:-0.4246929 8:-0.51726289 
-0.18091643049288758 1:0.42493086 2:3.6844127 3:2.110922 4:2.0450663 5:2.5220034 6:4.9890848 7:0.2426925 8:2.1630942 
-10 1:-1.3833127 2:-0.52626914 3:-0.51234422 4:-0.48652082 5:-0.34233682 6:-0.50442153 7:-0.61046733 8:-0.54373291 
-10 1:-1.3833127 2:-0.52085257 3:-0.59142219 4:-0.66950402 5:-0.52785942 6:-0.50397528 7:-0.46858787 8:-0.61533967 
-0.3142283475816709 1:0.42493086 2:3.1764587 3:4.7602814 4:4.2170644 5:2.8351398 6:0.64038301 7:1.3260412 8:1.7036176 
-10 1:1.3290526 2:-0.39346284 3:-0.30168833 4:-0.23366847 5:-0.42383808 6:-0.34619651 7:-0.51076211 8:-0.10376448 
-0.08196089858693742 1:1.3290526 2:1.8356902 3:1.8651679 4:1.8393666 5:2.8351398 6:2.3718059 7:3.3749494 8:3.2546382 
-10 1:1.3290526 2:-0.53115074 3:-0.53311217 4:-0.69930653 5:-0.68657239 6:-0.52309998 7:-0.57624744 8:-0.68511035 
-10 1:-1.3833127 2:-0.52854276 3:-0.59933379 4:-0.41691218 5:-0.6222293 6:-0.50913895 7:-0.61455814 8:-0.41658502 
-10 1:1.3290526 2:-0.47939239 3:-0.28534213 4:0.050466096 5:-0.24046025 6:-0.47930442 7:-0.15651799 8:-0.49614808 
-10 1:0.42493086 2:-0.5247311 3:-0.43231533 4:-0.41603686 5:-0.54501758 6:-0.51927504 7:-0.28131997 8:-0.55321928 
-10 1:1.3290526 2:-0.23939148 3:-0.29476568 4:0.093075339 5:-0.25761841 6:-0.35378264 7:-0.23589906 8:-0.083223443 
-10 1:0.42493086 2:-0.52539981 3:-0.4168725 4:-0.38827677 5:-0.52356988 6:-0.52035878 7:-0.31547494 8:-0.51619185 
-10 1:0.42493086 2:-0.46180525 3:-0.47506841 4:0.067972462 5:-0.14180083 6:-0.41759539 7:-0.43677051 8:0.0028041167 
-10 1:-0.47919091 2:-0.48327092 3:-0.40734434 4:-0.63547082 5:-0.5793339 6:-0.41842413 7:0.084904357 8:-0.43142659 
-0.21260291844726564 1:-0.47919091 2:5.1726323 3:3.4386256 4:2.2807354 5:2.526293 6:3.7744113 7:2.2713415 8:1.5492346 
-10 1:-1.3833127 2:-0.52840902 3:-0.71448943 4:-0.71900119 5:-0.74769834 6:-0.52208 7:-0.61335687 8:-0.59655819 
-10 1:1.3290526 2:-0.3242511 3:-0.41284062 4:-0.085833464 5:-0.043141412 6:-0.31859319 7:-0.17911481 8:0.042279636 
-10 1:-0.47919091 2:-0.51249366 3:-0.59187863 4:-0.70747616 5:-0.7359021 6:-0.51181641 7:-0.58218884 8:-0.59590792 
-0.074582243402095363 1:-0.47919091 2:0.90123138 3:2.6632126 4:1.7221156 5:2.5391616 6:1.9393964 7:3.5802688 8:3.1789003 
-10 1:-1.3833127 2:-0.53288939 3:-0.4799561 4:-0.54798067 5:-0.66941423 6:-0.52615994 7:-0.55751415 8:-0.64846544 
-10 1:0.42493086 2:-0.52707159 3:-0.60701717 4:-0.37806472 5:-0.6007816 6:-0.52086877 7:-0.61533734 8:-0.38537182 
-10 1:-1.3833127 2:-0.52626914 3:-0.60754018 4:-0.69958788 5:-0.75627742 6:-0.51729883 7:-0.60481813 8:-0.63618672 
-0.22626860189042425 1:1.3290526 2:1.22656 3:3.3658997 4:2.0129713 5:2.0287063 6:-0.20454623 7:-0.50676871 8:0.48217156 
-0.30471343952665292 1:-1.3833127 2:2.4098467 3:2.1942601 4:2.0623643 5:2.4962662 6:3.7450868 7:4.4386883 8:4.2395371 
-10 1:1.3290526 2:0.031972037 3:-0.20121481 4:-0.52300284 5:-0.63938746 6:-0.31636198 7:-0.20801017 8:-0.50184755 
-10 1:1.3290526 2:-0.52299245 3:-0.66411002 4:-0.5938932 5:-0.60185398 6:-0.49071549 7:-0.60095459 8:-0.23263369 
-10 1:-0.47919091 2:-0.44281382 3:-0.13499318 4:-0.52285695 5:-0.48496402 6:-0.46489715 7:-0.2384964 8:-0.45782011 
-10 1:-1.3833127 2:-0.408442 3:-0.52730209 4:-0.77390657 5:-0.71016486 6:-0.47292952 7:-0.4257643 8:-0.65531245 
-7.1365171412756494 1:1.3290526 2:0.10934207 3:0.16948934 4:0.45247685 5:0.22495483 6:-0.093049231 7:-0.1669398 8:0.38524233 
