svm_type c_svc
kernel_type rbf
gamma 0.5
nr_class 2
total_sv 152
rho -0.35775473243442041
label 1 0
probA -1.3520649061794945
probB -0.16364649600048251
nr_sv 81 71
SV
1 1:-1.0676686 2:-0.26552282 3:0.96469192 4:-0.048404646 5:-0.083774202 6:-0.12041281 7:1.0765639 8:-0.51305601 
0.529050728592945 1:-1.0676686 2:1.9906697 3:0.44493245 4:0.057637543 5:1.5134565 6:1.4539982 7:0.96866947 8:0.36570819 
0.81121048365114901 1:1.7223758 2:0.81648426 3:2.9744766 4:-0.1500819 5:2.0853046 6:1.1915963 7:0.54560993 8:0.22805114 
0.59544078498524233 1:-1.0676686 2:-0.16757151 3:0.90157054 4:0.049934721 5:1.2899757 6:0.1298682 7:0.53425263 8:0.16082328 
1 1:0.79236103 2:-0.11911637 3:1.0519798 4:0.048137395 5:0.23830113 6:-0.4553545 7:-0.094658033 8:-0.44982981 
0.02891311862663638 1:-0.13765377 2:-0.24271483 3:0.11282383 4:-0.48675943 5:-0.60303852 6:-0.40502072 7:-0.3647489 8:-0.68532741 
1 1:0.79236103 2:-0.37085597 3:-0.22189983 4:-0.49407711 5:-0.42556844 6:-0.24532201 7:0.05369674 8:-0.41141389 
0.41427695231383005 1:-0.13765377 2:-0.11059886 3:1.4018525 4:-0.14802782 5:0.37633342 6:-0.27946385 7:0.31420488 8:-0.45863346 
1 1:1.7223758 2:-0.37227555 3:0.053940597 4:-0.56166938 5:-0.66219521 6:-0.46053592 7:-0.24940129 8:-0.54987127 
1 1:0.79236103 2:-0.28681658 3:-0.65770786 4:0.026569493 5:0.15942554 6:-0.047965482 7:-0.34593836 8:0.54178116 
1 1:-1.0676686 2:-0.53268857 3:-0.75870206 4:-0.69441469 5:-0.92511386 6:-0.51605112 7:-0.69375577 8:-0.68432699 
1 1:-1.0676686 2:0.26464456 3:1.2546896 4:-0.71611097 5:0.34675507 6:-0.30962711 7:-0.029708455 8:-0.59769109 
1 1:0.79236103 2:-0.43757643 3:-0.60793214 4:-0.071513113 5:-0.34669284 6:-0.44008782 7:-0.4211805 8:-0.10808817 
0.57005069379141871 1:0.79236103 2:0.25953406 3:1.8418987 4:-0.32519273 5:2.5717041 6:0.80983684 7:3.1222981 8:-0.68672799 
1 1:-0.13765377 2:-0.43909065 3:-0.48277147 4:-0.56783164 5:-0.7805086 6:-0.34580451 7:-0.50777993 8:-0.60749515 
0.72271585527876769 1:0.79236103 2:0.70462103 3:0.88533933 4:-0.42327534 5:0.86273291 6:1.3566615 7:0.060085223 8:-0.59388951 
0.6701875054722537 1:1.7223758 2:1.0738076 3:0.15691862 4:-0.54485155 5:0.71812766 6:2.5665227 7:1.6898582 8:0.0023576012 
0.54552154431858568 1:1.7223758 2:11.381882 3:-0.66059341 4:10.165538 5:4.4910102 6:11.265384 7:-0.608576 8:3.3341384 
1 1:-1.0676686 2:0.38218614 3:3.7117343 4:0.5929837 5:0.87587884 6:-0.3632918 7:1.5336953 8:-0.07367391 
0.45589054102867443 1:1.7223758 2:1.8993431 3:0.62924688 4:1.7011631 5:2.0195749 6:1.6589418 7:0.49876106 8:1.7983019 
1 1:-1.0676686 2:-0.42006822 3:-0.55346741 4:-0.42918084 5:-0.58331962 6:-0.46951088 7:-0.28915185 8:-0.28256048 
1 1:-1.0676686 2:-0.50533791 3:-0.39692639 4:-0.57502094 5:-0.7805086 6:-0.50735374 7:-0.28631252 8:-0.64751174 
0.4979513919890779 1:-0.13765377 2:1.1833048 3:0.8640584 4:0.84640656 5:1.7303644 6:2.0325591 7:2.1043998 8:1.7118661 
1 1:-1.0676686 2:-0.53240465 3:-0.72515756 4:-0.69877962 5:-0.99084352 6:-0.51383051 7:-0.74202431 8:-0.7123386 
1 1:-1.0676686 2:-0.52464426 3:-0.60847318 4:-0.70147561 5:-0.91854089 6:-0.52104749 7:-0.62774145 8:-0.68212608 
1 1:-0.13765377 2:-0.36981494 3:-0.1657218 4:-0.68825243 5:-0.63590335 6:-0.43000256 7:-0.54611083 8:-0.52666165 
0.44254695536241084 1:-0.13765377 2:0.18798702 3:1.5969878 4:0.20604526 5:0.86273291 6:0.1006302 7:1.6458487 8:-0.31217276 
1 1:-1.0676686 2:-0.44429579 3:-0.6555437 4:-0.51057399 5:-0.84623826 6:-0.48727574 7:-0.80023049 8:-0.50425236 
1 1:-1.0676686 2:-0.011890441 3:-0.33164085 4:0.52673943 5:0.58009537 6:0.089434631 7:-0.1571232 8:1.4917749 
0.42314452001889763 1:0.79236103 2:-0.21167326 3:1.5598363 4:-0.12954104 5:0.44206308 6:0.016432147 7:1.6955369 8:0.0679848 
0.33255388229991956 1:-0.13765377 2:1.5755833 3:2.0125068 4:0.62251119 5:1.5726132 6:1.8149395 7:2.0902032 8:1.0347855 
1 1:-0.13765377 2:-0.40880619 3:-0.54445007 4:-0.069972549 5:-0.35983878 6:-0.25161373 7:-0.41266252 8:-0.49144705 
1 1:-1.0676686 2:-0.50959666 3:-0.57745353 4:-0.65346135 5:-0.46500623 6:-0.4538741 7:-0.50281111 8:-0.51625734 
1 1:-1.0676686 2:-0.49066887 3:-0.63282 4:-0.45999212 5:-0.64904928 6:-0.40687123 7:-0.28915185 8:-0.52105933 
1 1:-1.0676686 2:-0.518682 3:-0.67285699 4:-0.54241232 5:-0.7805086 6:-0.50661354 7:-0.60715634 8:-0.43542384 
1 1:-0.13765377 2:-0.45054196 3:-0.59783272 4:-0.71752315 5:-0.95140572 6:-0.45257874 7:-0.46802937 8:-0.65951671 
1 1:0.79236103 2:-0.52663167 3:-0.69810554 4:-0.7473074 5:-0.96455165 6:-0.52012223 7:-0.75196195 8:-0.70993761 
1 1:-0.13765377 2:-0.50950203 3:-0.73633906 4:-0.52289851 5:-0.89882199 6:-0.49153191 7:-0.52907488 8:-0.5330643 
1 1:-1.0676686 2:-0.33300039 3:-0.72443617 4:0.35907466 5:-0.14950386 6:-0.34608209 7:-0.65542487 8:0.48735861 
0.78083367303031004 1:-1.0676686 2:1.4124257 3:3.309561 4:1.3804689 5:2.2890665 6:1.312712 7:0.35963409 8:0.21924749 
0.55533088090559468 1:1.7223758 2:3.0123918 3:0.8247428 4:-0.35086881 5:1.0993597 6:3.9695768 7:1.9567548 8:0.15522096 
0.36739467812065946 1:-1.0676686 2:-0.29864645 3:0.91960522 4:-0.093337777 5:0.060831051 6:-0.40724133 7:-0.26785691 8:-0.55707425 
1 1:0.79236103 2:0.40045145 3:-0.11468366 4:0.41684583 5:0.38126315 6:-0.095708551 7:-0.17167474 8:1.6168267 
0.69302197596736148 1:1.7223758 2:0.55925561 3:0.78434512 4:0.83228472 5:1.0730678 6:2.0058192 7:1.783556 8:0.26966839 
1 1:-0.13765377 2:-0.47921756 3:-0.36491484 4:-0.57996358 5:-0.73449784 6:-0.50818647 7:-0.66429777 8:-0.5330643 
1 1:-1.0676686 2:-0.53581165 3:-0.88927314 4:-0.66514396 5:-0.93825979 6:-0.51512587 7:-0.74770296 8:-0.64751174 
1 1:-0.13765377 2:-0.472025 3:-0.67105352 4:-0.51647949 5:-0.18894166 6:-0.31739924 7:-0.31754511 8:0.089593756 
1 1:-1.0676686 2:-0.45697741 3:-0.6399437 4:-0.076969279 5:-0.63261687 6:-0.49375251 7:-0.71576055 8:-0.47383976 
0.57751528585766176 1:0.79236103 2:3.7142342 3:0.89183181 4:-0.52546612 5:1.7698022 6:2.4365246 7:2.4195649 8:-0.33138072 
1 1:-1.0676686 2:-0.50230947 3:-0.70135178 4:-0.5190471 5:-0.78708157 6:-0.48440746 7:-0.67671982 8:-0.21533262 
1 1:-1.0676686 2:-0.49095279 3:-0.70243386 4:-0.60557547 5:-0.88567606 6:-0.5035602 7:-0.73350633 8:-0.70353495 
0.50511462195752599 1:1.7223758 2:1.6737238 3:0.34655327 4:1.6054555 5:1.2111001 6:0.50052467 7:0.19069421 8:1.7900985 
1 1:0.79236103 2:-0.46984831 3:-0.56500961 4:-0.76245629 5:-0.83309233 6:-0.51521839 7:-0.75338161 8:-0.66752003 
1 1:-0.13765377 2:-0.50088988 3:-0.57763388 4:-0.53573655 5:-0.56360072 6:-0.49412262 7:-0.56598611 8:-0.38980493 
0.33081830850689531 1:-0.13765377 2:-0.27176899 3:1.1886826 4:-0.21196124 5:-0.031190474 6:-0.37957626 7:-0.015156911 8:-0.30737076 
1 1:1.7223758 2:-0.21053759 3:0.51382493 4:-0.17678502 5:0.79700325 6:0.15975388 7:1.6273931 8:0.035171201 
0.21280403567877859 1:0.79236103 2:-0.062333 3:1.2269162 4:0.33083098 5:0.56037647 6:-0.22219068 7:-0.50068162 8:-0.28015949 
1 1:-1.0676686 2:-0.38145553 3:-0.59593908 4:-0.065800186 5:-0.35326581 6:-0.20516601 7:-0.41017811 8:-0.24794614 
0.63883411522455869 1:1.7223758 2:-0.0088619945 3:1.6373855 4:-0.38245038 5:1.3096946 6:0.52171297 7:3.4942498 8:-0.28015949 
1 1:-1.0676686 2:-0.53458135 3:-0.77168703 4:-0.75038853 5:-0.99084352 6:-0.51475576 7:-0.7462833 8:-0.69553164 
0.99795721550552696 1:0.79236103 2:-0.16037895 3:-0.14660504 4:-0.11901385 5:1.4017161 6:0.49025435 7:0.13248803 8:0.079989776 
1 1:-0.13765377 2:-0.37170772 3:-0.58088012 4:-0.35523374 5:-0.6457628 6:-0.36736292 7:-0.55320915 8:-0.42982151 
0.93690205328630904 1:0.79236103 2:-0.15186144 3:-0.075909096 4:-0.29053003 5:-0.17579573 6:0.090729986 7:0.42919757 8:-0.34658702 
1 1:-1.0676686 2:-0.23448124 3:-0.32226282 4:0.36138551 5:0.041112153 6:-0.28899396 7:-0.19119511 8:0.47935529 
1 1:1.7223758 2:-0.087885515 3:-0.0070166201 4:0.32081731 5:0.35661452 6:-0.24134342 7:-0.58444173 8:0.54098083 
0.65524106397997373 1:-0.13765377 2:2.2736401 3:0.46765615 4:2.7348819 5:3.8337136 6:3.7142069 7:0.74294307 8:3.6118535 
0.83745673382457708 1:1.7223758 2:0.1714252 3:-0.053906787 4:1.2374532 5:0.9021707 6:-0.14798536 7:1.143288 8:1.8247129 
1 1:-1.0676686 2:-0.4365354 3:-0.55815643 4:-0.054053382 5:-0.51101699 6:-0.40196739 7:-0.65542487 8:-0.15610807 
1 1:-1.0676686 2:-0.53022795 3:-0.73706045 4:-0.71290146 5:-0.83309233 6:-0.50365272 7:-0.71789004 8:-0.54266828 
0.16370456730210173 1:0.79236103 2:0.16309697 3:2.1351426 4:-0.26074578 5:2.1378883 6:0.69112684 7:3.1876026 8:-0.28095982 
1 1:-1.0676686 2:-0.30820498 3:-0.56140267 4:-0.40247772 5:-0.64247632 6:-0.36430958 7:-0.26359792 8:-0.13209812 
0.41912405551072285 1:-0.13765377 2:-0.050787048 3:1.5273739 4:0.20630202 5:1.046776 6:-0.17731589 7:-0.25933893 8:-0.4698381 
0.33121160374945652 1:-1.0676686 2:0.34773756 3:2.3829391 4:0.41941344 5:0.9810463 6:1.0191291 7:2.3230279 8:0.30408265 
1 1:1.7223758 2:-0.39461034 3:-0.75365235 4:-0.1357033 5:-0.050909372 6:-0.09950209 7:-0.31044679 8:0.20644218 
0.60663754536961412 1:1.7223758 2:1.5657408 3:2.7490431 4:1.9807755 5:2.1773261 6:1.9705671 7:2.2307498 8:1.3060979 
0.48539501292049686 1:-1.0676686 2:0.36325835 3:1.7185415 4:0.46717094 5:1.3622783 6:0.42067531 7:1.4840071 8:-0.38340228 
1 1:-1.0676686 2:-0.52133189 3:-0.85969627 4:-0.61687294 5:-0.87910309 6:-0.48672059 7:-0.76331925 8:-0.49304772 
1 1:-1.0676686 2:-0.51224655 3:-0.72082924 4:-0.63356239 5:-0.63590335 6:-0.46469956 7:-0.43111814 8:-0.47624075 
1 1:-1.0676686 2:-0.1668144 3:1.0000399 4:0.20424793 5:0.21858224 6:-0.39817385 7:-0.28631252 8:-0.52265999 
1 1:-1.0676686 2:-0.46823944 3:-0.6162281 4:-0.56783164 5:-0.86595716 6:-0.47950361 7:-0.65258555 8:-0.55947525 
0.54567580055264742 1:-0.13765377 2:11.381882 3:-0.66059341 4:10.165538 5:4.4910102 6:11.265384 7:-0.608576 8:3.3341384 
-1 1:1.7223758 2:0.39685517 3:-0.0023276034 4:-0.20682603 5:0.82329511 6:0.86590719 7:0.71738914 8:-0.054465949 
-1 1:-0.13765377 2:-0.44259229 3:-0.69521999 4:-0.026323221 5:-0.48472513 6:-0.49708343 7:-0.67530016 8:-0.21853395 
-1 1:0.79236103 2:-0.418554 3:-0.079876726 4:-0.36011219 5:0.19229037 6:-0.26956364 7:0.041629605 8:-0.58268487 
-0.5558490926596471 1:-1.0676686 2:-0.17523726 3:-0.76158761 4:1.0613153 5:-0.018044541 6:-0.47496987 7:-0.69801476 8:0.19843887 
-1 1:-1.0676686 2:0.039782424 3:-0.64111595 4:0.97966539 5:0.50779274 6:0.34665504 7:-0.77183723 8:1.8039042 
-1 1:0.79236103 2:-0.050976326 3:-0.055710255 4:0.57115904 5:0.40262529 6:-0.098021685 7:-0.41408218 8:1.2780863 
-1 1:0.79236103 2:-0.32741669 3:-0.65337954 4:-0.06021564 5:-0.0048986094 6:-0.076740859 7:-0.57876308 8:0.80108863 
-1 1:-0.13765377 2:-0.066307835 3:1.4711057 4:0.030164143 5:0.73127359 6:0.2697665 7:0.36673241 8:-0.14810476 
-0.8762401926311808 1:1.7223758 2:-0.52350859 3:-0.63805006 4:-0.70738111 5:-0.86595716 6:-0.51438566 7:-0.59757361 8:-0.67632368 
-1 1:-0.13765377 2:-0.51243583 3:-0.67682462 4:-0.52520935 5:-0.74107081 6:-0.51170243 7:-0.55604847 8:-0.35779166 
-1 1:-1.0676686 2:-0.53240465 3:-0.69594138 4:-0.78530799 5:-0.96455165 6:-0.51410809 7:-0.70369341 8:-0.74115054 
-1 1:-0.13765377 2:0.8620056 3:4.2336579 4:0.55729396 5:1.8749697 6:-0.26928607 7:1.3235852 8:-0.34658702 
-0.11199984387730975 1:-0.13765377 2:-0.4484599 3:-0.79693559 4:-0.21529913 5:-0.57017369 6:-0.40205991 7:-0.65684454 8:0.13521266 
-1 1:-1.0676686 2:-0.5203855 3:-0.72660034 4:-0.48874933 5:-0.87253013 6:-0.49578807 7:-0.70227375 8:-0.5810842 
-1 1:-1.0676686 2:-0.51044841 3:-0.78755755 4:-0.57579122 5:-0.8199464 6:-0.51632869 7:-0.79881083 8:-0.50825402 
-1 1:-1.0676686 2:-0.47183572 3:-0.88710898 4:-0.21170448 5:-0.60303852 6:-0.48810847 7:-0.64832656 8:-0.17931769 
-1 1:0.79236103 2:-0.34199109 3:-0.16752527 4:-0.26896213 5:-0.07062827 6:-0.24819029 7:0.051567245 8:-0.40901289 
-1 1:1.7223758 2:-0.31009776 3:0.69128617 4:-0.6792658 5:0.12656071 6:-0.12651949 7:0.8089574 8:-0.68352666 
-1 1:-0.13765377 2:-0.50921811 3:-0.7457171 4:-0.75963192 5:-1.0039894 6:-0.49837878 7:-0.58870072 8:-0.66111737 
-1 1:-1.0676686 2:-0.49066887 3:-0.85500725 4:-0.22633984 5:-0.71477894 6:-0.49032908 7:-0.66394285 8:-0.28896314 
-1 1:0.79236103 2:-0.028736173 3:-0.099714873 4:-0.40504532 5:-0.55702776 6:-0.41649387 7:-0.48932432 8:-0.54426895 
-0.96624320908700634 1:1.7223758 2:0.38748592 3:-0.82795523 4:2.2198198 5:0.56694944 6:-0.35107846 7:-0.65684454 8:1.108416 
-0.50274941901548287 1:1.7223758 2:-0.022111447 3:-0.57294487 4:0.5295638 5:0.30403079 6:0.17048682 7:-0.43111814 8:1.5213872 
-1 1:-1.0676686 2:1.4145078 3:3.1501344 4:0.095124612 5:1.3096946 6:0.45204139 7:-0.013737248 8:-0.52906264 
-1 1:1.7223758 2:0.21041645 3:0.024003029 4:0.027596536 5:0.71812766 6:1.3768321 7:0.91188296 8:0.7194548 
-0.80499508753672211 1:1.7223758 2:-0.198897 3:-0.79152518 4:0.64048444 5:-0.011471575 6:-0.16278941 7:-0.50777993 8:0.68424021 
-1 1:-1.0676686 2:-0.53467599 3:-0.71830438 4:-0.73755049 5:-0.97769758 6:-0.51318283 7:-0.60289735 8:-0.70913728 
-1 1:-0.13765377 2:-0.47391778 3:-0.72623964 4:-0.48900609 5:-0.78708157 6:-0.47496987 7:-0.54185184 8:-0.33218105 
-1 1:-0.13765377 2:-0.50779852 3:-0.71433675 4:-0.69056328 5:-0.99084352 6:-0.5101295 7:-0.62845128 8:-0.72674457 
-0.83382390718266097 1:-0.13765377 2:-0.51423397 3:-0.62777029 4:-0.73113147 5:-0.93825979 6:-0.51614364 7:-0.77183723 8:-0.68912898 
-1 1:-1.0676686 2:-0.5225622 3:-0.79657489 4:-0.68234693 5:-0.7805086 6:-0.51660627 7:-0.76615858 8:-0.58428553 
-1 1:-1.0676686 2:-0.35221209 3:-0.73633906 4:-0.023755614 5:-0.011471575 6:-0.21034743 7:-0.46802937 8:0.58179775 
-1 1:-1.0676686 2:-0.51943911 3:-0.68115294 4:-0.65923847 5:-0.93825979 6:-0.50652101 7:-0.76047993 8:-0.61229714 
-1 1:-1.0676686 2:-0.53202609 3:-0.70676219 4:-0.70365807 5:-0.95140572 6:-0.51364546 7:-0.72072937 8:-0.63870809 
-1 1:0.79236103 2:-0.3478587 3:0.92979481 4:-0.64325511 5:-0.11663903 6:-0.3632918 7:-0.77361181 8:-0.59809125 
-1 1:-1.0676686 2:-0.2219889 3:1.3888676 4:-0.0062958831 5:0.52093867 6:-0.28917901 7:0.47178746 8:-0.25134755 
-0.62844901155829513 1:-1.0676686 2:-0.53221537 3:-0.79441073 4:-0.68491454 5:-1.0039894 6:-0.51401556 7:-0.7079524 8:-0.60829548 
-1 1:-1.0676686 2:-0.46360214 3:0.60976942 4:-0.59479152 5:-0.61618445 6:-0.50781636 7:-0.4595114 8:-0.62270145 
-1 1:-1.0676686 2:-0.42158244 3:-0.54526163 4:-0.076327377 5:-0.45843327 6:-0.45137591 7:-0.49322839 8:0.10980213 
-1 1:-0.13765377 2:2.3227577 3:0.13978567 4:3.3087421 5:1.9406993 6:1.7165851 7:0.5811015 8:4.6418804 
-0.16179294389487683 1:-0.13765377 2:-0.50477008 3:-0.74752056 4:-0.40555885 5:-0.66876818 6:-0.51392304 7:-0.73918499 8:-0.22893826 
-1 1:-1.0676686 2:-0.53107971 3:-0.7734905 4:-0.74859121 5:-0.99741648 6:-0.52086244 7:-0.72214903 8:-0.71714059 
-1 1:-0.13765377 2:0.78506413 3:1.0451266 4:1.5078222 5:2.0590127 6:0.35868334 7:3.1861829 8:2.5938316 
-0.60552948202759982 1:-1.0676686 2:-0.31047632 3:-0.76663732 4:0.31362801 5:-0.057482338 6:-0.14030576 7:-0.65542487 8:0.7698757 
-1 1:1.7223758 2:-0.026748755 3:-0.29602236 4:0.70948889 5:0.55216026 6:0.16576803 7:-0.24620705 8:0.85130945 
-1 1:-1.0676686 2:-0.53505454 3:-0.7962142 4:-0.67900904 5:-0.95140572 6:-0.51623617 7:-0.70653274 8:-0.6162988 
-0.79452251368288829 1:0.79236103 2:-0.037821512 3:-0.57727319 4:1.0785183 5:0.12656071 6:-0.072854795 7:-0.62419229 8:-0.28256048 
-1 1:-1.0676686 2:-0.53041723 3:-0.71830438 4:-0.63433267 5:-0.92511386 6:-0.51984466 7:-0.65258555 8:-0.57788288 
-1 1:-1.0676686 2:-0.5135715 3:-0.77024426 4:-0.49722243 5:-0.76736267 6:-0.49467777 7:-0.65968386 8:-0.25935086 
-1 1:-1.0676686 2:-0.50514863 3:-0.71505814 4:-0.57193981 5:-0.89224902 6:-0.49884141 7:-0.66252319 8:-0.67712401 
-1 1:-0.13765377 2:-0.52237292 3:-0.71289398 4:-0.68234693 5:-0.92511386 6:-0.5046705 7:-0.68097881 8:-0.59549018 
-1 1:-1.0676686 2:-0.41798616 3:-0.70387664 4:-0.11208131 5:-0.4912981 6:-0.38420253 7:-0.6582642 8:0.25846374 
-0.93502129739040341 1:0.79236103 2:-0.33962511 3:-0.25733797 4:-0.51930386 5:-0.86595716 6:-0.45544703 7:-0.71789004 8:-0.64190941 
-1 1:-1.0676686 2:-0.28473453 3:0.88858557 4:-0.10720286 5:-0.25467132 6:-0.30981216 7:0.22902511 8:-0.20332764 
-1 1:-1.0676686 2:-0.51158408 3:-0.75834137 4:-0.51647949 5:-0.71477894 6:-0.47413714 7:-0.68381813 8:-0.23053892 
-1 1:-1.0676686 2:-0.50921811 3:-0.74752056 4:-0.5739939 5:-0.91196792 6:-0.51346041 7:-0.74912263 8:-0.63470643 
-0.53853403736329364 1:-0.13765377 2:-0.083721402 3:-0.60071827 4:0.49284701 5:0.41577122 6:0.64726984 7:-0.608576 8:1.1980532 
-1 1:-0.13765377 2:-0.073595034 3:-0.33461657 4:0.40535579 5:-0.20044435 6:-0.31175519 7:-0.59083021 8:0.18963522 
-0.36467814707321417 1:-0.13765377 2:0.17369653 3:-0.72155062 4:1.3789284 5:0.52093867 6:0.24765294 7:-0.76473892 8:1.7734916 
-1 1:-1.0676686 2:-0.30527118 3:-0.72479687 4:0.6623091 5:-0.22837945 6:-0.40354032 7:-0.68239847 8:0.0007569378 
-1 1:0.79236103 2:1.4075991 3:-0.065448982 4:2.727179 5:2.400807 6:0.97740021 7:-0.013737248 8:3.9752041 
-1 1:-0.13765377 2:-0.49284557 3:-0.75076681 4:-0.48849257 5:-0.76736267 6:-0.48042887 7:-0.65684454 8:-0.29456546 
-1 1:-1.0676686 2:-0.076434203 3:1.966338 4:0.036583162 5:0.25802003 6:-0.29454548 7:0.65918296 8:-0.2553492 
-1 1:0.79236103 2:-0.4844227 3:-0.84418645 4:-0.49337102 5:-0.51758996 6:-0.36717787 7:-0.70227375 8:-0.012848701 
-1 1:-1.0676686 2:-0.52757806 3:-0.7118119 4:-0.62252168 5:-0.82651936 6:-0.51808668 7:-0.75196195 8:-0.5506716 
-1 1:1.7223758 2:-0.15877009 3:1.3455843 4:-0.52084442 5:1.80924 6:0.15697812 7:2.0887835 8:-0.56267658 
-1 1:0.79236103 2:0.35142848 3:2.5564327 4:0.63021401 5:1.7698022 6:0.49839658 7:1.4470959 8:-0.24654556 
-1 1:-1.0676686 2:-0.33867873 3:0.71581334 4:-0.36627445 5:0.047685119 6:-0.36199645 7:-0.24372264 8:-0.62190112 
-1 1:1.7223758 2:-0.4467564 3:-0.30350675 4:-0.57373714 5:-0.8199464 6:-0.47025108 7:-0.46802937 8:-0.65151339 
-1 1:-1.0676686 2:-0.43227664 3:-0.47050789 4:-0.69210384 5:-0.77393564 6:-0.41963973 7:-0.36439398 8:-0.64511074 
-1 1:0.79236103 2:-0.52048014 3:-0.53687551 4:-0.66694129 5:-0.8199464 6:-0.51882688 7:-0.55036982 8:-0.68272633 
